{"learner":{"attributes":{"scikit_learn":"{\"use_label_encoder\": true, \"n_estimators\": 100, \"objective\": \"binary:logistic\", \"max_depth\": 9, \"learning_rate\": null, \"verbosity\": null, \"booster\": null, \"tree_method\": null, \"gamma\": 0, \"min_child_weight\": 1, \"max_delta_step\": null, \"subsample\": 0.8, \"colsample_bytree\": 0.8, \"colsample_bylevel\": null, \"colsample_bynode\": null, \"reg_alpha\": null, \"reg_lambda\": null, \"scale_pos_weight\": null, \"base_score\": null, \"missing\": NaN, \"num_parallel_tree\": null, \"kwargs\": {}, \"random_state\": null, \"n_jobs\": null, \"monotone_constraints\": null, \"interaction_constraints\": null, \"importance_type\": \"gain\", \"gpu_id\": null, \"validate_parameters\": null, \"classes_\": [0, 1], \"n_classes_\": 2, \"_le\": {\"classes_\": [0, 1]}, \"_estimator_type\": \"classifier\"}"},"feature_names":[],"feature_types":[],"gradient_booster":{"model":{"gbtree_model_param":{"num_trees":"100","size_leaf_vector":"0"},"tree_info":[0,0,0,0,0,0,0,0,0,0,0,0,0,0,0,0,0,0,0,0,0,0,0,0,0,0,0,0,0,0,0,0,0,0,0,0,0,0,0,0,0,0,0,0,0,0,0,0,0,0,0,0,0,0,0,0,0,0,0,0,0,0,0,0,0,0,0,0,0,0,0,0,0,0,0,0,0,0,0,0,0,0,0,0,0,0,0,0,0,0,0,0,0,0,0,0,0,0,0,0],"trees":[{"base_weights":[-3.360924E-1,3.6569095E-1,-1.8864036E0,-3.4242094E-1,5.0638235E-1,-1.0854093E0,-1.9650755E0,1.6714258E-1,-1.0247386E0,-6.7368424E-1,5.3114146E-1,-1.646973E0,-2.0658343E-1,-1.6673961E0,-1.9906524E0,3.9766082E-1,-8.330028E-2,4.0901214E-1,-1.6203537E0,5.3333336E-1,-1.5035461E0,5.7510453E-1,4.3176252E-1,9.02439E-1,-1.9867878E0,-1.7605634E0,5.291181E-1,-1.9682287E0,-9.947644E-1,-1.8576349E0,-1.9960201E0,5.1645064E-1,7.084469E-2,-2.1923077E-1,5.52809E-1,1.2284867E0,7.0645556E-2,-1.0089021E0,-1.8134222E0,2.3350254E-1,8.22335E-1,9E-1,-1.6742424E0,6.2463E-1,4.699323E-1,3.4105262E-1,5.9995884E-1,1.6363636E0,5.132743E-1,-0E0,-1.953125E0,-1.804878E0,6.9503546E-1,4E-1,-1.9903846E0,4.372093E-1,-1.8342541E0,-1.9815384E0,-1.4666667E0,6.192075E-1,2.1880998E-1,-6.904762E-1,2.9473683E-1,-1.997147E-2,-6.27566E-1,5.995423E-1,-1.3333334E0,-1.36E0,1.4177215E0,1.8134034E-1,-1.25E0,3.0508474E-1,-1.1276252E0,5E-1,-1.8456343E0,1.6363636E0,5.586592E-2,1.104E0,3.1578946E-1,-2E-1,1.6666666E0,-9.4285715E-1,-1.9183674E0,6.338969E-1,-5.411765E-1,4.8544484E-1,-5.479452E-2,2.4612767E-1,5.174382E-1,5.3245324E-1,7.983673E-1,-2.0689656E-1,7.2727275E-1,8E-1,-1E0,4.117647E-1,1.1052631E0,5.4545456E-1,-0E0,2.8169014E-2,1.1688311E0,-1.8985915E0,9.0909094E-1,3.1111112E-1,-1.8695652E0,3.4319526E-1,7.586207E-1,3.926097E-1,-6.086956E-1,-3.125E-1,-1.7272727E0,4.9425286E-1,-1.7699115E-2,-3.1454006E-1,7.296539E-2,-8.5333335E-1,-4.4559586E-1,6.296296E-1,-1.1111112E0,-2.2222222E-1,-1.6E0,1.6081632E0,7.2E-1,-9.3877554E-1,2.5698325E-1,-2E-1,-1.5833334E0,6.3829786E-1,-7.5E-1,-9.22449E-1,-1.2486773E0,-7.5E-1,1.4E0,-1.8579767E0,-2.857143E-1,2E-1,-9.5652175E-1,1.2857143E0,-3.529412E-1,-5E-1,6.4285713E-1,5.714286E-1,-1.2E0,4.347826E-1,-1.1735537E0,-5.4545456E-1,-1.9376624E0,7.5635844E-1,6.032872E-1,-1.1111112E0,2.4E-1,4.6001506E-1,9.8507464E-1,2.4761905E-1,-7.906977E-1,3.4544772E-1,-7.356747E-1,6.350261E-1,2.797336E-1,5.884692E-1,2.5723472E-1,7.481752E-1,1.1879699E0,1E0,-5.6E-1,3.4146342E-1,9.8039216E-1,1.2727273E0,1.5384616E-1,-1.3333334E0,-0E0,1.1914893E0,1.12E-1,-0E0,1.1775701E0,1.3333334E0,-7.3913044E-1,-1.3333334E-1,1.3939394E0,-5E-1,-1.908832E0,-1.7142858E-1,1.4285715E0,-1.9111111E0,-0E0,9.87013E-1,6.162465E-2,1.1312218E0,6.475943E-1,4.854369E-1,-1.2E0,1.4782609E0,-1.2328767E0,4.680851E-1,-7.294118E-1,1.1167513E-1,9.677419E-1,-1.6161616E-1,8.75E-1,2.0289855E-1,-1.1044776E0,-2.4905661E-1,1.7821783E-1,9.0909094E-1,-9.787234E-1,3.5820895E-1,-8.59375E-1,5.425532E-1,1.1333333E0,1.7419355E0,1.1111112E0,1.2380953E0,5.4054055E-2,1.25E0,-1.7837838E0,1.3772455E-1,1.7692307E0,-8.5714287E-1,8E-1,-1.804878E0,-1.8181819E-1,-0E0,8.5714287E-1,-1E0,-0E0,-3.4920636E-1,-1.4796748E0,-1.4086957E0,3.783784E-1,-1E0,-0E0,-1.6219282E0,-1.9346832E0,-1.4285715E0,1.2727273E0,-1.0769231E0,3.0463576E-1,-1.3684211E0,5E-1,4E-1,1.4725275E0,-1.2727273E0,8E-1,4E-1,-8.888889E-1,1.5E0,-0E0,-5E-1,1.2E0,-3.3333334E-1,9.3333334E-1,-1.0526316E-1,-1.3207548E0,4.2979944E-1,8.63464E-1,4.9801803E-1,6.237715E-1,-1.4929577E0,-1.25E-1,-4.2105263E-1,8.292683E-1,5.0421745E-1,2.7820373E-1,1.242236E0,4.10596E-1,3.4E-1,-1.1428572E0,-9.52381E-2,-1.3333334E0,1.075E0,2.986858E-1,3.3444814E-2,-1.6585366E0,1.7333333E0,6.1797214E-1,-1.1E0,3.3300492E-1,6.6242546E-1,2.1696253E-1,-2.5641027E-1,4.8723897E-1,8.2068205E-1,3.8743454E-1,1.3170732E0,-2.857143E-1,6.666667E-1,-1E0,5.555556E-1,-6.666667E-1,1.8181819E-1,1.0909091E0,1.1111112E0,-1E0,1.2857143E0,2.857143E-1,5.736434E-1,-3.68E-1,1.2727273E0,-1.2727273E0,9E-1,1.4693878E0,7.586207E-1,1.7241379E0,5.4545456E-1,-1.081081E0,1E0,-9.0909094E-1,1.7714286E0,8.5714287E-1,1.1428572E0,-8.8E-1,1.1532847E0,-2.857143E-1,-7.246377E-1,2.4657534E-1,1.5384616E-1,1.2361809E0,9.4666666E-1,4.524313E-1,1.3513514E0,3.9577836E-1,-4E-1,-1.3684211E0,-1.6190476E0,8.5714287E-1,-4.7619048E-1,1.0666667E0,-1.081081E0,1.2E0,-1.2727273E0,2.793296E-1,1.0434783E0,2.857143E-1,-2.3255814E-2,-9.3333334E-1,1.52E0,-9.0909094E-1,6.885246E-1,-4.7191012E-1,4.4444445E-1,-1.3E0,4.1666668E-2,-9.6103895E-1,2.9773462E-1,-2.0618556E-1,1.1111112E0,-0E0,1.5384616E-1,-1.0769231E0,-1.0169491E-1,6.835443E-1,-1.7333333E0,-3.764706E-1,5.7142857E-2,6.451613E-1,1.5151515E0,5.8064514E-1,1.3333334E0,5.6E-1,1.5862069E0,3.529412E-1,-8.5714287E-1,5.185185E-1,-1.6521739E0,2.0030816E-1,-2.2222222E-1,-1.1111112E0,8E-1,-8E-1,-0E0,1.1111112E0,-0E0,-1.375E0,-1.5630252E0,5E-1,-1.6703297E0,-1.0898204E0,-1.2E0,8.3870965E-1,-1.8181819E-1,-1.6398468E0,1E0,1.6793893E-1,1.5E0,-1.0769231E0,1.6E0,4E-1,-1.1428572E0,-0E0,-1.2727273E0,4.827586E-1,-0E0,-5E-1,-6.666667E-1,1E0,-1.4059407E0,2.2222222E-1,1.0350877E0,2.600243E-1,9.6091515E-1,6.691589E-1,2.8701594E-1,5.3675216E-1,7.0317507E-1,5.9809595E-1,-1.6774193E0,-1.5384616E-1,-1.2E0,3.0769232E-1,-8.333333E-1,2.2222222E-1,1.5384616E0,-3.1578946E-1,5.3704494E-1,8.547009E-3,8.835341E-2,5.0359714E-1,1.099631E0,1.8545455E0,-1.8867925E-1,7.058824E-1,-6.666667E-1,4.4808742E-1,-8.5714287E-1,2.5E-1,-1.6470588E0,-4.4444445E-1,1.4814815E-1,1.2444445E0,1.5467487E-1,4.5241037E-1,-2.0920502E-1,9.375E-1,-1.7333333E0,8E-1,8.032E-1,5.369863E-1,-1.6E0,2.857143E-1,2.5892857E-1,8.6178863E-1,6.1231726E-1,1.0839695E0,5.833333E-1,7.084469E-2,-1.25E-1,-7.692308E-1,3.7037036E-1,9.5238096E-1,1.1147541E0,7.085202E-1,-1.0769231E0,6.035503E-1,1.4495413E0,2.2222222E-1,-1.2E0,1E0,-1.8181819E-1,7.586207E-1,5.882353E-1,1.2258065E0,6.2857145E-1,1.6226416E0,1.1111112E0,-6.666667E-1,1.4666667E0,2.9126215E-1,1.0967742E0,-8.1632656E-1,1.1111112E0,-8E-2,-4.6153846E-1,1.4E0,-4.6153846E-1,1.3846154E0,-5.217391E-1,-1.75E0,-1.2E0,1.4482758E0,-1.2E0,-2.857143E-1],"categories":[],"categories_nodes":[],"categories_segments":[],"categories_sizes":[],"default_left":[true,true,true,true,true,true,true,true,true,true,true,true,true,true,true,true,true,true,true,true,true,true,true,true,false,true,true,true,true,true,false,true,true,true,true,true,true,true,true,true,true,true,true,true,true,true,true,false,true,true,false,false,true,true,false,true,true,false,true,true,true,true,true,true,true,true,false,true,true,true,true,true,true,true,true,false,true,true,true,true,false,true,true,true,true,true,true,true,true,true,true,true,true,true,true,true,true,false,false,true,true,true,false,true,true,true,true,true,true,true,false,true,true,true,true,true,true,true,false,false,false,true,true,true,true,true,true,true,true,true,true,true,false,true,true,true,true,true,true,true,true,true,false,true,true,false,false,true,true,true,true,true,true,true,true,true,true,true,true,true,true,true,true,false,true,true,true,false,true,false,false,true,true,true,true,true,true,true,true,false,false,true,false,false,false,true,true,true,true,true,true,false,true,true,true,true,true,true,true,true,true,true,true,true,true,true,true,true,true,false,true,true,true,false,false,true,false,true,false,false,false,true,true,false,false,true,true,true,true,false,false,true,false,false,false,false,true,false,false,true,true,false,false,false,true,false,true,false,false,true,false,true,true,true,true,true,true,true,true,true,true,true,true,true,true,true,false,true,true,true,true,true,true,false,true,true,true,true,true,true,true,true,true,true,true,false,false,true,false,false,true,false,false,true,true,true,true,false,false,true,false,true,false,true,true,false,false,false,true,false,true,false,false,false,false,false,false,false,false,false,false,false,false,false,false,false,false,false,false,false,false,false,false,false,false,false,false,false,false,false,false,false,false,false,false,false,false,false,false,false,false,false,false,false,false,false,false,false,false,false,false,false,false,false,false,false,false,false,false,false,false,false,false,false,false,false,false,false,false,false,false,false,false,false,false,false,false,false,false,false,false,false,false,false,false,false,false,false,false,false,false,false,false,false,false,false,false,false,false,false,false,false,false,false,false,false,false,false,false,false,false,false,false,false,false,false,false,false,false,false,false,false,false,false,false,false,false,false,false,false,false,false,false,false,false,false,false,false,false,false,false,false,false,false,false,false,false,false,false,false,false,false,false,false,false,false,false,false,false,false,false,false,false,false,false,false,false,false,false,false,false],"id":0,"left_children":[1,3,5,7,9,11,13,15,17,19,21,23,25,27,29,31,33,35,37,39,41,43,45,47,-1,49,51,53,55,57,-1,59,61,63,65,67,69,71,73,75,77,79,81,83,85,87,89,-1,91,93,-1,-1,95,97,-1,99,101,-1,103,105,107,109,111,113,115,117,-1,119,121,123,125,127,129,131,133,-1,135,137,139,141,-1,143,145,147,149,151,153,155,157,159,161,163,165,167,169,171,173,-1,-1,175,177,179,-1,181,183,185,187,189,191,193,-1,195,197,199,201,203,205,207,-1,-1,-1,209,211,213,215,217,219,221,223,225,227,229,-1,231,233,235,237,239,241,243,245,247,-1,249,251,-1,-1,253,255,257,259,261,263,265,267,269,271,273,275,277,279,281,283,-1,285,287,289,-1,291,-1,-1,293,295,297,299,301,303,305,307,-1,-1,309,-1,-1,-1,311,313,315,317,319,321,-1,323,325,327,329,331,333,335,337,339,341,343,345,347,349,351,353,355,-1,357,359,361,-1,-1,363,-1,365,-1,-1,-1,367,369,-1,-1,371,373,375,377,-1,-1,379,-1,-1,-1,-1,381,-1,-1,383,385,-1,-1,-1,387,-1,389,-1,-1,391,-1,393,395,397,399,401,403,405,407,409,411,413,415,417,419,421,-1,423,425,427,429,431,433,-1,435,437,439,441,443,445,447,449,451,453,455,-1,-1,457,-1,-1,459,-1,-1,461,463,465,467,-1,-1,469,-1,471,-1,473,475,-1,-1,-1,477,-1,479,-1,-1,-1,-1,-1,-1,-1,-1,-1,-1,-1,-1,-1,-1,-1,-1,-1,-1,-1,-1,-1,-1,-1,-1,-1,-1,-1,-1,-1,-1,-1,-1,-1,-1,-1,-1,-1,-1,-1,-1,-1,-1,-1,-1,-1,-1,-1,-1,-1,-1,-1,-1,-1,-1,-1,-1,-1,-1,-1,-1,-1,-1,-1,-1,-1,-1,-1,-1,-1,-1,-1,-1,-1,-1,-1,-1,-1,-1,-1,-1,-1,-1,-1,-1,-1,-1,-1,-1,-1,-1,-1,-1,-1,-1,-1,-1,-1,-1,-1,-1,-1,-1,-1,-1,-1,-1,-1,-1,-1,-1,-1,-1,-1,-1,-1,-1,-1,-1,-1,-1,-1,-1,-1,-1,-1,-1,-1,-1,-1,-1,-1,-1,-1,-1,-1,-1,-1,-1,-1,-1,-1,-1,-1,-1,-1,-1,-1,-1,-1,-1,-1,-1,-1,-1,-1,-1,-1,-1,-1,-1,-1,-1,-1,-1,-1,-1,-1,-1,-1,-1],"loss_changes":[2.1853092E4,1.3777168E3,3.9228125E2,7.972372E2,3.374026E2,2.770161E2,4.0066406E1,7.584921E1,8.377606E2,2.3869563E2,4.9118164E1,2.9872687E2,2.5273576E2,9.051587E1,3.515625E-2,2.6517944E1,5.4616795E1,7.99093E1,7.995093E1,8.2565155E0,5.9355804E1,4.049463E1,5.2729797E1,1.0870415E1,0E0,2.4070206E1,5.9438824E1,1.7311035E1,1.7300667E2,7.642029E0,0E0,1.5202713E1,3.1481775E1,4.229705E1,1.0605602E1,4.3196434E1,3.023188E1,2.6630127E1,4.0064575E1,1.2181659E1,6.6781693E0,8.766666E0,2.1759796E1,5.7825195E1,2.046576E1,3.7649933E1,1.5838196E1,0E0,4.504231E0,7.2E0,0E0,0E0,1.5929871E1,2.1818179E-1,0E0,1.6052452E1,1.769925E1,0E0,4.087149E1,1.4063736E1,1.897157E1,1.5919371E1,8.891625E0,9.618337E0,6.6243973E0,6.322571E0,0E0,1.3511105E0,9.339279E0,1.6360905E1,5.2833347E0,5.6643524E0,2.691681E0,1.005E1,9.4470215E0,0E0,6.7212048E0,8.727123E0,5.3909774E0,4.542857E0,0E0,1.1633825E1,1.5391235E0,1.9333008E1,1.9188496E1,3.0535522E1,1.644173E1,1.4347589E2,2.1861877E1,1.3862335E1,5.0998993E0,3.6496553E0,1.8136597E0,1.3314683E0,1.3333335E0,1.9733936E1,4.555336E0,0E0,0E0,3.653705E1,5.8285713E0,3.166504E-1,0E0,6.3111115E0,3.5729523E0,2.2916435E1,9.464767E0,1.658593E1,3.1783203E1,1.075535E1,0E0,1.5651659E1,7.40023E0,3.4660797E1,9.102451E0,1.7464035E1,3.240351E1,4.1220665E0,0E0,0E0,0E0,2.1371307E0,6.4022646E0,2.4886517E1,3.2038742E1,3.9714286E0,3.3978176E0,1.6413374E0,7.5E-1,1.9048107E1,2.5136932E1,7.5E-1,0E0,6.1688232E0,1.1168831E1,5.672542E0,4.1338677E0,4.0439568E0,5.5251336E0,2.4555557E0,7.714286E0,2.9571428E0,0E0,2.5130434E0,4.6178894E0,0E0,0E0,3.641516E1,8.807495E0,9.132826E0,7.6529913E0,1.852649E1,1.6811722E1,7.1323814E0,7.9867115E0,4.5205765E1,9.605472E1,8.7951355E0,1.9678495E1,2.0586365E1,1.8495785E1,6.848831E0,6.702366E0,0E0,4.04E0,2.5826557E0,9.269161E-1,0E0,4.700855E0,0E0,0E0,1.638298E0,1.4060402E1,8.909091E0,3.0110474E0,1.7241364E0,1.0692769E1,4.2060604E0,1.8251076E0,0E0,0E0,9.154285E0,0E0,0E0,0E0,8.476822E0,1.3157392E1,5.4776154E0,1.0792923E1,7.4617367E0,2.9473686E-1,0E0,1.6117418E1,7.149342E0,1.5715739E1,1.1786498E1,1.7034645E0,5.26366E0,1.0587727E1,1.728364E1,1.0723217E1,1.375312E1,9.341806E0,1.0101008E0,8.006546E0,5.0818825E0,2.6357903E1,4.6449947E0,2.2856312E0,0E0,1.1822224E0,2.6755524E0,4.359216E0,0E0,0E0,1.9038002E1,0E0,3.174603E-1,0E0,0E0,0E0,3.2E0,1.9047618E0,0E0,0E0,1.12837305E1,5.8554688E0,5.375351E0,7.7272882E0,0E0,0E0,3.1145325E0,0E0,0E0,0E0,0E0,3.420353E0,0E0,0E0,1.1769231E1,2.4703293E0,0E0,0E0,0E0,1.0158732E0,0E0,6.144201E0,0E0,0E0,1.6666666E-1,0E0,3.614035E0,3.7955894E0,2.662904E1,1.4334778E1,5.5159454E0,6.787842E0,4.126446E0,4.0903845E0,2.7046783E0,8.809519E0,3.0378632E1,1.9489597E1,4.989807E0,6.8133416E0,5.739125E0,0E0,2.9761903E0,2.614378E0,1.2379631E1,2.7724304E1,1.659395E1,1.2695938E1,0E0,7.372864E0,7.3857155E0,9.716339E0,1.2617218E1,6.744021E0,3.1891026E0,5.50461E0,6.7057037E0,1.5761454E1,4.137638E0,5.3142858E0,0E0,0E0,1.4855452E0,0E0,0E0,2.4840355E-2,0E0,0E0,3.6296463E0,3.4920633E0,7.7053957E0,2.141711E1,0E0,0E0,6.295557E0,0E0,6.319894E0,0E0,5.286713E0,6.008812E0,0E0,0E0,0E0,1.23783245E1,0E0,8.457141E-1,0E0,0E0,0E0,0E0,0E0,0E0,0E0,0E0,0E0,0E0,0E0,0E0,0E0,0E0,0E0,0E0,0E0,0E0,0E0,0E0,0E0,0E0,0E0,0E0,0E0,0E0,0E0,0E0,0E0,0E0,0E0,0E0,0E0,0E0,0E0,0E0,0E0,0E0,0E0,0E0,0E0,0E0,0E0,0E0,0E0,0E0,0E0,0E0,0E0,0E0,0E0,0E0,0E0,0E0,0E0,0E0,0E0,0E0,0E0,0E0,0E0,0E0,0E0,0E0,0E0,0E0,0E0,0E0,0E0,0E0,0E0,0E0,0E0,0E0,0E0,0E0,0E0,0E0,0E0,0E0,0E0,0E0,0E0,0E0,0E0,0E0,0E0,0E0,0E0,0E0,0E0,0E0,0E0,0E0,0E0,0E0,0E0,0E0,0E0,0E0,0E0,0E0,0E0,0E0,0E0,0E0,0E0,0E0,0E0,0E0,0E0,0E0,0E0,0E0,0E0,0E0,0E0,0E0,0E0,0E0,0E0,0E0,0E0,0E0,0E0,0E0,0E0,0E0,0E0,0E0,0E0,0E0,0E0,0E0,0E0,0E0,0E0,0E0,0E0,0E0,0E0,0E0,0E0,0E0,0E0,0E0,0E0,0E0,0E0,0E0,0E0,0E0,0E0,0E0,0E0,0E0,0E0,0E0,0E0,0E0,0E0,0E0,0E0,0E0,0E0,0E0,0E0,0E0,0E0,0E0],"parents":[2147483647,0,0,1,1,2,2,3,3,4,4,5,5,6,6,7,7,8,8,9,9,10,10,11,11,12,12,13,13,14,14,15,15,16,16,17,17,18,18,19,19,20,20,21,21,22,22,23,23,25,25,26,26,27,27,28,28,29,29,31,31,32,32,33,33,34,34,35,35,36,36,37,37,38,38,39,39,40,40,41,41,42,42,43,43,44,44,45,45,46,46,48,48,49,49,52,52,53,53,55,55,56,56,58,58,59,59,60,60,61,61,62,62,63,63,64,64,65,65,67,67,68,68,69,69,70,70,71,71,72,72,73,73,74,74,76,76,77,77,78,78,79,79,81,81,82,82,83,83,84,84,85,85,86,86,87,87,88,88,89,89,90,90,91,91,92,92,93,93,94,94,95,95,96,96,99,99,100,100,101,101,103,103,104,104,105,105,106,106,107,107,108,108,109,109,111,111,112,112,113,113,114,114,115,115,116,116,117,117,121,121,122,122,123,123,124,124,125,125,126,126,127,127,128,128,129,129,130,130,131,131,133,133,134,134,135,135,136,136,137,137,138,138,139,139,140,140,141,141,143,143,144,144,147,147,148,148,149,149,150,150,151,151,152,152,153,153,154,154,155,155,156,156,157,157,158,158,159,159,160,160,161,161,162,162,164,164,165,165,166,166,168,168,171,171,172,172,173,173,174,174,175,175,176,176,177,177,178,178,181,181,185,185,186,186,187,187,188,188,189,189,190,190,192,192,193,193,194,194,195,195,196,196,197,197,198,198,199,199,200,200,201,201,202,202,203,203,204,204,205,205,206,206,207,207,208,208,210,210,211,211,212,212,215,215,217,217,221,221,222,222,225,225,226,226,227,227,228,228,231,231,236,236,239,239,240,240,244,244,246,246,249,249,251,251,252,252,253,253,254,254,255,255,256,256,257,257,258,258,259,259,260,260,261,261,262,262,263,263,264,264,265,265,267,267,268,268,269,269,270,270,271,271,272,272,274,274,275,275,276,276,277,277,278,278,279,279,280,280,281,281,282,282,283,283,284,284,287,287,290,290,293,293,294,294,295,295,296,296,299,299,301,301,303,303,304,304,308,308,310,310],"right_children":[2,4,6,8,10,12,14,16,18,20,22,24,26,28,30,32,34,36,38,40,42,44,46,48,-1,50,52,54,56,58,-1,60,62,64,66,68,70,72,74,76,78,80,82,84,86,88,90,-1,92,94,-1,-1,96,98,-1,100,102,-1,104,106,108,110,112,114,116,118,-1,120,122,124,126,128,130,132,134,-1,136,138,140,142,-1,144,146,148,150,152,154,156,158,160,162,164,166,168,170,172,174,-1,-1,176,178,180,-1,182,184,186,188,190,192,194,-1,196,198,200,202,204,206,208,-1,-1,-1,210,212,214,216,218,220,222,224,226,228,230,-1,232,234,236,238,240,242,244,246,248,-1,250,252,-1,-1,254,256,258,260,262,264,266,268,270,272,274,276,278,280,282,284,-1,286,288,290,-1,292,-1,-1,294,296,298,300,302,304,306,308,-1,-1,310,-1,-1,-1,312,314,316,318,320,322,-1,324,326,328,330,332,334,336,338,340,342,344,346,348,350,352,354,356,-1,358,360,362,-1,-1,364,-1,366,-1,-1,-1,368,370,-1,-1,372,374,376,378,-1,-1,380,-1,-1,-1,-1,382,-1,-1,384,386,-1,-1,-1,388,-1,390,-1,-1,392,-1,394,396,398,400,402,404,406,408,410,412,414,416,418,420,422,-1,424,426,428,430,432,434,-1,436,438,440,442,444,446,448,450,452,454,456,-1,-1,458,-1,-1,460,-1,-1,462,464,466,468,-1,-1,470,-1,472,-1,474,476,-1,-1,-1,478,-1,480,-1,-1,-1,-1,-1,-1,-1,-1,-1,-1,-1,-1,-1,-1,-1,-1,-1,-1,-1,-1,-1,-1,-1,-1,-1,-1,-1,-1,-1,-1,-1,-1,-1,-1,-1,-1,-1,-1,-1,-1,-1,-1,-1,-1,-1,-1,-1,-1,-1,-1,-1,-1,-1,-1,-1,-1,-1,-1,-1,-1,-1,-1,-1,-1,-1,-1,-1,-1,-1,-1,-1,-1,-1,-1,-1,-1,-1,-1,-1,-1,-1,-1,-1,-1,-1,-1,-1,-1,-1,-1,-1,-1,-1,-1,-1,-1,-1,-1,-1,-1,-1,-1,-1,-1,-1,-1,-1,-1,-1,-1,-1,-1,-1,-1,-1,-1,-1,-1,-1,-1,-1,-1,-1,-1,-1,-1,-1,-1,-1,-1,-1,-1,-1,-1,-1,-1,-1,-1,-1,-1,-1,-1,-1,-1,-1,-1,-1,-1,-1,-1,-1,-1,-1,-1,-1,-1,-1,-1,-1,-1,-1,-1,-1,-1,-1,-1,-1,-1,-1,-1],"split_conditions":[2.35E1,1.1935E3,2.55E1,1.85E1,3.21E1,1.2335E3,2.75E1,4.2754997E1,9.25E-1,1.4185E3,1.2615E3,9.0999997E-1,3.5684998E1,1.242E3,2.85E1,8.95E2,8.88E2,3.6214996E1,1.95E1,-2.5099998E1,9.05E-1,4.4335E1,9.35E-1,3.628E1,-5.960364E-1,1.3235E3,3.675E1,9.05E-1,1.2665E3,1.2425E3,-5.98806E-1,4.06E1,1.0385E3,1.75E1,5.683E1,1.17E2,4.5345E1,3.735E1,3.535E1,2.907E1,1.2655E3,2.7635E1,1.85E1,5.604E1,5.2575E1,1.4375E3,5.1085E1,4.909091E-1,8.45E-1,3.5260002E1,-5.859375E-1,-5.4146343E-1,9.35E-1,2.8275E1,-5.971154E-1,9.35E-1,9.35E-1,-5.9446156E-1,1.2575E3,2.635E2,9.45E-1,5.147E1,3.8925E1,2.285E2,4.557E1,6.569E1,-4.0000004E-1,3.1785E1,9.05E-1,3.915E2,5.19E2,1.0895E3,4.308E1,3.417E1,1.1895E3,4.909091E-1,1.2655E3,9.25E-1,1.273E3,2.5630001E1,5E-1,2.982E1,2.9605E1,4.6255E1,1.2335E3,5.125E1,1.75E1,1.2825E3,4.3825E1,4.7614998E1,4.923E1,8.25E-1,3.722E1,3.3175E1,9.2E-1,3.9574997E1,-3.5885002E1,1.6363637E-1,-0E0,4.045E1,4.0565E1,1.2685E3,2.7272728E-1,9.35E-1,4.1004997E1,7.95E1,3.4370003E1,-7.8E0,3.709E1,3.7125E1,-5.1818186E-1,3.473E1,4.192E1,4.928E1,4.4239998E1,1.935E2,4.868E1,-1.4025E1,-3.3333337E-1,-6.666667E-2,-4.8000002E-1,3.5665E1,3.4010002E1,2.655E2,4.116E1,2.58E2,8.06E2,4.6E2,-1.5975E1,8.785E2,8.725E2,1.0795E3,4.2000002E-1,2.05E1,4.354E1,2.9345001E1,3.13E1,2.9345001E1,1.2555E3,1.2665E3,1.3055E3,1.6365E3,-3.6E-1,2.8865002E1,2.5655E1,-1.6363637E-1,-5.812987E-1,9.25E-1,3.792E1,4.211E1,9.35E-1,4.863E1,9.35E-1,5.791E1,9.35E-1,3.4805E1,1.85E1,-3.1095001E1,8.95E-1,-1.9385E1,-2.381E1,4.7085E1,9.55E-1,3E-1,3.7144997E1,8.85E-1,4.685E2,3.818182E-1,1.2485E3,-4.0000004E-1,-0E0,1.4495E3,1.2475E3,4.2285E1,1.2475E3,9.25E-1,9.25E-1,3.885E1,4.455E1,-1.5E-1,-5.726496E-1,4.007E1,4.2857146E-1,-5.733334E-1,-0E0,-9.4E0,1.115E2,2.8505001E1,-1.8675E1,5.6E1,2.255E2,4.434783E-1,6.965E2,3.425E1,4.12E1,1.0605E3,4.575E1,1.1725E3,-1.575E1,1.155E2,-2.7075E1,9.45E-1,7.16E2,-1.9125E1,9.25E-1,-2.376E1,1.65E2,4.455E1,4.568E1,5.225807E-1,8.65E-1,9.145E2,3.4605E1,3.75E-1,-5.3513515E-1,-2.601E1,5.307692E-1,1.935E2,2.4000001E-1,-5.4146343E-1,-5.454546E-2,3.52E1,3.4605E1,-3E-1,-0E0,9.45E-1,4.236E1,4.57E1,-2.591E1,-3E-1,-0E0,3.6309998E1,-5.80405E-1,-4.2857146E-1,3.818182E-1,-3.2307696E-1,4.1510002E1,-4.1052634E-1,1.5E-1,2.842E1,3.1615E1,-3.818182E-1,2.4000001E-1,1.20000005E-1,-2.245E1,4.5000002E-1,-1.3075E1,-1.5E-1,3.6E-1,1.6435E3,2.8E-1,3.114E1,9.25E-1,3.5355E1,4.202E1,-2.7150002E1,5.1085E1,-1.917E1,-3.6E1,4.127E1,4.255E1,1.2525E3,4.9699997E1,1.2485E3,4.7215E1,8.85E-1,-3.4285718E-1,9.05E-1,5.347E1,1.2635E3,4.284E1,4.395E1,4.5465E1,5.2000004E-1,1.4495E3,1.4495E3,-1.871E1,4.653E1,4.041E1,9.45E-1,1.4505E3,1.2765E3,1.2745E3,5.3405E1,1.364E3,2.0000002E-1,-3E-1,3.6515E1,-2.0000002E-1,5.454546E-2,2.65E1,3.3333337E-1,-3E-1,9.25E-1,-3.277E1,4.1629997E1,9.25E-1,3.818182E-1,-3.818182E-1,4.723E1,4.4081634E-1,1.2465E3,5.172414E-1,1.2455E3,1.2485E3,3E-1,-2.7272728E-1,5.314286E-1,4.5305E1,3.4285718E-1,-3.875E1,3.459854E-1,-8.5714296E-2,-2.1739131E-1,7.3972605E-2,4.615385E-2,3.708543E-1,2.84E-1,1.3572939E-1,4.0540543E-1,1.1873351E-1,-1.20000005E-1,-4.1052634E-1,-4.8571432E-1,2.5714287E-1,-1.4285715E-1,3.2000002E-1,-3.243243E-1,3.6E-1,-3.818182E-1,8.3798885E-2,3.1304348E-1,8.5714296E-2,-6.9767446E-3,-2.8E-1,4.56E-1,-2.7272728E-1,2.065574E-1,-1.4157304E-1,1.3333334E-1,-3.9000002E-1,1.2500001E-2,-2.883117E-1,8.932039E-2,-6.185567E-2,3.3333337E-1,-0E0,4.615385E-2,-3.2307696E-1,-3.0508475E-2,2.050633E-1,-5.2000004E-1,-1.1294118E-1,1.7142858E-2,1.935484E-1,4.5454547E-1,1.7419355E-1,4.0000004E-1,1.6800001E-1,4.758621E-1,1.0588236E-1,-2.5714287E-1,1.5555556E-1,-4.9565217E-1,6.009245E-2,-6.666667E-2,-3.3333337E-1,2.4000001E-1,-2.4000001E-1,-0E0,3.3333337E-1,-0E0,-4.1250002E-1,-4.689076E-1,1.5E-1,-5.0109893E-1,-3.2694614E-1,-3.6E-1,2.516129E-1,-5.454546E-2,-4.9195406E-1,3E-1,5.0381683E-2,4.5000002E-1,-3.2307696E-1,4.8000002E-1,1.20000005E-1,-3.4285718E-1,-0E0,-3.818182E-1,1.4482759E-1,-0E0,-1.5E-1,-2.0000002E-1,3E-1,-4.2178223E-1,6.666667E-2,3.105263E-1,7.8007296E-2,2.8827456E-1,2.0074767E-1,8.610479E-2,1.6102566E-1,2.1095254E-1,1.7942879E-1,-5.032258E-1,-4.615385E-2,-3.6E-1,9.23077E-2,-2.5E-1,6.666667E-2,4.615385E-1,-9.4736844E-2,1.6111349E-1,2.5641029E-3,2.6506023E-2,1.5107915E-1,3.298893E-1,5.5636364E-1,-5.660378E-2,2.1176472E-1,-2.0000002E-1,1.3442624E-1,-2.5714287E-1,7.5E-2,-4.9411768E-1,-1.3333334E-1,4.4444446E-2,3.7333336E-1,4.640246E-2,1.3572311E-1,-6.276151E-2,2.8125E-1,-5.2000004E-1,2.4000001E-1,2.4096002E-1,1.6109589E-1,-4.8000002E-1,8.5714296E-2,7.7678576E-2,2.585366E-1,1.8369518E-1,3.2519084E-1,1.75E-1,2.1253407E-2,-3.75E-2,-2.3076925E-1,1.1111111E-1,2.857143E-1,3.3442622E-1,2.1255606E-1,-3.2307696E-1,1.810651E-1,4.348624E-1,6.666667E-2,-3.6E-1,3E-1,-5.454546E-2,2.2758621E-1,1.7647061E-1,3.6774194E-1,1.8857144E-1,4.8679247E-1,3.3333337E-1,-2.0000002E-1,4.4000003E-1,8.737865E-2,3.2903227E-1,-2.4489798E-1,3.3333337E-1,-2.4E-2,-1.3846155E-1,4.2000002E-1,-1.3846155E-1,4.1538465E-1,-1.5652174E-1,-5.2500004E-1,-3.6E-1,4.3448275E-1,-3.6E-1,-8.5714296E-2],"split_indices":[4,3,4,4,7,3,4,7,6,3,3,6,7,3,4,3,3,7,4,2,6,7,6,7,0,3,1,6,3,3,0,7,3,4,7,3,7,7,7,7,3,7,4,1,7,3,1,0,6,7,0,0,6,1,0,6,6,0,3,3,6,1,7,3,7,1,0,7,6,3,3,3,7,7,3,0,3,6,3,7,0,7,7,1,3,7,4,3,7,7,7,6,7,7,6,7,2,0,0,7,7,3,0,6,7,3,7,2,1,7,0,7,7,7,7,3,7,2,0,0,0,7,7,3,7,3,3,3,2,3,3,3,0,4,7,7,7,7,3,3,3,3,0,7,1,0,0,6,7,7,6,7,6,7,6,7,4,2,6,2,2,7,6,0,7,6,3,0,3,0,0,3,3,7,3,6,6,7,7,0,0,7,0,0,0,2,3,7,2,3,3,0,3,7,7,3,1,3,2,3,2,6,3,2,6,2,3,7,7,0,6,3,7,0,0,2,0,3,0,0,0,7,7,0,0,6,7,7,2,0,0,7,0,0,0,0,1,0,0,7,7,0,0,0,2,0,2,0,0,3,0,7,6,7,7,2,1,2,2,7,7,3,7,3,1,6,0,6,7,3,7,7,7,0,3,3,2,7,7,6,3,3,3,7,3,0,0,7,0,0,1,0,0,6,2,7,6,0,0,7,0,3,0,3,3,0,0,0,7,0,2,0,0,0,0,0,0,0,0,0,0,0,0,0,0,0,0,0,0,0,0,0,0,0,0,0,0,0,0,0,0,0,0,0,0,0,0,0,0,0,0,0,0,0,0,0,0,0,0,0,0,0,0,0,0,0,0,0,0,0,0,0,0,0,0,0,0,0,0,0,0,0,0,0,0,0,0,0,0,0,0,0,0,0,0,0,0,0,0,0,0,0,0,0,0,0,0,0,0,0,0,0,0,0,0,0,0,0,0,0,0,0,0,0,0,0,0,0,0,0,0,0,0,0,0,0,0,0,0,0,0,0,0,0,0,0,0,0,0,0,0,0,0,0,0,0,0,0,0,0,0,0,0,0,0,0,0,0,0,0,0,0,0,0,0,0,0,0,0,0,0],"split_type":[0,0,0,0,0,0,0,0,0,0,0,0,0,0,0,0,0,0,0,0,0,0,0,0,0,0,0,0,0,0,0,0,0,0,0,0,0,0,0,0,0,0,0,0,0,0,0,0,0,0,0,0,0,0,0,0,0,0,0,0,0,0,0,0,0,0,0,0,0,0,0,0,0,0,0,0,0,0,0,0,0,0,0,0,0,0,0,0,0,0,0,0,0,0,0,0,0,0,0,0,0,0,0,0,0,0,0,0,0,0,0,0,0,0,0,0,0,0,0,0,0,0,0,0,0,0,0,0,0,0,0,0,0,0,0,0,0,0,0,0,0,0,0,0,0,0,0,0,0,0,0,0,0,0,0,0,0,0,0,0,0,0,0,0,0,0,0,0,0,0,0,0,0,0,0,0,0,0,0,0,0,0,0,0,0,0,0,0,0,0,0,0,0,0,0,0,0,0,0,0,0,0,0,0,0,0,0,0,0,0,0,0,0,0,0,0,0,0,0,0,0,0,0,0,0,0,0,0,0,0,0,0,0,0,0,0,0,0,0,0,0,0,0,0,0,0,0,0,0,0,0,0,0,0,0,0,0,0,0,0,0,0,0,0,0,0,0,0,0,0,0,0,0,0,0,0,0,0,0,0,0,0,0,0,0,0,0,0,0,0,0,0,0,0,0,0,0,0,0,0,0,0,0,0,0,0,0,0,0,0,0,0,0,0,0,0,0,0,0,0,0,0,0,0,0,0,0,0,0,0,0,0,0,0,0,0,0,0,0,0,0,0,0,0,0,0,0,0,0,0,0,0,0,0,0,0,0,0,0,0,0,0,0,0,0,0,0,0,0,0,0,0,0,0,0,0,0,0,0,0,0,0,0,0,0,0,0,0,0,0,0,0,0,0,0,0,0,0,0,0,0,0,0,0,0,0,0,0,0,0,0,0,0,0,0,0,0,0,0,0,0,0,0,0,0,0,0,0,0,0,0,0,0,0,0,0,0,0,0,0,0,0,0,0,0,0,0,0,0,0,0,0,0,0,0,0,0,0,0,0,0,0,0,0,0,0,0,0,0,0,0,0,0,0,0,0,0,0,0,0,0],"sum_hessian":[2.008425E4,1.382625E4,6.258E3,2.2915E3,1.153475E4,5.61E2,5.697E3,1.31225E3,9.7925E2,2.365E2,1.129825E4,3.4175E2,2.1925E2,4.56E2,5.241E3,6.83E2,6.2925E2,2.875E2,6.9175E2,9.65E1,1.4E2,7.82975E3,3.4685E3,4E1,3.0175E2,7E1,1.4925E2,3.1375E2,1.4225E2,2.1675E2,5.02425E3,5.005E2,1.825E2,5.19E2,1.1025E2,8.325E1,2.0425E2,1.675E2,5.2425E2,4.825E1,4.825E1,9E0,1.31E2,5.31975E3,2.51E3,2.25525E3,1.21325E3,1.275E1,2.725E1,7E0,6.3E1,9.25E0,1.4E2,2.75E0,3.11E2,5.275E1,8.95E1,1.615E2,5.525E1,3.7125E2,1.2925E2,4.1E1,1.415E2,3.495E2,1.695E2,1.0825E2,2E0,5.25E0,7.8E1,1.8925E2,1.5E1,1.375E1,1.5375E2,7E0,5.1725E2,4.5E0,4.375E1,3.025E1,1.8E1,4E0,5E0,3.4E1,9.7E1,5.27825E3,4.15E1,2.438E3,7.2E1,1.46775E3,7.875E2,9.08E2,3.0525E2,6.25E0,2.1E1,4E0,3E0,8.4E1,5.6E1,1.75E0,1E0,3.45E1,1.825E1,8.775E1,1.75E0,1.025E1,4.5E1,1.2575E2,2.455E2,1.0725E2,2.2E1,3.1E1,1E1,8.6E1,5.55E1,8.325E1,2.6625E2,7.4E1,9.55E1,1.07E2,1.25E0,1.25E0,4E0,6.025E1,1.775E1,1.125E1,1.78E2,4E0,1.1E1,1.075E1,3E0,6.025E1,9.35E1,3E0,4E0,5.13E2,4.25E0,3.9E1,4.75E0,2.7E1,3.25E0,5E0,1.3E1,2.5E0,1.5E0,4.75E0,2.925E1,1.75E0,9.525E1,1.05075E3,4.2275E3,2.375E1,1.775E1,2.32175E3,1.1625E2,5.15E1,2.05E1,1.3335E3,1.3425E2,5.2575E2,2.6175E2,7.535E2,1.545E2,2.73E2,3.225E1,1E0,5.25E0,9.25E0,1.175E1,1.75E0,2.25E0,2E0,1E0,2.25E1,6.15E1,3.5E0,5.25E1,1.25E1,2.2E1,2.75E0,1.55E1,1E0,8.675E1,7.75E0,2.5E0,4.4E1,1E0,3.75E1,8.825E1,5.425E1,1.9125E2,1.02E2,5.25E0,4.75E0,1.725E1,1.075E1,2.025E1,4.825E1,3.775E1,4.85E1,7E0,5.075E1,3.25E1,6.525E1,2.01E2,4.5E0,6.95E1,3.25E1,6.3E1,9.3E1,1.4E1,4.55E1,1.475E1,9.5E0,8.25E0,3E0,8.25E0,1.66E2,1.2E1,2.5E0,1.5E0,9.25E0,1.75E0,3E0,7.75E0,2E0,1E0,3.05E1,2.975E1,8.525E1,8.25E0,2E0,1E0,1.3125E2,3.8175E2,2.5E0,1.75E0,2.25E0,3.675E1,3.75E0,1E0,5.25E0,2.175E1,1.75E0,1.5E0,1.5E0,3.5E0,5E0,8E0,1E0,1.5E0,2E0,2.75E0,3.75E0,2.55E1,2.6075E2,7.9E2,6.9275E2,3.53475E3,1.675E1,7E0,8.5E0,9.25E0,1.86625E3,4.555E2,7.95E1,3.675E1,4.9E1,2.5E0,9.5E0,1.1E1,7.9E1,1.2545E3,7.375E1,6.05E1,6.5E0,5.1925E2,9E0,2.5275E2,6.2775E2,1.2575E2,4.775E1,1.0675E2,2.2625E2,4.675E1,2.975E1,2.5E0,1.25E0,4E0,8E0,1.25E0,1.75E0,1E1,1.25E0,1E0,2E1,2.5E0,3.125E1,3.025E1,1.75E0,1.75E0,2.9E1,2.35E1,6.25E0,6.25E0,4.5E0,1.75E1,1E0,1.75E0,7.75E0,7.75E0,2.5E0,5.25E0,3.325E1,4.25E0,1.625E1,7.2E1,5.5E0,4.875E1,7.4E1,1.1725E2,8.25E0,9.375E1,1.5E0,3.75E0,1.475E1,2.5E0,4.25E0,6.5E0,1.75E1,2.75E0,4.5E0,4.375E1,3.35E1,4.25E0,4.2E1,6.5E0,5.25E0,1.75E0,2.95E1,2.125E1,3.5E0,2.9E1,4.7E1,1.825E1,1.535E2,4.75E1,3.5E0,1E0,5.5E0,6.4E1,1.375E1,1.875E1,2.15E1,4.15E1,1.65E1,7.65E1,7.25E0,6.75E0,9.5E0,5.25E0,6.25E0,3.25E0,2.5E0,5.75E0,4.75E0,1.6125E2,1.25E0,1.25E0,1.5E0,1.5E0,2E0,5.75E0,2.35E1,7E0,2.875E1,1E0,4.45E1,4.075E1,1.5E0,6.75E0,1.75E0,1.295E2,5E0,3.175E1,3E0,2.25E0,1.9E1,2.75E0,2.5E0,1E0,1.75E0,6.25E0,1E0,1E0,2.75E0,1E0,2.425E1,1.25E0,5.6E1,2.0475E2,5.235E2,2.665E2,1.0875E2,5.84E2,8.5725E2,2.6775E3,1.45E1,2.25E0,1.5E0,5.5E0,5E0,3.5E0,5.5E0,3.75E0,1.75025E3,1.16E2,2.48E2,2.075E2,6.675E1,1.275E1,1.225E1,2.45E1,4.25E0,4.475E1,2.5E0,7E0,7.5E0,3.5E0,1.25E1,6.65E1,6.4875E2,6.0575E2,5.875E1,1.5E1,5.9E1,1.5E0,1.5525E2,3.64E2,6.5E0,2.5E0,2.23E2,2.975E1,5.6325E2,6.45E1,3.5E1,9.075E1,3.9E1,8.75E0,8.675E1,2E1,6E1,1.6625E2,5.5E0,4.125E1,2.625E1,3.5E0,1.5E0,1E0,1.75E0,6.25E0,3.25E0,6.75E0,7.75E0,1.225E1,1.25E0,1.25E0,6.5E0,2.475E1,6.75E0,2.35E1,2.375E1,5.25E0,2.25E0,4E0,2.25E0,2.25E0,1.05E1,7E0,1.5E0,6.25E0,2.75E0,2.5E0],"tree_param":{"num_deleted":"0","num_feature":"8","num_nodes":"481","size_leaf_vector":"0"}},{"base_weights":[-2.465267E-1,2.6314008E-1,-1.4557505E0,-2.607505E-1,3.6212346E-1,-9.5008427E-1,-1.5305247E0,9.702958E-2,-7.558325E-1,-4.8203936E-1,3.802068E-1,-1.3462541E0,-3.067377E-1,-1.300381E0,-1.5402458E0,4.2320973E-1,1.2505456E-2,4.577531E-1,-1.126129E0,4.1719723E-1,-1.1871594E0,-5.854043E-1,3.8240987E-1,4.3117365E-1,-1.5015523E0,-1.4111817E0,2.8889734E-1,-1.5356436E0,-7.5967515E-1,-1.4571298E0,-1.5475224E0,1.3067362E0,3.889511E-1,1.0508511E-1,-2.0149131E-1,8.306304E-1,2.3971123E-1,-1.2400824E0,-5.179389E-1,4.7627383E-1,-3.067232E-1,-5.683559E-1,-1.451011E0,-7.0590824E-1,1.0108603E0,4.129905E-1,3.085126E-1,-1.2728878E0,7.051753E-1,-1.5378661E0,-8.615737E-1,4.3409236E-2,-1.5423021E0,-1.4594219E0,4.2375156E-1,3.511328E-1,-1.3938785E0,-1.5422066E0,-1.194559E0,-1.9210996E-1,4.68005E-1,1.963275E-1,-1.6809203E-2,-3.889229E-2,-3.662861E-1,-1.0897568E0,9.7036684E-1,3.6063915E-1,-1.1447195E0,-7.7042496E-1,-1.3773074E0,-1.2822243E0,-2.9219595E-1,1.4005374E0,4.0478623E-1,-1.298993E0,6.872129E-1,1.8318154E-1,-8.0121E-1,-1.5119667E0,-7.752092E-1,-1.336491E-1,-1.2650715E0,4.521137E-1,3.3058712E-1,2.0583694E-1,3.9839774E-1,1.160295E0,3.4776814E-2,6.84599E-1,-1.0587165E0,8.2059693E-1,-9.970306E-1,5.230737E-1,-1.5765171E0,1.1383318E0,2.08989E-2,-1.516036E0,-8.705598E-1,3.531852E-1,-1.4663836E0,-7.144708E-1,1.1942554E-1,4.8957863E-1,-8.292339E-1,-6.5400936E-3,2.747452E-1,6.588084E-2,-3.663365E-1,-4.483749E-3,-1.0312402E0,-7.811992E-2,-5.08758E-1,-1.7564087E-1,-1.2985092E0,1.0514466E0,-7.2767603E-1,1.9465509E-1,1.0332892E0,-1.2510706E0,-1.570247E-1,-5.9515345E-1,-1.2149107E0,-1.1778967E0,-1.4391111E0,-3.318271E-1,-1.4104978E0,3.9648924E-2,-1.0255803E0,3.0144864E-1,1.0335606E0,2.9510927E-1,1.0337929E0,-3.552558E-1,7.4018115E-1,4.504153E-2,-9.0394384E-1,5.101848E-1,-1.0069474E0,-1.1256157E0,4.7481143E-1,3.1146535E-1,-1.5093752E0,4.5786867E-1,-5.5315834E-1,3.332558E-1,-9.340316E-1,2.2178139E-1,-7.412828E-1,4.0648875E-1,-8.1657976E-1,1.4574091E0,8.172714E-1,-1.546305E-1,3.0367658E-1,-6.2824714E-1,-1.3688082E0,-1.4679703E-2,1.1031089E0,3.9864913E-1,1.2643235E0,3.0493116E-1,-9.1234416E-1,-1.2993039E0,-2.8837782E-1,1.4566602E0,-1.01022735E-1,-1.4805015E0,-3.9150563E-1,-1.0124882E0,4.681983E-2,-2.2775443E-1,5.166271E-1,3.9188874E-1,6.822957E-1,2.7622057E-2,-8.850867E-1,2.988167E-1,-5.596933E-1,-2.0343702E-2,2.7648404E-1,-1.0089854E0,-1.6492179E-1,5.046425E-1,-7.7917166E-2,-3.1455645E-1,-1.2348167E0,5.7206684E-1,-3.5148993E-1,-7.7665657E-1,-2.9559246E-1,1.090241E0,-6.212207E-1,1.7311692E-2,-1.1754736E0,3.7002575E-1,-2.729111E-1,6.694489E-1,1.2537179E0,-1.365043E0,-2.2617812E-1,-8.43328E-1,-3.2853878E-1,7.624539E-2,-1.3074783E0,-8.681109E-1,-1.3222082E0,-1.4646223E0,-9.695439E-1,8.410678E-1,-1.0662502E0,-1.5152497E0,-7.281487E-1,-6.158783E-1,3.4826463E-1,-1.1954789E0,1.1677548E0,3.7952596E-1,-4.6004048E-1,1.3679053E0,2.2066662E-1,5.639375E-1,-9.1787964E-1,8.887213E-1,1.8093804E-1,5.626369E-1,-3.2577705E-1,-1.240656E0,-5.9861535E-1,-1.3113047E0,-1.4566737E-1,-1.3806125E0,-1.3998385E-1,-1.0700411E0,1.4698684E0,-1.6269064E0,-4.589563E-1,3.3235696E-1,4.857062E-1,-1.215556E0,-1.6067341E-2,7.476994E-1,3.2761672E-1,-2.0258689E-1,-1.2698237E0,-8.5641176E-1,2.2933201E-1,-1.1137091E0,1.0393934E0,3.0286846E-1,4.9709457E-1,-3.156066E-1,-1.1287513E0,-1.2921394E-1,9.9015397E-1,-5.575936E-1,1.8743521E-1,9.607638E-1,-2.7946493E-1,-1.8494916E-1,-1.2183976E0,4.7781682E-1,-1.2690161E0,1.0292083E0,-4.0502764E-2,-1.1364939E0,-1.4888485E-1,-1.1941113E0,1.4180725E0,4.773349E-1,1.6541607E0,-1.0330952E0,3.145968E-1,-1.5709361E-1,-1.2928063E0,-3.8297483E-1,6.0306853E-1,5.3425056E-1,-4.949162E-1,8.999747E-1,-6.42691E-1,6.3257796E-1,1.8605906E-1,1.4116969E0,5.5304617E-1,2.0820417E-1,-1.810955E-1,2.2279154E-1,5.27093E-1,-1.2083342E0,-8.431013E-2,3.2908517E-1,-1.4839469E-1,4.3317586E-1,-2.0210433E-1,-4.50273E-2,-1.143258E0,8.053022E-1,-2.7832887E-1,5.968352E-1,-1.9456407E-1,2.9515697E-2,-5.384487E-1,-1.9751129E-1,9.709947E-1,1.0296733E-1,-5.9636956E-1,-1.2222179E0,-1.9431214E-1,-6.079477E-1,8.61591E-3,1.1907748E0,4.314065E-1,-6.455448E-1,4.1975662E-1,3.764585E-1,-3.5687077E-1,8.669912E-1,2.6803267E-1,1.3745401E0,3.3833784E-1,-5.338669E-1,-1.2685775E0,-5.730323E-1,7.8182393E-1,1.8733709E-1,-6.995831E-2,-1.3801868E0,-6.148348E-1,-2.6351786E-1,-1.2524099E0,-1.4095163E0,-7.861153E-1,1.889423E-1,-1.0543723E0,1.1804054E-2,-9.735443E-1,-4.302825E-1,-1.1586486E0,4.2601243E-1,-6.088202E-1,-7.1156144E-1,-1.385853E0,1.3845651E-1,5.9224826E-1,-1.285928E0,1.2131635E0,-4.147969E-1,5.4111177E-1,-1.8329455E-1,-1.1645218E0,-9.555129E-1,4.2298055E-1,3.0027908E-1,-5.287482E-1,3.6522135E-1,-1.6430551E-1,6.099953E-1,4.5420864E-1,-1.4165537E0,-1.21944085E-1,-2.8279793E-1,2.8059658E-1,1.1965362E0,5.86534E-1,3.6719462E-1,2.6481923E-1,-2.2088675E-1,-1.299327E0,7.071711E-1,2.0121115E-1,5.882714E-2,-1.5121216E0,1.3223131E0,1.0367315E-1,4.6887323E-1,1.2666515E-1,5.960438E-1,2.823768E-1,-1.0228881E0,2.1744125E-1,-4.9004984E-1,-1.4265174E0,1.2663865E0,6.515271E-1,5.6246944E-2,2.8857014E-1,-7.67132E-1,3.5610563E-1,-1.1410257E0,7.562796E-1,9.2720675E-1,3.4942746E-1,-3.5088563E-1,3.814927E-1,8.569092E-1,-4.3557584E-1],"categories":[],"categories_nodes":[],"categories_segments":[],"categories_sizes":[],"default_left":[true,true,true,true,true,true,true,true,true,true,true,true,true,true,true,true,true,true,true,true,true,true,true,true,true,true,true,false,true,true,false,false,true,true,true,true,true,true,true,true,true,true,true,true,false,true,true,false,true,false,true,true,false,false,true,true,true,false,true,true,true,true,true,true,true,true,true,true,true,true,true,true,true,false,true,false,true,true,true,false,true,true,true,true,true,true,true,true,true,false,true,true,false,true,false,false,true,false,true,true,true,true,true,true,false,true,true,true,true,true,true,true,true,false,false,true,true,true,true,true,false,true,true,true,true,true,true,true,true,true,true,false,false,true,true,true,true,false,true,true,true,false,true,true,true,true,true,true,true,true,true,false,true,true,true,true,false,false,false,true,false,true,true,false,true,true,true,false,false,true,true,true,true,true,true,true,false,true,true,true,true,true,true,true,true,false,false,true,true,true,true,true,false,false,false,true,true,true,true,false,false,true,true,true,true,true,true,false,true,false,false,false,true,true,true,true,false,true,true,false,true,false,true,false,false,false,false,false,true,false,true,false,false,false,false,false,false,true,true,true,true,true,true,false,false,true,true,true,true,true,true,true,true,false,true,false,true,false,true,true,false,true,false,false,true,false,false,false,false,false,false,false,true,false,false,false,false,false,false,false,false,false,false,false,false,false,false,false,false,false,false,false,false,false,false,false,false,false,false,false,false,false,false,false,false,false,false,false,false,false,false,false,false,false,false,false,false,false,false,false,false,false,false,false,false,false,false,false,false,false,false,false,false,false,false,false,false,false,false,false,false,false,false,false,false,false,false,false,false,false,false,false,false,false,false,false,false,false,false,false,false,false,false,false,false,false,false,false,false,false,false,false,false,false,false,false,false,false,false,false,false,false,false,false,false,false,false,false,false,false,false,false,false,false,false,false,false],"id":1,"left_children":[1,3,5,7,9,11,13,15,17,19,21,23,25,27,29,31,33,35,37,39,41,43,45,47,49,51,53,-1,55,57,-1,-1,59,61,63,65,67,69,71,73,75,77,79,81,-1,83,85,-1,87,-1,89,91,-1,-1,93,95,97,-1,99,101,103,105,107,109,111,113,115,117,119,121,123,125,127,-1,129,-1,131,133,135,-1,137,139,141,143,145,147,149,151,153,-1,155,157,-1,159,-1,-1,161,-1,163,165,167,169,171,173,-1,175,177,179,181,183,185,187,189,-1,-1,191,193,195,197,199,-1,201,203,205,207,209,211,213,215,217,219,-1,-1,221,223,225,227,-1,229,231,233,-1,235,237,239,241,243,245,247,249,251,-1,253,255,257,259,-1,-1,-1,261,-1,263,265,-1,267,269,271,-1,-1,273,275,277,279,281,283,285,-1,287,289,291,293,295,297,299,301,-1,-1,303,305,307,309,311,-1,-1,-1,313,315,317,319,-1,-1,321,323,325,327,329,331,-1,333,-1,-1,-1,335,337,339,341,-1,343,345,-1,347,-1,349,-1,-1,-1,-1,-1,351,-1,353,-1,-1,-1,-1,-1,-1,355,357,359,361,363,365,-1,-1,367,369,371,373,375,377,379,381,-1,383,-1,385,-1,387,389,-1,391,-1,-1,393,-1,-1,-1,-1,-1,-1,-1,395,-1,-1,-1,-1,-1,-1,-1,-1,-1,-1,-1,-1,-1,-1,-1,-1,-1,-1,-1,-1,-1,-1,-1,-1,-1,-1,-1,-1,-1,-1,-1,-1,-1,-1,-1,-1,-1,-1,-1,-1,-1,-1,-1,-1,-1,-1,-1,-1,-1,-1,-1,-1,-1,-1,-1,-1,-1,-1,-1,-1,-1,-1,-1,-1,-1,-1,-1,-1,-1,-1,-1,-1,-1,-1,-1,-1,-1,-1,-1,-1,-1,-1,-1,-1,-1,-1,-1,-1,-1,-1,-1,-1,-1,-1,-1,-1,-1,-1,-1,-1,-1,-1,-1,-1,-1,-1,-1,-1,-1,-1,-1,-1,-1,-1,-1,-1,-1,-1,-1,-1,-1,-1,-1,-1],"loss_changes":[1.19490625E4,7.074131E2,2.1591211E2,3.8412015E2,1.7531848E2,1.8901385E2,9.198242E0,3.4718975E1,4.0930762E2,1.5333913E2,2.4119385E1,1.2753186E2,1.8759236E2,2.5460846E1,6.4746094E-1,7.3365974E0,1.9858955E1,1.7149498E1,4.7683228E1,4.70858E0,2.1277313E1,5.7080526E0,2.5200195E1,1.850621E1,8.504639E0,1.9113129E1,4.4396034E1,0E0,4.6592243E1,7.168762E0,0E0,0E0,1.1616215E1,7.784151E0,8.097243E0,2.2077118E1,2.3190268E1,3.674048E1,1.8905426E1,5.9760456E0,9.431114E0,7.5158987E0,2.7108307E0,7.7445173E0,0E0,2.539746E1,3.0230347E1,0E0,1.0068649E1,0E0,8.340647E0,8.281712E0,0E0,0E0,3.52263E1,6.3668184E0,1.356163E0,0E0,4.3915817E1,5.0909038E0,6.5955734E0,6.368061E0,8.706806E0,5.236441E0,6.1278477E0,8.756671E-1,1.0890663E1,1.3853683E1,9.7676086E-1,9.785957E0,3.8833618E0,2.6023064E0,2.1350763E1,0E0,5.7521887E0,0E0,3.715539E-1,3.4944167E0,2.8518658E0,0E0,3.4480224E0,8.586424E0,5.2423763E0,3.1323486E1,8.933319E0,2.334816E1,1.7537506E1,8.1705666E-1,7.818171E-1,0E0,2.1504383E0,1.392391E0,0E0,1.4780148E1,0E0,0E0,5.138747E0,0E0,2.1889443E0,8.274651E0,7.548218E-1,2.6870337E0,2.892868E0,3.8401375E0,0E0,3.4021444E0,5.964945E0,4.432593E0,7.292677E0,5.623192E0,3.6143017E-1,9.244894E0,5.500719E0,0E0,0E0,5.2587204E0,1.3356435E0,8.481174E0,1.1403008E0,8.523016E-1,0E0,6.253975E0,4.544449E0,3.8862762E0,2.6652832E0,4.603058E0,4.607849E-1,1.26052265E1,1.1574858E1,5.0238767E0,3.166359E0,0E0,0E0,3.700428E0,3.0608463E-1,1.0379761E0,2.2266064E0,0E0,2.0849524E0,1.156033E0,1.5364657E1,0E0,5.988941E-1,1.8497803E1,1.1017442E1,5.7149353E0,1.128716E0,1.2494003E1,1.8166092E1,1.6179352E1,1.5064821E0,0E0,1.9969397E0,1.3627248E0,2.682613E0,2.7286682E0,0E0,0E0,0E0,1.953351E1,0E0,3.7464113E0,6.058545E-1,0E0,1.0412256E1,1.375122E-1,5.13736E0,0E0,0E0,1.8124228E0,1.2419946E0,2.591834E0,4.8858027E0,7.1714725E0,6.011116E0,4.157232E0,0E0,4.762722E0,2.5009894E0,7.8300085E0,5.403309E0,1.7030773E0,5.183266E0,1.3383331E0,6.5167465E0,0E0,0E0,4.932403E0,4.11676E0,1.1140026E1,5.4684296E0,4.0807343E0,0E0,0E0,0E0,4.046157E0,1.6855903E0,6.7620134E-1,1.1082001E0,0E0,0E0,5.9661407E0,1.3810918E1,6.886015E-2,9.017563E-1,8.661129E0,2.3980408E0,0E0,2.2169304E0,0E0,0E0,0E0,8.898666E-1,1.5127602E0,3.4055743E0,1.3949051E0,0E0,3.739707E0,1.2666335E1,0E0,1.2245398E0,0E0,5.471828E-1,0E0,0E0,0E0,0E0,0E0,6.631324E0,0E0,7.3823994E-1,0E0,0E0,0E0,0E0,0E0,0E0,1.5935699E1,1.6826172E1,2.877756E0,1.5151788E0,1.7180462E0,6.160248E0,0E0,0E0,2.7294416E0,2.002504E1,1.0223249E1,1.174273E0,2.3749199E1,1.9513733E1,2.4697137E0,6.2271786E-1,0E0,8.911514E-2,0E0,5.920255E-2,0E0,1.5478774E0,7.726368E0,0E0,7.6144886E0,0E0,0E0,1.5730789E0,0E0,0E0,0E0,0E0,0E0,0E0,0E0,4.1803856E0,0E0,0E0,0E0,0E0,0E0,0E0,0E0,0E0,0E0,0E0,0E0,0E0,0E0,0E0,0E0,0E0,0E0,0E0,0E0,0E0,0E0,0E0,0E0,0E0,0E0,0E0,0E0,0E0,0E0,0E0,0E0,0E0,0E0,0E0,0E0,0E0,0E0,0E0,0E0,0E0,0E0,0E0,0E0,0E0,0E0,0E0,0E0,0E0,0E0,0E0,0E0,0E0,0E0,0E0,0E0,0E0,0E0,0E0,0E0,0E0,0E0,0E0,0E0,0E0,0E0,0E0,0E0,0E0,0E0,0E0,0E0,0E0,0E0,0E0,0E0,0E0,0E0,0E0,0E0,0E0,0E0,0E0,0E0,0E0,0E0,0E0,0E0,0E0,0E0,0E0,0E0,0E0,0E0,0E0,0E0,0E0,0E0,0E0,0E0,0E0,0E0,0E0,0E0,0E0,0E0,0E0,0E0,0E0,0E0,0E0,0E0,0E0,0E0,0E0,0E0,0E0,0E0,0E0,0E0,0E0,0E0,0E0,0E0,0E0],"parents":[2147483647,0,0,1,1,2,2,3,3,4,4,5,5,6,6,7,7,8,8,9,9,10,10,11,11,12,12,13,13,14,14,15,15,16,16,17,17,18,18,19,19,20,20,21,21,22,22,23,23,24,24,25,25,26,26,28,28,29,29,32,32,33,33,34,34,35,35,36,36,37,37,38,38,39,39,40,40,41,41,42,42,43,43,45,45,46,46,48,48,50,50,51,51,54,54,55,55,56,56,58,58,59,59,60,60,61,61,62,62,63,63,64,64,65,65,66,66,67,67,68,68,69,69,70,70,71,71,72,72,74,74,76,76,77,77,78,78,80,80,81,81,82,82,83,83,84,84,85,85,86,86,87,87,88,88,90,90,91,91,93,93,96,96,98,98,99,99,100,100,101,101,102,102,103,103,105,105,106,106,107,107,108,108,109,109,110,110,111,111,112,112,115,115,116,116,117,117,118,118,119,119,121,121,122,122,123,123,124,124,125,125,126,126,127,127,128,128,129,129,130,130,133,133,134,134,135,135,136,136,138,138,139,139,140,140,142,142,143,143,144,144,145,145,146,146,147,147,148,148,149,149,150,150,152,152,153,153,154,154,155,155,159,159,161,161,162,162,164,164,165,165,166,166,169,169,170,170,171,171,172,172,173,173,174,174,175,175,177,177,178,178,179,179,180,180,181,181,182,182,183,183,184,184,187,187,188,188,189,189,190,190,191,191,195,195,196,196,197,197,198,198,201,201,202,202,203,203,204,204,205,205,206,206,208,208,212,212,213,213,214,214,215,215,217,217,218,218,220,220,222,222,228,228,230,230,237,237,238,238,239,239,240,240,241,241,242,242,245,245,246,246,247,247,248,248,249,249,250,250,251,251,252,252,254,254,256,256,258,258,259,259,261,261,264,264,272,272],"right_children":[2,4,6,8,10,12,14,16,18,20,22,24,26,28,30,32,34,36,38,40,42,44,46,48,50,52,54,-1,56,58,-1,-1,60,62,64,66,68,70,72,74,76,78,80,82,-1,84,86,-1,88,-1,90,92,-1,-1,94,96,98,-1,100,102,104,106,108,110,112,114,116,118,120,122,124,126,128,-1,130,-1,132,134,136,-1,138,140,142,144,146,148,150,152,154,-1,156,158,-1,160,-1,-1,162,-1,164,166,168,170,172,174,-1,176,178,180,182,184,186,188,190,-1,-1,192,194,196,198,200,-1,202,204,206,208,210,212,214,216,218,220,-1,-1,222,224,226,228,-1,230,232,234,-1,236,238,240,242,244,246,248,250,252,-1,254,256,258,260,-1,-1,-1,262,-1,264,266,-1,268,270,272,-1,-1,274,276,278,280,282,284,286,-1,288,290,292,294,296,298,300,302,-1,-1,304,306,308,310,312,-1,-1,-1,314,316,318,320,-1,-1,322,324,326,328,330,332,-1,334,-1,-1,-1,336,338,340,342,-1,344,346,-1,348,-1,350,-1,-1,-1,-1,-1,352,-1,354,-1,-1,-1,-1,-1,-1,356,358,360,362,364,366,-1,-1,368,370,372,374,376,378,380,382,-1,384,-1,386,-1,388,390,-1,392,-1,-1,394,-1,-1,-1,-1,-1,-1,-1,396,-1,-1,-1,-1,-1,-1,-1,-1,-1,-1,-1,-1,-1,-1,-1,-1,-1,-1,-1,-1,-1,-1,-1,-1,-1,-1,-1,-1,-1,-1,-1,-1,-1,-1,-1,-1,-1,-1,-1,-1,-1,-1,-1,-1,-1,-1,-1,-1,-1,-1,-1,-1,-1,-1,-1,-1,-1,-1,-1,-1,-1,-1,-1,-1,-1,-1,-1,-1,-1,-1,-1,-1,-1,-1,-1,-1,-1,-1,-1,-1,-1,-1,-1,-1,-1,-1,-1,-1,-1,-1,-1,-1,-1,-1,-1,-1,-1,-1,-1,-1,-1,-1,-1,-1,-1,-1,-1,-1,-1,-1,-1,-1,-1,-1,-1,-1,-1,-1,-1,-1,-1,-1,-1,-1],"split_conditions":[2.35E1,1.1795E3,2.65E1,1.85E1,3.2265E1,1.2335E3,2.75E1,3.7364998E1,3.7800003E1,1.396E3,-3.475E1,3.753E1,3.5805E1,1.2425E3,2.95E1,1.7E1,1.75E1,3.5595E1,-1.5225E1,1.3055E3,1.85E1,4.8105003E1,1.2625E3,4.615E2,-1.6825E1,1.321E3,3.675E1,-4.606931E-1,1.2675E3,1.2425E3,-4.6425673E-1,3.9202088E-1,2.03E2,8.45E-1,8.45E-1,1.165E2,3.4055E1,1.95E1,2.295E2,2.8505001E1,-1.17E1,2.982E1,5.2275E1,4.216E1,3.0325812E-1,4.4335E1,4.5225E1,-3.8186637E-1,3.6864998E1,-4.6135986E-1,3.8165E1,3.5215E1,-4.6269065E-1,-4.3782657E-1,9.4E-1,4.0165E1,4.6295E1,-4.62662E-1,1.2565E3,-1.7675E1,1.1755E3,3.295E2,4.88E1,6.389E1,4.27E1,3.1985E1,1.1655E3,3.7364998E1,9.605E2,8.8E-1,2.05E1,2.55E1,5.83E2,4.2016122E-1,-2.075E1,-3.896979E-1,2.5655E1,2.758E1,2.5655E1,-4.5359004E-1,3.0365E1,3.886E1,8.45E-1,5.604E1,5.791E1,2.15E1,1.469E3,3.557E1,3.729E1,2.0537971E-1,3.927E1,4.1989998E1,-2.991092E-1,1.359E3,-4.7295514E-1,3.4149954E-1,1.2485E3,-4.5481083E-1,1.429E3,4.1004997E1,4.1074997E1,5.147E1,3.266E1,3.533E1,-2.4877018E-1,3.265E2,5.671E1,4.496E1,1.955E2,-2.786E1,2.885E2,-2.357E1,4.722E1,-5.269226E-2,-3.895528E-1,9.1499996E-1,1.95E1,3.702E1,3.7559998E1,4.8915E1,-4.710741E-2,6.725E2,3.9260002E1,4.2739998E1,-1.6075E1,4.946E1,-9.575E0,3.8405E1,4.4510002E1,1.2665E3,3.1375E1,8.853278E-2,3.1013787E-1,2.536E1,8.45E-1,-1.7585E1,-1.9295E1,1.5305546E-1,3.1705E1,-3.585E1,1.2335E3,9.343961E-2,1.2395E3,3.79E1,1.2105E3,1.2015E3,1.2435E3,3.2575E1,1.432E3,4.2739998E1,4.2755E1,4.3722275E-1,3.5885E1,4.705E2,4.705E2,7.105E2,-4.1064247E-1,-4.403911E-3,3.3093268E-1,1.2685E3,3.7929705E-1,4.2504997E1,-3.39E1,-3.897912E-1,3.4075E1,4.0335E1,-4.035E1,-4.4415048E-1,-1.1745169E-1,4.2809998E1,-2.701E1,1.07E2,3.657E1,3.2455E1,2.89E2,4.52E1,-2.6552603E-1,4.736E1,5.61E2,3.8235E1,-1.7725E1,4.952E1,3.8235E1,5.227E1,4.8445E1,-9.436694E-2,-3.70445E-1,-2.5875E1,3.611E1,-1.7635E1,5.725E2,-1.1620001E1,-1.8636622E-1,5.1935078E-3,-3.526421E-1,4.625E2,4.705E2,3.75E1,3.1005001E1,-4.0951294E-1,-6.785344E-2,-2.2075E1,4.5585E1,-2.244E1,-1.946E1,-2.4810001E1,5.2260002E1,-4.393867E-1,3.7870003E1,2.5232035E-1,-3.1987506E-1,-4.5457494E-1,-9.275E0,-1.3549999E1,4.447E1,1.95E1,3.5032645E-1,-2.67E1,3.1220001E1,4.103716E-1,3.709E1,1.6918126E-1,1.641E3,2.666164E-1,5.4281414E-2,1.6879109E-1,-9.773312E-2,-3.7219682E-1,3.1855E1,-3.9339143E-1,2.1E1,-4.1418377E-1,-4.1995157E-2,-3.2101232E-1,4.4096056E-1,-4.8807195E-1,-1.376869E-1,8.8E-1,4.6255E1,-1.917E1,-3.15E1,-2.241E1,4.7614998E1,-6.077607E-2,-3.809471E-1,3.2335E1,3.4805E1,1.2775E3,4.26E1,3.969E1,1.4525E3,3.777E1,4.7215E1,-3.8764186E-2,3.628E1,-1.6727808E-1,8.45E-1,2.8822917E-1,-1.6400002E1,3.8635002E1,-3.655193E-1,3.9809998E1,-3.8070485E-1,3.087625E-1,1.2455E3,-3.409482E-1,-4.4665456E-2,-3.5823342E-1,4.2542174E-1,1.4320047E-1,4.9624825E-1,-3.099286E-1,4.3525E1,-4.7128085E-2,-3.878419E-1,-1.1489245E-1,1.8092057E-1,1.6027518E-1,-1.4847487E-1,2.699924E-1,-1.9280732E-1,1.897734E-1,5.581772E-2,4.235091E-1,1.6591385E-1,6.2461253E-2,-5.432865E-2,6.683747E-2,1.581279E-1,-3.6250028E-1,-2.529304E-2,9.872556E-2,-4.4518407E-2,1.2995276E-1,-6.06313E-2,-1.350819E-2,-3.429774E-1,2.4159066E-1,-8.3498664E-2,1.7905056E-1,-5.8369223E-2,8.85471E-3,-1.615346E-1,-5.9253387E-2,2.9129842E-1,3.08902E-2,-1.7891088E-1,-3.666654E-1,-5.8293644E-2,-1.8238431E-1,2.584773E-3,3.5723245E-1,1.2942195E-1,-1.9366346E-1,1.2592699E-1,1.12937555E-1,-1.0706124E-1,2.6009738E-1,8.04098E-2,4.1236204E-1,1.0150135E-1,-1.6016006E-1,-3.8057324E-1,-1.719097E-1,2.3454718E-1,5.6201126E-2,-2.0987492E-2,-4.1405606E-1,-1.8445045E-1,-7.905536E-2,-3.75723E-1,-4.2285493E-1,-2.358346E-1,5.668269E-2,-3.1631172E-1,3.5412163E-3,-2.920633E-1,-1.2908475E-1,-3.475946E-1,1.2780373E-1,-1.8264607E-1,-2.1346845E-1,-4.1575593E-1,4.1536953E-2,1.7767449E-1,-3.8577843E-1,3.6394906E-1,-1.2443907E-1,1.6233353E-1,-5.4988366E-2,-3.4935656E-1,-2.8665388E-1,1.2689418E-1,9.0083726E-2,-1.5862447E-1,1.0956641E-1,-4.9291655E-2,1.829986E-1,1.362626E-1,-4.2496613E-1,-3.6583226E-2,-8.483938E-2,8.417898E-2,3.5896087E-1,1.7596021E-1,1.1015839E-1,7.944577E-2,-6.626603E-2,-3.8979813E-1,2.1215133E-1,6.036335E-2,1.7648142E-2,-4.536365E-1,3.9669394E-1,3.1101948E-2,1.4066197E-1,3.7999544E-2,1.7881316E-1,8.471304E-2,-3.0686644E-1,6.5232374E-2,-1.4701496E-1,-4.2795524E-1,3.7991598E-1,1.9545814E-1,1.6874084E-2,8.6571045E-2,-2.301396E-1,1.0683169E-1,-3.4230772E-1,2.2688389E-1,2.7816203E-1,1.04828246E-1,-1.0526569E-1,1.1444782E-1,2.5707278E-1,-1.3067275E-1],"split_indices":[4,3,4,4,7,3,4,7,7,3,2,7,7,3,4,3,4,7,2,3,4,7,3,3,2,3,1,0,3,3,0,0,3,0,0,3,1,4,3,7,2,7,1,7,0,7,1,0,7,0,7,7,0,0,0,7,1,0,3,2,3,3,7,1,7,7,3,7,3,0,4,3,3,0,2,0,1,7,1,0,7,7,0,1,7,4,3,7,7,0,7,1,0,3,0,0,3,0,3,7,7,1,7,7,0,3,7,7,3,2,3,2,1,0,0,0,4,7,7,1,0,3,7,7,2,7,2,7,7,3,7,0,0,7,0,2,2,0,7,2,3,0,3,7,3,3,3,7,3,7,7,0,7,3,3,3,0,0,0,3,0,7,2,0,7,1,2,0,0,1,2,3,7,7,3,7,0,7,3,1,2,7,1,7,7,0,0,2,1,2,3,2,0,0,0,3,3,7,1,0,0,2,7,2,2,2,7,0,7,0,0,0,2,2,7,4,0,2,7,0,1,0,3,0,0,0,0,0,7,0,4,0,0,0,0,0,0,0,1,2,2,2,7,0,0,7,7,3,7,7,3,7,1,0,7,0,0,0,2,7,0,7,0,0,3,0,0,0,0,0,0,0,7,0,0,0,0,0,0,0,0,0,0,0,0,0,0,0,0,0,0,0,0,0,0,0,0,0,0,0,0,0,0,0,0,0,0,0,0,0,0,0,0,0,0,0,0,0,0,0,0,0,0,0,0,0,0,0,0,0,0,0,0,0,0,0,0,0,0,0,0,0,0,0,0,0,0,0,0,0,0,0,0,0,0,0,0,0,0,0,0,0,0,0,0,0,0,0,0,0,0,0,0,0,0,0,0,0,0,0,0,0,0,0,0,0,0,0,0,0,0,0,0,0,0,0,0],"split_type":[0,0,0,0,0,0,0,0,0,0,0,0,0,0,0,0,0,0,0,0,0,0,0,0,0,0,0,0,0,0,0,0,0,0,0,0,0,0,0,0,0,0,0,0,0,0,0,0,0,0,0,0,0,0,0,0,0,0,0,0,0,0,0,0,0,0,0,0,0,0,0,0,0,0,0,0,0,0,0,0,0,0,0,0,0,0,0,0,0,0,0,0,0,0,0,0,0,0,0,0,0,0,0,0,0,0,0,0,0,0,0,0,0,0,0,0,0,0,0,0,0,0,0,0,0,0,0,0,0,0,0,0,0,0,0,0,0,0,0,0,0,0,0,0,0,0,0,0,0,0,0,0,0,0,0,0,0,0,0,0,0,0,0,0,0,0,0,0,0,0,0,0,0,0,0,0,0,0,0,0,0,0,0,0,0,0,0,0,0,0,0,0,0,0,0,0,0,0,0,0,0,0,0,0,0,0,0,0,0,0,0,0,0,0,0,0,0,0,0,0,0,0,0,0,0,0,0,0,0,0,0,0,0,0,0,0,0,0,0,0,0,0,0,0,0,0,0,0,0,0,0,0,0,0,0,0,0,0,0,0,0,0,0,0,0,0,0,0,0,0,0,0,0,0,0,0,0,0,0,0,0,0,0,0,0,0,0,0,0,0,0,0,0,0,0,0,0,0,0,0,0,0,0,0,0,0,0,0,0,0,0,0,0,0,0,0,0,0,0,0,0,0,0,0,0,0,0,0,0,0,0,0,0,0,0,0,0,0,0,0,0,0,0,0,0,0,0,0,0,0,0,0,0,0,0,0,0,0,0,0,0,0,0,0,0,0,0,0,0,0,0,0,0,0,0,0,0,0,0,0,0,0,0,0,0,0,0,0,0,0,0,0,0,0,0,0,0],"sum_hessian":[1.9386729E4,1.3638937E4,5.7477925E3,2.1671575E3,1.1471779E4,7.4221594E2,5.0055767E3,1.2584904E3,9.086671E2,2.4005212E2,1.1231727E4,4.58674E2,2.8354196E2,2.0832208E2,4.7972544E3,2.581763E2,1.0003141E3,2.1238248E2,6.9628467E2,1.0568317E2,1.3436896E2,2.4964746E1,1.1206763E4,3.6712597E1,4.219614E2,9.8861275E1,1.846807E2,1.4387958E2,6.44425E1,4.0238373E2,4.3948706E3,8.250615E0,2.4992567E2,6.9859546E2,3.0171863E2,7.7329834E1,1.3505264E2,5.855368E2,1.1074785E2,9.802572E1,7.657445E0,4.110968E1,9.3259285E1,2.3731037E1,1.2337092E0,7.923302E3,3.2834607E3,4.5804534E0,3.213214E1,3.979764E2,2.3985003E1,8.23002E0,9.0631256E1,1.252163E1,1.7215906E2,2.3583065E1,4.0859432E1,3.0023096E2,1.0215277E2,2.9759274E1,2.201664E2,3.9918222E2,2.9941324E2,1.5249324E2,1.4922539E2,4.784067E0,7.254576E1,1.2488374E2,1.0168903E1,1.3389409E2,4.516427E2,2.4185232E1,8.656262E1,5.702804E0,9.2322914E1,3.6783469E0,3.979098E0,9.774797E0,3.133488E1,8.440852E1,8.850759E0,1.2340517E1,1.1390521E1,5.3695024E3,2.5537993E3,1.5342168E3,1.7492439E3,1.870378E1,1.3428364E1,2.4327292E0,2.1552273E1,4.8319488E0,3.3980708E0,1.6471855E2,7.4405007E0,6.246309E0,1.7336758E1,3.1588747E1,9.270683E0,1.5215842E1,8.693693E1,1.0634578E1,1.9124697E1,2.1717725E2,2.9891517E0,1.1154096E2,2.8764127E2,2.4278697E2,5.662625E1,1.4835376E2,4.1394806E0,4.988184E1,9.934355E1,1.231737E0,3.5523305E0,6.960308E1,2.9426844E0,1.0120071E2,2.368304E1,8.939657E0,1.2292453E0,9.770544E1,3.618865E1,1.1160534E2,3.4003738E2,3.302606E0,2.0882626E1,6.0247505E1,2.6315113E1,8.056214E1,1.17607765E1,2.73563E0,1.2434682E0,5.1543837E0,4.6204143E0,3.452999E0,2.7881882E1,1.1683964E0,7.682362E0,4.3685603E0,7.9719567E0,1.4913914E0,9.89913E0,5.3394795E3,3.0022966E1,2.5491565E3,4.6428757E0,1.5095695E3,2.4647255E1,1.7383331E3,1.0910794E1,8.281736E0,1.0422042E1,8.128073E0,5.3002915E0,1.0291547E1,1.1260726E1,1.4608446E0,3.3711042E0,1.423601E2,2.2358446E1,1.3807657E1,3.5291002E0,4.6295204E0,4.641163E0,3.7932653E0,1.1422577E1,8.5437386E1,1.4995414E0,7.405595E0,3.228983E0,1.0432561E1,8.692135E0,1.4613414E2,7.104311E1,1.08298355E2,3.2426057E0,2.8020007E2,7.4411855E0,1.7290154E2,6.9885445E1,1.2555675E1,4.407058E1,1.7960245E1,1.3039351E2,1.4787483E0,2.6607323E0,1.4441453E1,3.5440388E1,4.2849033E1,5.649452E1,6.836567E1,1.2374103E0,1.4656558E0,1.4770286E0,7.3748405E1,2.7452297E1,1.0458023E1,1.3225018E1,7.746343E0,1.1933146E0,4.9482372E1,4.8223064E1,2.432724E0,3.3755924E1,3.769754E1,7.39078E1,3.2050552E2,1.9531845E1,1.2157729E0,2.0868332E0,1.7045258E1,3.837368E0,1.8966135E1,4.1281372E1,2.4845497E1,1.469616E0,7.352504E1,7.0371003E0,7.8495035E0,3.9112725E0,1.9561559E0,3.1982276E0,3.185236E0,1.4351782E0,1.2253499E0,2.2276492E0,1.1802688E1,1.6079193E1,5.290359E0,2.392003E0,3.1522818E0,1.2162784E0,3.0936406E0,4.878316E0,8.409389E0,1.4897413E0,9.716259E2,4.3678535E3,1.2877653E1,1.7145313E1,3.2452553E1,2.5167039E3,1.9652808E0,2.6775951E0,9.716233E0,1.4998533E3,2.069374E1,3.9535131E0,8.129524E2,9.253807E2,4.9607615E0,5.9500327E0,1.6486608E0,8.773381E0,3.442561E0,4.6855116E0,2.1876593E0,3.1126325E0,6.626998E0,3.6645489E0,1.365894E2,5.770715E0,3.8195915E0,9.988066E0,2.3504136E0,1.1786866E0,3.2280471E0,1.4131157E0,1.2100414E0,2.583224E0,3.0644763E0,8.358101E0,2.2130008E0,5.1925936E0,1.9972665E0,1.2317164E0,2.4486728E0,7.983888E0,6.70028E0,1.9918548E0,6.640703E1,7.9727104E1,9.200299E0,6.1842815E1,5.806396E1,5.0234394E1,2.1167857E2,6.8521484E1,2.4950204E0,4.946165E0,4.594786E1,1.26953674E2,5.2719685E1,1.7165756E1,1.6983528E0,1.0857323E1,3.973695E0,4.009688E1,1.5997353E1,1.9628935E0,1.0648791E2,2.3905607E1,5.1026816E0,9.338772E0,1.26127205E1,2.2827667E1,2.3652966E1,1.9196068E1,2.7381386E1,2.9113134E1,5.861414E1,9.751531E0,2.8834646E0,7.0864944E1,2.7441788E0,2.4708118E1,6.2315583E0,4.2264647E0,1.123985E1,1.9851673E0,2.9945765E1,1.9536608E1,3.991746E1,8.305603E0,1.2224855E0,1.2102386E0,2.9650774E1,4.1051507E0,1.5304951E1,2.239259E1,6.2155853E1,1.1751946E1,1.2488722E0,1.8282972E1,1.1927406E0,2.6446273E0,1.5469293E1,3.4968421E0,3.8693066E1,2.5883062E0,8.3522835E0,1.6493214E1,3.5239944E1,3.82851E1,4.8664804E0,2.1706197E0,1.2124553E0,2.6988173E0,1.2420717E0,1.9561559E0,1.1964164E1,4.11503E0,1.2051862E0,1.1868168E0,9.115715E2,6.005446E1,8.793965E2,3.488457E3,1.0628851E1,2.2488022E0,9.052735E0,8.092577E0,6.8767915E0,2.5575762E1,1.5407836E3,9.7592035E2,4.605976E0,5.1102567E0,8.201856E1,1.4178347E3,5.46436E0,1.5229381E1,2.7184322E0,1.235081E0,4.1773483E2,3.952176E2,6.322448E2,2.9313586E2,1.7370251E0,3.2237365E0,2.7331798E0,3.2168531E0,3.3229434E0,5.4504375E0,2.7171233E0,1.9683884E0,1.6441188E0,1.4685136E0,3.182263E0,3.4447348E0,2.8969212E1,1.07620186E2,5.8522053E0,4.1358604E0,4.768552E0,3.5895488E0],"tree_param":{"num_deleted":"0","num_feature":"8","num_nodes":"397","size_leaf_vector":"0"}},{"base_weights":[-1.9535588E-1,1.878042E-1,-1.2552282E0,-1.9949594E-1,2.509946E-1,-7.792325E-1,-1.3287872E0,9.141934E-2,-6.0538393E-1,-1.5184252E-1,2.6541838E-1,-1.1623539E0,-1.8853767E-1,-1.1875037E0,-1.3415332E0,2.917746E-1,3.2572806E-2,2.3615116E-1,-1.0505029E0,1.176136E-1,-1.147236E0,2.688089E-1,-4.1678262E-1,4.5951426E-1,-1.340797E0,3.941355E-1,-9.157348E-1,-1.3345482E0,-8.196924E-1,6.736521E-3,4.4562447E-1,1.009874E-1,-1.2562762E-1,-3.1203946E-1,3.3749545E-1,-6.4986765E-1,-1.1859366E0,1.8696731E-1,-2.6562706E-1,5.5018413E-1,-1.1906021E0,2.897328E-1,2.1101092E-1,-7.9555553E-1,2.511809E-1,1.534599E-1,6.32874E-1,2.2505853E-1,6.669531E-1,-1.1238583E0,8.094956E-1,4.248831E-1,-1.1837525E0,1.9113375E-1,-1.4393132E0,5.343844E-1,-4.1489458E-1,1.1163947E-1,-8.1826526E-1,-3.663741E-2,-5.8514667E-1,-8.362761E-1,5.0673753E-1,2.0734096E-1,8.3130187E-1,2.4076225E-1,-6.647227E-1,-5.664384E-1,-1.2326146E0,2.3802473E-1,-1.2882024E-1,1.012116E0,-3.541619E-1,-1.2499998E0,-1.31517E-1,-1.4502293E-1,2.935527E-1,1.3501406E-1,3.536504E-1,-1.131464E0,-2.3151945E-1,-6.612821E-3,6.4228374E-1,1.0884719E0,-1.1166271E-1,9.581884E-1,5.1830006E-1,-8.375543E-1,2.6905826E-1,-3.373854E-1,7.2671944E-1,-1.2988924E0,-6.043791E-1,1.0020169E0,-3.4129503E-1,1.2139173E-1,9.243322E-1,-1.2279184E0,9.744108E-1,9.832058E-1,1.1805316E-1,-4.3880782E-1,-1.5248169E0,5.611138E-1,-1.2497323E0,-2.4277602E-1,-1.2429873E0,1.0343737E-1,1.2986876E0,-1.0413781E0,-3.8562873E-3,-2.4535169E-1,1.6359001E-1,8.20302E-1,-9.314956E-1,3.516677E-2,-1.1443514E0,1.508103E0,-7.922859E-1,-9.5292754E-2,3.3940166E-1,1.4801909E0,6.278643E-1,-8.904813E-1,-5.653379E-1,2.7212268E-1,-1.1383175E0,-1.0223478E0,-1.2975671E0,5.1563346E-1,1.738161E-1,9.198086E-2,-3.906183E-1,-5.645376E-1,4.433893E-1,-9.2048955E-1,-1.3584858E0,-8.262131E-1,1.0646887E0,-1.1618026E0,-8.024706E-2,2.9589182E-1,-3.684445E-2,1.5628498E-2,2.2350991E-1,2.8603435E-1,5.156146E-1,1.0644071E-1,-1.3384151E0,3.511055E-1,-6.4398444E-1,-6.521963E-1,5.571526E-1,-5.0372265E-2,8.8619757E-1,-5.2414554E-1,2.3104848E-1,1.14534E0,1.5512347E-1,5.85705E-1,9.9292964E-2,1.5048523E-1,-7.957446E-1,4.5804775E-1,7.7426386E-1,1.0300919E-1,-9.6923083E-1,1.2524421E0,6.800873E-1,-3.7604886E-1,3.3108556E-1,2.7757126E-1,1.1739749E0,-4.587806E-1,-1.261815E0,1.2318558E0,-1.1614798E-1,5.3446382E-2,1.1912122E0,-7.757187E-1,-1.7641811E0,6.353962E-1,1.1533477E-1,-4.2746326E-1,1.3502893E-1,1.20831884E-1,-3.9857525E-1,-1.4333192E-1,-1.1560405E0,3.9886463E-1,-1.9182137E-1,-1.7035533E-1,1.0030918E0,-1.0573468E0,4.8693126E-1,9.780594E-1,-7.4879307E-1,1.5992615E0,5.3415245E-1,-9.8602384E-1,1.8620756E-1,1.1397483E0,-2.7599168E-1,8.3299154E-1,2.626579E-1,6.9916457E-1,-2.6812088E-1,-4.7322652E-1,-1.0446924E0,2.3819588E-1,-6.5285933E-1,1.2937341E0,1.8779196E-2,-3.7420315E-1,-1.1748128E0,-9.227119E-1,-1.2773473E0,-1.3235236E0,-1.0384682E0,7.582291E-1,-1.9708657E-1,3.2557818E-1,7.489952E-4,-1.3090473E-1,4.3584532E-1,-9.3986E-1,1.342663E-1,4.8018786E-1,-6.6900545E-1,-1.2811719E-1,7.0798576E-1,-3.444179E-1,-1.0317174E0,-7.563759E-1,-9.3612075E-3,2.8450805E-1,3.4776962E-1,9.562507E-2,-1.0890666E0,-1.1000954E0,3.0281983E-2,-1.0452096E0,2.3640311E-1,3.776153E-1,1.3190264E-1,4.8260757E-1,1.0979878E0,5.78177E-1,-4.630375E-1,4.9599403E-1,-9.240909E-2,-9.432639E-1,-1.7890961E-1,1.3901448E-1,-1.0941482E0,7.938279E-1,-8.8897824E-2,1.167376E0,1.0655444E-1,-8.532738E-1,-6.6689946E-2,-2.4031924E-1,3.7214386E-1,-5.7463753E-1,9.323185E-1,8.7434345E-1,-5.5210426E-2,6.308373E-1,8.748359E-1,-5.5127925E-1,3.036731E-1,-1.0331618E0,-2.153229E-1,2.598637E-1,1.034315E0,-1.5411747E-1,-4.3701088E-1,5.7289254E-2,5.9499276E-1,8.197677E-1,-1.1345098E0,-1.3418325E0,-9.098623E-1,-1.065316E0,8.8797085E-2,-1.1144054E0,-1.1946218E-1,7.275544E-1,2.0041603E-1,-4.2180836E-1,1.2493662E0,-6.47097E-1,1.1369433E-1,4.0121615E-1,-2.7838033E-1,-4.2932913E-1,1.3224275E-1,-7.5027674E-1,1.7572546E-1,-3.1573883E-1,2.2276878E-1,-1.4010115E0,-2.4966337E-1,1.4752984E0,3.3506793E-1,-3.9057702E-1,8.7488365E-1,1.2030785E0,-3.160613E-2,3.5089028E-1,-1.1258268E0,5.8227926E-1,1.7365374E-1,1.1589205E0,2.6067466E-1,-8.760337E-1,-1.459997E-1,-1.2810211E0,-2.42009E-1,-3.6091775E-1,3.9504242E-1,1.2659645E0,4.7700855E-1,3.1745574E-1,-1.5859848E-1,5.43494E-1,1.1304548E0,6.1367124E-2,-5.0106794E-1,8.270553E-2,-1.0418556E0,-7.772375E-1,-1.1904553E0,-2.3775688E-1,6.694733E-1,-4.2256242E-1,-8.028177E-1,-7.178936E-1,3.952347E-1,-1.0594785E0,-6.551497E-1,-1.3184094E0,-2.1280164E-1,-1.1662469E0,-5.263126E-1,3.652713E-1,8.5960037E-1,1.8058206E-1,-9.258866E-1,5.6089796E-2,4.2251673E-1,-4.313711E-1,7.192397E-2,-3.6397523E-3,-6.8123E-1,1.1803615E0,1.0077369E-1,-2.496362E-1,-1.0389997E0,5.353822E-1,-6.771298E-1,-3.4301254E-1,1.1046165E0,-1.4319681E0,-4.6677607E-1,4.2768857E-1,-6.803913E-1,3.3055794E-1,-8.669752E-1,-1.2591544E0,-4.0012725E-2,9.460921E-1,-1.387348E-1,6.230208E-1,2.807444E-1,-5.0606483E-1,3.73613E-1,1.9994539E-1,-1.863971E-1,-9.223675E-2,-1.3197154E0,-8.883392E-2,1.2200061E-1,5.30833E-2,-1.437352E0,4.5778164E-1,1.9958588E-1,3.325965E-1,7.0062053E-1,1.8584496E-1,-1.3592965E-2,5.2505094E-1,3.1767657E-1,1.236455E0,-2.5398086E-3,5.9789896E-1,9.29659E-2,-2.4608432E-1,-1.2241181E0,2.2971417E-1,-5.576916E-1,-3.64835E-1,5.463956E-1,2.9035923E-1,9.645294E-1,7.338097E-2,7.1892506E-1,3.676155E-2,-7.8873664E-1,1.04579255E-1,1.3454118E0,2.1940236E-1,-3.9890093E-1,8.673389E-1,4.0845415E-1,6.813669E-1,1.3049377E0,1.2072756E-2,5.93915E-1,-2.890123E-1,-1.0661453E0,3.3862376E-1,5.6390382E-2,6.103678E-1,-1.9117822E-1,-1.2326369E0,-4.6417728E-1],"categories":[],"categories_nodes":[],"categories_segments":[],"categories_sizes":[],"default_left":[true,true,true,true,true,true,true,true,true,true,true,true,true,true,false,true,true,true,true,true,true,true,true,true,false,true,true,false,true,true,true,true,true,true,true,true,true,true,true,false,true,true,true,true,true,true,true,true,true,true,true,true,true,true,true,true,true,true,true,true,true,true,true,true,true,false,true,true,true,true,true,false,true,true,true,true,true,true,true,true,true,true,true,false,true,true,false,false,true,true,true,false,true,true,false,true,true,true,false,true,true,false,true,true,false,true,false,true,false,false,false,true,true,true,true,true,false,true,true,true,true,false,true,true,true,true,true,true,true,true,true,true,true,true,true,true,false,false,false,false,true,true,true,true,true,true,true,true,false,true,true,true,true,false,true,true,true,false,false,true,true,false,false,false,true,true,true,false,true,true,true,false,false,true,true,false,false,true,false,true,false,true,true,true,true,true,true,true,true,true,true,false,true,true,true,true,true,false,false,true,false,false,true,true,true,true,true,true,true,true,true,false,true,false,false,true,true,false,true,true,true,true,true,true,true,true,true,true,true,true,false,true,false,true,true,true,true,true,false,true,true,true,true,true,true,true,true,false,false,true,false,true,true,true,false,true,false,false,false,false,false,false,true,true,false,true,true,true,true,false,true,true,false,true,false,false,false,true,false,false,false,false,true,false,false,false,false,false,false,false,false,false,false,false,false,false,false,false,false,false,false,false,false,false,false,false,false,false,false,false,false,false,false,false,false,false,false,false,false,false,false,false,false,false,false,false,false,false,false,false,false,false,false,false,false,false,false,false,false,false,false,false,false,false,false,false,false,false,false,false,false,false,false,false,false,false,false,false,false,false,false,false,false,false,false,false,false,false,false,false,false,false,false,false,false,false,false,false,false,false,false,false,false,false,false,false,false,false,false,false,false,false,false,false,false,false,false,false,false,false,false,false,false,false,false,false,false,false,false,false,false,false,false,false,false,false,false,false,false,false,false,false,false,false,false,false,false],"id":2,"left_children":[1,3,5,7,9,11,13,15,17,19,21,23,25,27,-1,29,31,33,35,37,39,41,43,45,-1,47,49,-1,51,53,55,57,59,61,63,65,67,69,71,-1,73,75,77,79,81,83,85,87,89,91,93,95,97,99,101,103,105,107,109,111,113,115,117,119,121,-1,123,125,127,129,131,-1,133,135,137,139,141,143,145,147,149,151,153,-1,155,157,-1,-1,159,161,163,-1,165,167,-1,169,171,173,-1,175,177,-1,179,181,-1,183,-1,185,-1,-1,-1,187,189,191,193,195,-1,197,199,201,203,-1,205,207,209,211,213,215,217,219,221,223,225,227,229,231,-1,-1,-1,-1,233,235,237,239,241,243,245,247,-1,249,251,253,255,-1,257,259,261,-1,-1,263,265,-1,-1,-1,267,269,271,-1,273,275,277,-1,-1,279,281,-1,-1,283,-1,285,-1,287,289,291,293,295,297,299,301,303,305,-1,307,309,311,313,315,-1,-1,317,-1,-1,319,321,323,325,327,329,331,333,335,-1,337,-1,-1,339,341,-1,343,345,347,349,351,353,355,357,359,361,363,365,-1,367,-1,369,371,373,375,377,-1,379,381,383,385,387,389,391,393,-1,-1,395,-1,397,399,401,-1,403,-1,-1,-1,-1,-1,-1,405,407,-1,409,411,413,415,-1,417,419,-1,421,-1,-1,-1,423,-1,-1,-1,-1,425,-1,-1,-1,-1,-1,-1,-1,-1,-1,-1,-1,-1,-1,-1,-1,-1,-1,-1,-1,-1,-1,-1,-1,-1,-1,-1,-1,-1,-1,-1,-1,-1,-1,-1,-1,-1,-1,-1,-1,-1,-1,-1,-1,-1,-1,-1,-1,-1,-1,-1,-1,-1,-1,-1,-1,-1,-1,-1,-1,-1,-1,-1,-1,-1,-1,-1,-1,-1,-1,-1,-1,-1,-1,-1,-1,-1,-1,-1,-1,-1,-1,-1,-1,-1,-1,-1,-1,-1,-1,-1,-1,-1,-1,-1,-1,-1,-1,-1,-1,-1,-1,-1,-1,-1,-1,-1,-1,-1,-1,-1,-1,-1,-1,-1,-1,-1,-1,-1,-1,-1,-1,-1,-1,-1,-1,-1,-1,-1,-1,-1,-1,-1,-1,-1,-1,-1,-1,-1,-1,-1,-1,-1,-1,-1],"loss_changes":[7.423424E3,3.2864496E2,1.6891064E2,2.2250345E2,6.711359E1,1.473551E2,5.9750977E0,1.2938932E1,2.949162E2,1.0733302E2,2.5890564E1,1.1503558E2,1.0957117E2,1.8185944E1,0E0,1.0925476E1,9.21274E0,1.5269911E1,2.7156372E1,8.433678E0,6.9293747E0,1.3351135E1,1.4243802E1,2.021534E0,0E0,6.4824924E0,4.2184982E1,0E0,4.7807793E1,2.383966E1,1.2582474E1,5.9073906E0,1.0490753E1,1.8927376E1,1.4664764E1,1.9096947E0,1.0389954E1,4.346651E0,5.87319E0,0E0,5.0839157E0,1.3560669E1,3.1946503E1,6.49473E0,2.1060548E0,4.028221E0,4.4158554E-1,4.4464674E0,3.5170097E0,8.580154E0,3.2123823E0,3.5808296E0,8.920883E0,4.471989E0,1.9594193E-1,7.7180176E0,1.9352064E0,5.5909715E0,1.2540917E0,9.084723E0,2.1033401E1,7.1973076E0,2.3893532E1,7.387292E0,5.3835564E0,0E0,2.4210625E0,1.4081642E1,3.5317993E0,4.0240164E0,2.2270622E0,0E0,8.023973E0,1.5693283E0,5.4901776E0,4.620325E0,6.2472534E0,2.0357243E1,1.1080902E1,5.8025646E0,3.7270427E0,5.296567E0,1.4455638E0,0E0,1.9849753E0,6.306186E-1,0E0,0E0,4.6427393E0,9.5706594E-1,3.0656052E-1,0E0,7.282029E0,6.35128E-2,0E0,1.8253987E0,1.1365933E0,1.5030365E0,0E0,1.9359736E0,5.046385E0,0E0,2.2943115E-1,4.7499275E0,0E0,1.0510951E0,0E0,5.157312E0,0E0,0E0,0E0,9.716784E0,9.363238E0,1.7579556E0,6.5619946E0,6.596436E0,0E0,5.1195145E-2,1.7478609E0,1.2965958E1,4.642748E0,0E0,2.6242714E0,1.9573269E0,6.7127495E0,3.1982834E0,4.189682E-2,1.0741806E0,4.2837524E-1,7.557025E0,4.9622316E0,1.695067E0,5.1808276E0,4.3704214E0,1.6377258E0,1.0952892E0,0E0,0E0,0E0,0E0,3.2690008E0,4.6331787E0,8.135248E0,1.3463819E1,1.8350151E1,1.0191994E1,5.25074E0,1.3667074E0,0E0,4.7545946E-1,1.0675807E0,2.5226865E0,1.2593927E0,0E0,1.2317619E0,8.900367E-1,6.145563E-1,0E0,0E0,1.27289715E1,7.009499E0,0E0,0E0,0E0,6.1624527E-2,1.5293005E0,6.6703415E-1,0E0,7.963686E-1,4.4038296E-3,8.331747E-1,0E0,0E0,5.1997495E0,9.1703033E-1,0E0,0E0,2.8853545E0,0E0,7.4322367E-1,0E0,4.850239E0,1.3944153E1,1.2386382E0,7.097131E-1,3.6116676E0,4.136503E0,6.179821E0,1.9980145E0,4.1169596E0,9.863484E0,0E0,1.5991397E0,3.4260445E0,1.7998219E-3,2.2144175E-1,2.4777508E-1,0E0,0E0,1.2365932E0,0E0,0E0,3.006742E0,1.9868994E0,2.648025E0,1.7764187E0,3.0203295E-1,3.914391E0,1.270256E-1,2.1894596E0,2.5737495E0,0E0,3.3320065E0,0E0,0E0,1.7707672E0,6.946564E-1,0E0,1.2874413E0,9.6746445E-1,3.3802001E0,2.6060038E0,2.7767944E0,9.5956135E-1,2.0354385E0,3.3546638E-1,3.5652251E0,2.4117832E0,4.600071E0,1.5447032E0,0E0,2.1083295E0,0E0,2.2812831E0,7.903945E0,8.203674E0,3.1906311E1,1.569903E0,0E0,2.241334E0,8.879871E0,4.950775E0,8.844654E0,6.3774796E0,2.137033E0,1.8379211E0,2.3416157E0,0E0,0E0,1.5783787E-1,0E0,7.111907E-1,8.574284E-1,8.801701E-1,0E0,2.1763968E-1,0E0,0E0,0E0,0E0,0E0,0E0,6.1747676E-1,1.0227716E0,0E0,3.3845015E0,4.7509837E0,7.5631523E-1,9.760685E-1,0E0,7.1926403E-1,1.0297203E-1,0E0,5.475822E-2,0E0,0E0,0E0,1.0782882E0,0E0,0E0,0E0,0E0,1.897625E0,0E0,0E0,0E0,0E0,0E0,0E0,0E0,0E0,0E0,0E0,0E0,0E0,0E0,0E0,0E0,0E0,0E0,0E0,0E0,0E0,0E0,0E0,0E0,0E0,0E0,0E0,0E0,0E0,0E0,0E0,0E0,0E0,0E0,0E0,0E0,0E0,0E0,0E0,0E0,0E0,0E0,0E0,0E0,0E0,0E0,0E0,0E0,0E0,0E0,0E0,0E0,0E0,0E0,0E0,0E0,0E0,0E0,0E0,0E0,0E0,0E0,0E0,0E0,0E0,0E0,0E0,0E0,0E0,0E0,0E0,0E0,0E0,0E0,0E0,0E0,0E0,0E0,0E0,0E0,0E0,0E0,0E0,0E0,0E0,0E0,0E0,0E0,0E0,0E0,0E0,0E0,0E0,0E0,0E0,0E0,0E0,0E0,0E0,0E0,0E0,0E0,0E0,0E0,0E0,0E0,0E0,0E0,0E0,0E0,0E0,0E0,0E0,0E0,0E0,0E0,0E0,0E0,0E0,0E0,0E0,0E0,0E0,0E0,0E0,0E0,0E0,0E0,0E0,0E0,0E0,0E0,0E0,0E0,0E0,0E0,0E0,0E0,0E0,0E0,0E0,0E0,0E0,0E0,0E0],"parents":[2147483647,0,0,1,1,2,2,3,3,4,4,5,5,6,6,7,7,8,8,9,9,10,10,11,11,12,12,13,13,15,15,16,16,17,17,18,18,19,19,20,20,21,21,22,22,23,23,25,25,26,26,28,28,29,29,30,30,31,31,32,32,33,33,34,34,35,35,36,36,37,37,38,38,40,40,41,41,42,42,43,43,44,44,45,45,46,46,47,47,48,48,49,49,50,50,51,51,52,52,53,53,54,54,55,55,56,56,57,57,58,58,59,59,60,60,61,61,62,62,63,63,64,64,66,66,67,67,68,68,69,69,70,70,72,72,73,73,74,74,75,75,76,76,77,77,78,78,79,79,80,80,81,81,82,82,84,84,85,85,88,88,89,89,90,90,92,92,93,93,95,95,96,96,97,97,99,99,100,100,102,102,103,103,105,105,107,107,111,111,112,112,113,113,114,114,115,115,117,117,118,118,119,119,120,120,122,122,123,123,124,124,125,125,126,126,127,127,128,128,129,129,130,130,131,131,132,132,133,133,134,134,135,135,140,140,141,141,142,142,143,143,144,144,145,145,146,146,147,147,149,149,150,150,151,151,152,152,154,154,155,155,156,156,159,159,160,160,164,164,165,165,166,166,168,168,169,169,170,170,173,173,174,174,177,177,179,179,181,181,182,182,183,183,184,184,185,185,186,186,187,187,188,188,189,189,190,190,192,192,193,193,194,194,195,195,196,196,199,199,202,202,203,203,204,204,205,205,206,206,207,207,208,208,209,209,210,210,212,212,215,215,216,216,218,218,219,219,220,220,221,221,222,222,223,223,224,224,225,225,226,226,227,227,228,228,229,229,231,231,233,233,234,234,235,235,236,236,237,237,239,239,240,240,241,241,242,242,243,243,244,244,245,245,246,246,249,249,251,251,252,252,253,253,255,255,262,262,263,263,265,265,266,266,267,267,268,268,270,270,271,271,273,273,277,277,282,282],"right_children":[2,4,6,8,10,12,14,16,18,20,22,24,26,28,-1,30,32,34,36,38,40,42,44,46,-1,48,50,-1,52,54,56,58,60,62,64,66,68,70,72,-1,74,76,78,80,82,84,86,88,90,92,94,96,98,100,102,104,106,108,110,112,114,116,118,120,122,-1,124,126,128,130,132,-1,134,136,138,140,142,144,146,148,150,152,154,-1,156,158,-1,-1,160,162,164,-1,166,168,-1,170,172,174,-1,176,178,-1,180,182,-1,184,-1,186,-1,-1,-1,188,190,192,194,196,-1,198,200,202,204,-1,206,208,210,212,214,216,218,220,222,224,226,228,230,232,-1,-1,-1,-1,234,236,238,240,242,244,246,248,-1,250,252,254,256,-1,258,260,262,-1,-1,264,266,-1,-1,-1,268,270,272,-1,274,276,278,-1,-1,280,282,-1,-1,284,-1,286,-1,288,290,292,294,296,298,300,302,304,306,-1,308,310,312,314,316,-1,-1,318,-1,-1,320,322,324,326,328,330,332,334,336,-1,338,-1,-1,340,342,-1,344,346,348,350,352,354,356,358,360,362,364,366,-1,368,-1,370,372,374,376,378,-1,380,382,384,386,388,390,392,394,-1,-1,396,-1,398,400,402,-1,404,-1,-1,-1,-1,-1,-1,406,408,-1,410,412,414,416,-1,418,420,-1,422,-1,-1,-1,424,-1,-1,-1,-1,426,-1,-1,-1,-1,-1,-1,-1,-1,-1,-1,-1,-1,-1,-1,-1,-1,-1,-1,-1,-1,-1,-1,-1,-1,-1,-1,-1,-1,-1,-1,-1,-1,-1,-1,-1,-1,-1,-1,-1,-1,-1,-1,-1,-1,-1,-1,-1,-1,-1,-1,-1,-1,-1,-1,-1,-1,-1,-1,-1,-1,-1,-1,-1,-1,-1,-1,-1,-1,-1,-1,-1,-1,-1,-1,-1,-1,-1,-1,-1,-1,-1,-1,-1,-1,-1,-1,-1,-1,-1,-1,-1,-1,-1,-1,-1,-1,-1,-1,-1,-1,-1,-1,-1,-1,-1,-1,-1,-1,-1,-1,-1,-1,-1,-1,-1,-1,-1,-1,-1,-1,-1,-1,-1,-1,-1,-1,-1,-1,-1,-1,-1,-1,-1,-1,-1,-1,-1,-1,-1,-1,-1,-1,-1,-1],"split_conditions":[2.35E1,1.0595E3,2.65E1,1.85E1,3.5145E1,1.2345E3,2.85E1,9.25E-1,9.25E-1,1.95E1,1.4635E3,9.0999997E-1,1.2685E3,1.2425E3,-4.0245998E-1,3.31E2,1.75E1,-1.7585E1,1.95E1,8.8E-1,9.05E-1,1.2635E3,-1.8060001E1,8.55E-1,-4.022391E-1,9.35E-1,9.35E-1,-4.003645E-1,1.2485E3,3.03E2,9.675E2,1.0545E3,9.45E-1,6.94E2,8.85E-1,1.35E1,3.0215E1,1.85E1,9.05E-1,1.6505525E-1,9.35E-1,-3.1974998E1,9.35E-1,9.25E-1,-1.2375E1,8.25E-1,-1.6849998E1,1.2435E3,1.242E3,4.9E1,9.45E-1,9.35E-1,9.35E-1,1.75E1,9.15E-1,5.9965E1,8.8E-1,9.55E-1,9.1499996E-1,4.64E2,4.42E2,8.45E-1,8.48E2,8.45E-1,8.95E-1,7.222868E-2,-2.5485E1,9.35E-1,2.05E1,9.15E-1,-1.6875E1,3.036348E-1,-1.52E1,2.05E1,1.5245E3,1.2315E3,5.604E1,4.6255E1,5.1085E1,9.15E-1,4.575E1,4.059E1,9.25E-1,3.2654157E-1,8.45E-1,2.55E1,1.5549003E-1,-2.512663E-1,1.2455E3,9.1499996E-1,1.2445E3,-3.8966772E-1,8.45E-1,-3.132E1,-1.02388516E-1,-3.84E1,1.2445E3,1.2585E3,2.9232323E-1,4.2809998E1,-5.7250004E0,-1.3164236E-1,-1.8825E1,-1.0775E1,-3.7491968E-1,1.0445E3,-3.728962E-1,-6.3999996E0,3.896063E-1,-3.1241345E-1,-1.1568862E-3,3.385E2,7.96E2,5.55E1,8.165E2,1.95E1,-3.433054E-1,7.77E2,-2.321E1,8.25E-1,4.695E2,4.440573E-1,4.1055E1,-3.066E1,-2.4835E1,-1.902E1,2.75E1,9.45E-1,5.683E1,1.5875E3,-1.546E1,-1.7849998E1,-1.4825E1,1.2995E3,2.8595001E1,2.25E1,-4.0754578E-1,-2.4786395E-1,3.1940663E-1,-3.485408E-1,9.15E-1,1.2475E3,1.95E1,-2.9650002E1,8.85E-1,1.4255E3,1.4575E3,1.85E1,-4.0152457E-1,-1.92E1,9.35E-1,-1.7135E1,9.35E-1,-1.511168E-2,9.45E-1,-1.63E1,2.596E1,3.43602E-1,4.653704E-2,9.25E-1,9.15E-1,4.514557E-2,-2.3872338E-1,1.3741434E-1,2.45E1,-3.607E1,-2.8720001E1,3.7573266E-1,8.8E-1,9.4E-1,4.1800003E1,8.3271384E-2,3.5219246E-1,9.25E-1,4.729E1,3.6955673E-1,-3.4844395E-2,-3.1619999E1,3.5736367E-1,-1.965E1,-5.292544E-1,8.045E2,8.905E2,5.147E1,-2.095E1,-2.9645E1,-4.3999996E0,2.595E2,9.35E-1,4.975E2,1.04E3,-5.1106602E-2,8.8E-1,-2.905E1,9.54E2,-2.3925E1,5.56E2,4.7977847E-1,1.6024575E-1,5.3815002E1,5.586227E-2,3.4192452E-1,-1.18E1,8.75E-1,-1.2E1,8.45E-1,9.115E2,2.82E2,5E1,-2.5060001E1,8.45E-1,3.8812023E-1,-1.5375E1,-1.12260945E-1,-3.5244384E-1,5.51E2,7.965E2,-3.9705712E-1,6.695E2,1.1315E3,-1.457E1,9.25E-1,-1.5375E1,-1.8875E1,1.1315E3,-1.6425E1,8.45E-1,9.25E-1,1.3025E3,9.25E-1,2.1239574E-1,9.25E-1,-3.0951524E-1,1.2405E3,9.25E-1,8.95E-1,9.05E-1,8.45E-1,-3.2672E-1,1.336E3,9.25E-1,1.2665E3,9.15E-1,1.2675E3,1.85E1,9.45E-1,-2.8295E1,1.734531E-1,-1.3891125E-1,8.8E-1,-2.7722728E-2,4.7215E1,1.4765E3,9.25E-1,-3.2824445E-1,8.8E-1,-2.6669348E-2,3.502128E-1,3.1966332E-2,-2.5598216E-1,-2.0006984E-2,-7.2095774E-2,4.705E2,9.15E-1,2.7969557E-1,1.2485E3,1.2485E3,1.2465E3,1.2475E3,-1.6538379E-1,1.4575E3,1.2705E3,-6.459687E-2,5.3085E1,3.102945E-1,-4.623524E-2,-1.3110328E-1,9.1499996E-1,1.7849784E-1,2.4593033E-1,-3.4035295E-1,-4.0254977E-1,-3.7045E1,-3.195948E-1,2.6639126E-2,-3.3432162E-1,-3.5838656E-2,2.1826632E-1,6.012481E-2,-1.2654251E-1,3.7480986E-1,-1.9412911E-1,3.41083E-2,1.2036485E-1,-8.35141E-2,-1.2879874E-1,3.967283E-2,-2.2508304E-1,5.271764E-2,-9.472165E-2,6.6830635E-2,-4.2030346E-1,-7.489901E-2,4.4258955E-1,1.0052038E-1,-1.1717311E-1,2.6246512E-1,3.6092356E-1,-9.48184E-3,1.05267085E-1,-3.3774805E-1,1.7468378E-1,5.2096125E-2,3.4767616E-1,7.82024E-2,-2.6281014E-1,-4.379991E-2,-3.8430634E-1,-7.2602704E-2,-1.0827533E-1,1.1851273E-1,3.7978938E-1,1.4310257E-1,9.5236726E-2,-4.7579546E-2,1.6304821E-1,3.3913645E-1,1.8410139E-2,-1.5032038E-1,2.4811659E-2,-3.1255668E-1,-2.3317125E-1,-3.571366E-1,-7.132707E-2,2.00842E-1,-1.2676874E-1,-2.4084532E-1,-2.1536809E-1,1.1857042E-1,-3.1784356E-1,-1.9654492E-1,-3.9552286E-1,-6.384049E-2,-3.4987408E-1,-1.5789378E-1,1.09581396E-1,2.5788012E-1,5.417462E-2,-2.77766E-1,1.6826939E-2,1.2675503E-1,-1.2941134E-1,2.1577192E-2,-1.0919258E-3,-2.0436901E-1,3.5410845E-1,3.023211E-2,-7.489087E-2,-3.1169993E-1,1.6061467E-1,-2.0313895E-1,-1.0290377E-1,3.3138496E-1,-4.2959043E-1,-1.4003283E-1,1.2830658E-1,-2.041174E-1,9.9167384E-2,-2.6009256E-1,-3.7774634E-1,-1.2003818E-2,2.8382766E-1,-4.162044E-2,1.8690625E-1,8.422332E-2,-1.5181945E-1,1.12083904E-1,5.998362E-2,-5.5919133E-2,-2.7671026E-2,-3.9591464E-1,-2.6650177E-2,3.6600184E-2,1.592499E-2,-4.312056E-1,1.373345E-1,5.9875768E-2,9.977896E-2,2.1018617E-1,5.5753488E-2,-4.0778895E-3,1.5751529E-1,9.530298E-2,3.709365E-1,-7.6194265E-4,1.7936969E-1,2.7889771E-2,-7.38253E-2,-3.6723545E-1,6.891426E-2,-1.6730748E-1,-1.09450504E-1,1.6391869E-1,8.710777E-2,2.8935882E-1,2.2014292E-2,2.1567753E-1,1.1028465E-2,-2.36621E-1,3.1373776E-2,4.0362355E-1,6.582071E-2,-1.1967028E-1,2.602017E-1,1.2253625E-1,2.0441009E-1,3.9148134E-1,3.6218269E-3,1.781745E-1,-8.6703695E-2,-3.198436E-1,1.0158713E-1,1.6917115E-2,1.8311034E-1,-5.7353467E-2,-3.697911E-1,-1.3925318E-1],"split_indices":[4,3,4,4,1,3,4,6,6,4,3,6,3,3,0,3,4,2,4,0,6,3,2,6,0,6,6,0,3,3,3,3,6,3,6,3,1,4,6,0,6,2,6,6,2,6,2,3,3,1,6,6,6,3,6,1,0,6,0,3,3,0,3,6,6,0,2,6,4,6,2,0,2,4,3,3,1,1,1,6,1,1,6,0,6,4,0,0,3,0,3,0,0,2,0,2,3,3,0,1,2,0,2,2,0,3,0,2,0,0,0,3,3,3,3,4,0,3,2,6,3,0,1,2,2,2,3,6,1,3,2,2,2,3,1,1,0,0,0,0,6,3,4,2,6,3,3,4,0,2,6,2,6,0,6,2,1,0,0,6,6,0,0,0,4,2,2,0,0,0,1,0,0,6,1,0,0,2,0,2,0,3,3,1,2,2,2,3,6,3,3,0,0,2,3,2,3,0,0,1,0,0,2,6,2,0,3,3,1,2,0,0,2,0,0,3,3,0,3,3,2,6,2,2,3,2,0,6,3,6,0,6,0,3,6,6,6,0,0,3,6,3,6,3,4,6,2,0,0,0,0,1,3,6,0,0,0,0,0,0,0,0,3,6,0,3,3,3,3,0,3,3,0,1,0,0,0,0,0,0,0,0,2,0,0,0,0,0,0,0,0,0,0,0,0,0,0,0,0,0,0,0,0,0,0,0,0,0,0,0,0,0,0,0,0,0,0,0,0,0,0,0,0,0,0,0,0,0,0,0,0,0,0,0,0,0,0,0,0,0,0,0,0,0,0,0,0,0,0,0,0,0,0,0,0,0,0,0,0,0,0,0,0,0,0,0,0,0,0,0,0,0,0,0,0,0,0,0,0,0,0,0,0,0,0,0,0,0,0,0,0,0,0,0,0,0,0,0,0,0,0,0,0,0,0,0,0,0,0,0,0,0,0,0,0,0,0,0,0,0,0,0,0,0,0,0,0],"split_type":[0,0,0,0,0,0,0,0,0,0,0,0,0,0,0,0,0,0,0,0,0,0,0,0,0,0,0,0,0,0,0,0,0,0,0,0,0,0,0,0,0,0,0,0,0,0,0,0,0,0,0,0,0,0,0,0,0,0,0,0,0,0,0,0,0,0,0,0,0,0,0,0,0,0,0,0,0,0,0,0,0,0,0,0,0,0,0,0,0,0,0,0,0,0,0,0,0,0,0,0,0,0,0,0,0,0,0,0,0,0,0,0,0,0,0,0,0,0,0,0,0,0,0,0,0,0,0,0,0,0,0,0,0,0,0,0,0,0,0,0,0,0,0,0,0,0,0,0,0,0,0,0,0,0,0,0,0,0,0,0,0,0,0,0,0,0,0,0,0,0,0,0,0,0,0,0,0,0,0,0,0,0,0,0,0,0,0,0,0,0,0,0,0,0,0,0,0,0,0,0,0,0,0,0,0,0,0,0,0,0,0,0,0,0,0,0,0,0,0,0,0,0,0,0,0,0,0,0,0,0,0,0,0,0,0,0,0,0,0,0,0,0,0,0,0,0,0,0,0,0,0,0,0,0,0,0,0,0,0,0,0,0,0,0,0,0,0,0,0,0,0,0,0,0,0,0,0,0,0,0,0,0,0,0,0,0,0,0,0,0,0,0,0,0,0,0,0,0,0,0,0,0,0,0,0,0,0,0,0,0,0,0,0,0,0,0,0,0,0,0,0,0,0,0,0,0,0,0,0,0,0,0,0,0,0,0,0,0,0,0,0,0,0,0,0,0,0,0,0,0,0,0,0,0,0,0,0,0,0,0,0,0,0,0,0,0,0,0,0,0,0,0,0,0,0,0,0,0,0,0,0,0,0,0,0,0,0,0,0,0,0,0,0,0,0,0,0,0,0,0,0,0,0,0,0,0,0,0,0,0,0,0,0,0,0,0,0,0,0,0,0,0,0,0,0,0,0],"sum_hessian":[1.8278178E4,1.3425483E4,4.8526953E3,1.8828918E3,1.1542591E4,6.5109515E2,4.2016E3,1.0972361E3,7.856559E2,3.9867245E2,1.1143919E4,3.9435254E2,2.5674258E2,3.5547516E2,3.846125E3,2.4820665E2,8.490294E2,2.719607E2,5.136952E2,3.1443558E2,8.4236855E1,1.108941E4,5.450835E1,3.8931286E1,3.5542126E2,1.4278935E2,1.1395324E2,2.5207259E2,1.03402565E2,8.737343E1,1.6083322E2,5.929617E2,2.560677E2,4.2108536E1,2.2985214E2,1.3124603E2,3.8244916E2,2.6668643E2,4.774916E1,1.8073447E0,8.242951E1,8.138952E3,2.9504583E3,3.4662014E1,1.9846333E1,1.4759552E1,2.4171732E1,8.928221E1,5.350715E1,1.01997345E2,1.1955893E1,2.3363855E1,8.0038704E1,7.826151E1,9.11192E0,1.4613847E2,1.4694746E1,5.870378E2,5.923895E0,2.154278E2,4.0639904E1,2.5658714E1,1.6449823E1,1.8303008E2,4.682207E1,1.9036788E0,1.2934236E2,2.771801E1,3.5473114E2,2.2978104E2,3.6905396E1,2.418163E0,4.5330997E1,7.788135E1,4.548159E0,7.0566284E1,8.0683857E3,1.9261643E3,1.024294E3,2.1093744E1,1.3568271E1,1.2554308E1,7.292025E0,2.5744963E0,1.2185056E1,4.3780127E0,1.979372E1,2.8328242E0,8.644939E1,2.7443795E0,5.0762768E1,7.516931E1,2.6828035E1,1.0353145E1,1.6027472E0,1.5306113E1,8.057742E0,7.885599E1,1.1827193E0,5.5588717E0,7.270264E1,1.2001867E0,7.9117336E0,1.4465674E2,1.4817272E0,1.3236684E1,1.4580618E0,5.840891E2,2.9487183E0,4.4312353E0,1.4926596E0,1.0536814E2,1.10059654E2,7.764387E0,3.2875515E1,6.933105E0,1.8725609E1,9.198283E0,7.251541E0,5.5689346E1,1.2734073E2,9.677764E0,3.7144306E1,3.7102283E1,9.2240074E1,1.145111E1,1.62669E1,8.766823E1,2.670629E2,4.1842514E1,1.879385E2,2.037214E1,1.6533257E1,3.610064E1,9.230359E0,2.1639498E1,5.624185E1,3.0728865E0,1.4752728E0,3.212009E0,6.735428E1,8.0117686E3,5.6617165E1,8.2047577E2,1.1056886E3,7.2457E2,2.9972394E2,3.0908854E0,1.800286E1,5.6857133E0,7.8825574E0,5.779353E0,6.774955E0,2.1057346E0,5.1862903E0,5.289397E0,6.8956594E0,3.2049086E0,1.1731042E0,2.931705E1,5.713233E1,1.6547625E0,1.0896171E0,9.23128E0,4.1531487E1,9.372993E0,1.7455044E1,4.1975203E0,6.1556244E0,4.3036265E0,1.1002486E1,2.8321729E0,5.2255692E0,3.942072E0,7.491392E1,4.435199E0,1.1236727E0,6.956449E1,3.1381483E0,2.9428225E0,4.968911E0,1.2363024E2,2.10265E1,8.802302E0,4.434381E0,5.652623E2,1.8826778E1,9.57942E1,9.573942E0,6.6148506E1,4.391114E1,1.220068E0,6.544319E0,3.043014E1,2.4453769E0,3.0351038E0,3.8980012E0,7.823951E0,1.374332E0,6.0466347E0,1.2049065E0,6.4305286E0,4.925882E1,1.580892E1,1.1153181E2,3.4609814E1,2.5344925E0,1.1110066E1,2.5992216E1,8.890927E0,8.3349144E1,1.4594033E0,9.991707E0,1.2545017E0,1.5012398E1,6.635848E1,2.1309748E1,2.3901071E2,2.80522E1,3.116927E1,1.0673246E1,9.966304E1,8.8275475E1,1.2736153E1,7.635989E0,7.6928344E0,8.840422E0,2.9548001E0,3.314584E1,3.0843086E0,6.14605E0,4.1649394E0,1.7474558E1,5.4737544E0,6.1880524E1,6.5753857E3,1.436383E3,5.1093826E1,5.523337E0,9.675872E0,8.1079987E2,1.03179035E1,1.0953706E3,4.536019E2,2.7096808E2,2.853783E2,1.434564E1,1.6821636E0,1.4087218E0,4.196472E0,1.4892411E0,4.170566E0,3.7119913E0,2.316915E0,3.462438E0,4.7910523E0,1.9839023E0,3.4461243E0,1.7401662E0,2.572956E0,2.7164407E0,1.4265705E0,5.4690886E0,6.591872E0,2.2725178E1,8.721709E0,4.841062E1,2.0116167E1,2.1415321E1,1.7898144E0,7.5831785E0,1.5749119E1,1.7059247E0,3.6084695E0,2.547155E0,1.687693E0,2.6159334E0,5.9974165E0,5.00507E0,1.2893434E0,2.6527286E0,5.8745422E1,1.6168491E1,1.2383436E0,6.832615E1,1.4805846E0,1.4622378E0,1.0146127E2,2.2168966E1,1.4694417E1,6.332084E0,6.1219068E0,2.6803958E0,2.7154458E0,1.7189353E0,1.0741669E1,5.545206E2,1.1486211E1,7.3405676E0,6.521855E1,3.057565E1,7.107293E0,2.4666486E0,2.4631472E0,6.3685364E1,3.7548668E1,6.362473E0,5.347935E0,1.1963842E0,1.2198999E0,2.921024E1,1.2164676E0,1.2289091E0,1.9324344E0,1.1026692E0,2.844318E0,1.0536833E0,3.813026E0,2.233609E0,4.4135216E1,5.1236053E0,5.979706E0,9.829214E0,9.89116E1,1.2620206E1,2.7091518E1,7.518295E0,1.354792E0,1.1797006E0,6.049854E0,5.0602126E0,1.1402458E1,1.4589758E1,4.4398623E0,4.4510655E0,3.437539E1,4.897376E1,3.0724175E0,6.919289E0,4.195374E1,2.4404743E1,2.0288692E1,1.0210559E0,2.1428764E1,6.6234365E0,7.335824E0,2.3833445E1,7.5256357E0,3.1476107E0,2.6783564E1,7.287948E1,1.17680645E1,7.650741E1,1.11616E1,1.5745522E0,1.5870068E0,6.0489826E0,1.4080228E0,6.284812E0,6.143524E0,2.696897E0,1.4689386E0,1.4858617E0,5.67071E0,2.7475128E1,1.649673E0,1.4346358E0,1.977748E0,2.1871915E0,2.771134E0,2.7026205E0,6.6268516E0,5.525367E1,7.049337E1,6.504892E3,4.165249E1,1.3947306E3,3.7509903E1,1.3583924E1,1.985266E0,7.6906056E0,3.527332E2,4.5806668E2,2.9421911E0,7.375713E0,1.5456316E2,9.408075E2,3.9989615E2,5.3705772E1,1.9747656E2,7.3491516E1,2.2523328E2,6.0145035E1,1.2632697E1,1.7129433E0,2.9636116E0,1.2328608E0,1.7364018E0,2.4341643E0,1.9749705E0,1.737021E0,1.0825071E0,1.2344079E0,1.8969997E0,2.8940527E0,3.5888164E0,1.8802723E0,1.9244763E0,4.667396E0,3.7750206E0,4.946689E0,2.7110579E1,2.1300045E1,8.343143E0,1.1773024E1,1.6553432E1,4.861889E0,4.3023186E0,3.28086E0,1.0827698E0,1.4666348E1,2.1226292E0,1.4858404E0,1.4076079E0,4.5898085E0,8.353207E0,7.815285E0],"tree_param":{"num_deleted":"0","num_feature":"8","num_nodes":"427","size_leaf_vector":"0"}},{"base_weights":[-1.6462058E-1,1.1608454E-1,-1.1794423E0,-1.9346704E-1,1.7478852E-1,-8.8818526E-1,-1.2222116E0,4.4761457E-2,-5.3768295E-1,1.8522885E-1,-2.1169356E-1,-1.152543E0,-4.445683E-1,-1.1496218E0,-1.228494E0,-1.463999E-1,2.071517E-1,2.0855488E-1,-9.182765E-1,2.1094261E-1,1.273948E-1,2.1041526E-1,-6.7995656E-1,7.831739E-1,-1.2228047E0,1.5910526E-1,-1.0279715E0,-1.2259492E0,-9.151751E-1,-2.3723172E-1,2.6848212E-1,3.042753E-1,2.3178624E-2,-3.2959992E-1,4.0650687E-1,-5.615015E-1,-1.167208E0,1.2341419E-1,2.3422518E-1,8.0500074E-2,2.1488456E-1,-1.12060755E-1,5.0253594E-1,-1.24206945E-1,-1.0456625E0,3.2362154E-1,9.319988E-1,-8.265895E-2,4.9629512E-1,-1.1022228E0,7.225439E-1,3.761556E-1,-1.1948676E0,-1.0463424E-1,-5.357023E-1,3.9492303E-1,-8.827354E-1,2.8153995E-1,1.3089892E0,-1.6828011E-1,2.456373E-1,-4.3407556E-1,8.3808005E-1,-9.16706E-1,4.4530046E-1,1.6459627E0,-6.1418176E-1,1.2714508E0,-1.1788652E0,2.7348855E-1,3.1854633E-2,2.2528604E-1,4.4662705E-1,1.9885479E-3,2.3164472E-1,-5.88838E-1,2.242472E-1,-4.934126E-1,3.8342774E-1,-3.1034398E-1,5.912367E-1,-1.2945797E0,2.8677052E-2,-1.1245323E0,1.7302722E-1,-1.9753076E-1,6.3877505E-1,3.8008204E-1,1.196947E0,-5.1806283E-1,5.7778466E-1,1.2454951E0,1.9320756E-1,-6.442314E-1,-1.2278595E0,3.8511893E-3,9.437667E-1,-1.8614168E-1,1.0358405E0,2.6940435E-1,-1.964082E-1,3.215358E-1,-5.9798294E-1,-3.961661E-1,4.9380726E-1,-1.9871859E-1,-1.4909799E0,2.4714227E-1,5.54116E-1,1.22778684E-1,1.4709996E0,1.6384056E-1,-4.1485763E-1,4.7377282E-1,1.13457795E-2,-9.7391146E-1,-2.5955716E-1,-1.3529845E-1,1.095194E0,-2.8781635E-1,-1.1668127E0,2.5186697E-1,8.358452E-1,2.949844E-1,2.2757301E0,-8.5865E-1,-2.5144207E-1,-1.196656E0,5.138523E-1,2.0642835E-1,9.3089944E-1,8.9971244E-2,-2.2619802E-1,-2.0270756E-1,2.2883238E-1,6.7559826E-1,2.6089185E-1,7.078832E-2,-6.3476115E-1,9.461884E-1,2.0488556E-1,3.3508927E-1,-9.5968735E-1,8.422319E-1,2.0905088E-1,1.5548885E-1,-7.4154305E-1,-7.188235E-1,5.249869E-1,-8.0073494E-1,1.0143169E0,7.4989504E-1,2.7498126E-2,-2.8260097E-1,4.241477E-1,-1.1503134E0,-2.1964842E-1,1.3172466E0,-8.43792E-1,6.8452364E-1,-1.0438357E-1,-1.6142294E-1,-1.3310586E0,2.1365364E-1,9.9536556E-1,-1.5350113E0,6.261906E-1,-1.2146033E0,1.3046935E0,-6.5681875E-1,6.8059945E-1,1.626256E-1,1.2407103E0,-7.307484E-1,4.8530653E-1,-6.2714136E-1,-9.60248E-2,5.3640574E-1,-6.042048E-1,-9.203815E-1,-4.3669334E-1,-2.3936933E-2,-1.5499347E0,1.0969628E0,3.5657352E-1,-6.0914516E-1,3.779956E-1,2.9461572E-1,-3.4663698E-1,-5.15395E-1,7.1370184E-1,-1.1310195E0,2.559809E-1,-6.7666596E-1,2.3856583E-1,-2.887839E-1,5.6994045E-1,-4.5046148E-1,3.1641018E-1,8.123779E-2,-1.1698202E0,-4.48888E-1,1.2707857E0,1.3079841E0,1.937971E-1,2.6618212E-2,-4.507953E-1,3.131605E-1,-1.1603878E0,1.815087E-1,9.421655E-1,-9.7305244E-1,1.1104477E-1,3.2733414E-1,-7.5636786E-1,-1.2005764E0,-3.4124804E-1,1.164292E0,-4.8635396E-1,-4.8726983E-2,3.7105227E-1,1.1244678E0,-1.2074469E-1,-1.1106838E0,9.7588636E-2,-6.749801E-1,1.2548755E-1,-6.029385E-1,3.616462E-1,3.3471078E-1,2.1447966E-1,3.4228697E-1,1.291922E0,1.7644069E-1,9.0931505E-1,5.2919596E-2,9.426223E-1,-2.1347712E-1,-1.3559638E0,1.1143422E0,-9.7185487E-1,6.250136E-2,3.5131794E-1,5.882215E-1,-1.2709637E-1,1.2943342E-1,-1.5186529E0,-2.7587658E-1,1.0836163E0,2.6651925E-1,9.004264E-2,8.562625E-1,-8.0424774E-1,-3.6420736E-1,-1.2881594E0,5.6640625E-1,-1.4359432E0,6.5163314E-1,-4.784517E-1,9.4297606E-1,-1.4167397E0,1.0028517E0,2.9763585E-1,-1.5648301E0,5.6448287E-1,-4.9881008E-1,6.8789256E-1,1.2727214E0,5.645098E-2,-1.1668894E0,-2.1296416E-1,2.6490565E-2,-3.6582103E-1,-8.3424324E-1,2.131993E-1,6.415165E-1,-1.3058699E0,1.2391523E0,1.2653315E-1,-3.7298483E-1,-1.7466985E0,9.158701E-1,-3.4315675E-1,2.8554696E-1,1.536086E0,-9.758278E-1,-4.13456E-2,1.5954766E0,-1.2605551E0,2.5758505E-1,9.1909915E-1,-8.44776E-1,6.364819E-1,4.1306707E-1,-2.0969641E-1,-6.1646312E-2,1.1210351E0,-1.0711683E0,5.594456E-1,7.9025817E-1,-6.03477E-1,-3.0585086E-1,4.0522677E-1,5.303639E-1,1.330601E0,2.4921396E-1,1.032729E0,-9.537628E-1,8.895761E-2,2.0632285E-1,4.6139458E-1,-1.0146734E0,1.915191E-1,3.306808E-1,-1.4765925E0,9.501221E-1,2.692382E-1,5.474209E-1,-1.8863983E-1,-8.632935E-1,1.08118996E-1,8.107586E-1,-6.9379365E-1,-8.11041E-1,1.2956856E-1,3.576753E-2,7.301382E-1,-8.780571E-1,8.449035E-1,1.2392855E0,2.0469466E-1,4.3189624E-1,-2.4742873E-1,-1.2177411E0,-2.729241E-1,7.602113E-1,-5.3561836E-1,1.0907738E0,2.6788774E-1,8.534444E-1,-6.111526E-1,1.0145055E0,3.467012E-1,-1.210085E0,-8.2633257E-1,1.1115223E0,-8.0279803E-1,1.0787838E0,-2.020485E-1,-9.576727E-1,3.025628E-1,3.0606177E-1,-1.825965E-1,1.9339041E-1,7.7168036E-1,7.611779E-1,1.4354055E0,5.904983E-1,-3.2086125E-1,-1.4328797E0,-1.783873E-1,1.1761477E-1,-2.3292579E-1,-1.0832443E0,-2.0373778E-2,-1.7958485E0,2.576723E-1,1.2461864E0,-7.9052705E-1,1.0488907E0,-8.3433723E-1,6.1843354E-1,2.5676858E-1,2.3530982E-1,1.4382638E-1,4.718283E-1,-8.81482E-1,9.83799E-1,1.4406692E0,1.0779876E-1,1.168206E0,1.0230331E0,8.386026E-2,4.2007306E-1,1.4898336E-2,-2.3492065E-1,1.0812429E0,1.2330921E0,-3.1707537E-1,-1.4724214E-1,1.3916544E0,1.0303758E0,2.233515E-2,4.9439156E-1,1.3249126E-1,-4.3626872E-1,4.85415E-1,-6.03384E-1,2.3337204E-2,1.1817237E0,-2.1107589E-1,9.712315E-2,3.3252853E-1,7.9341704E-1,5.589845E-2,1.1285282E0,-1.9496493E-1,-1.2655971E0,-2.531272E-1,-8.0628896E-1,5.9020203E-2,-7.5732994E-1,-1.5053827E0,4.7008273E-1,1.176472E0,-3.1373275E-3,-8.435161E-1,6.1310285E-1,1.3544474E0,-1.2131985E0,5.465486E-1,1.0343524E0,-1.1024911E0,-1.7173958E-1,-1.0423748E0,-4.2089105E-1,1.2558357E0,1.6173037E0,-2.1152185E-1,-6.5554625E-1,4.0436542E-1,4.1998863E-2,-1.1030145E0,1.0843346E0,-2.3245871E-1,1.2183797E0,-8.8783604E-1,7.758759E-1,-5.6733006E-1,-2.936846E-4,1.4795587E0,-8.3337086E-1,3.5281453E-2],"categories":[],"categories_nodes":[],"categories_segments":[],"categories_sizes":[],"default_left":[true,true,true,true,true,true,true,true,true,true,true,true,true,true,false,true,true,true,true,true,true,true,true,true,false,true,true,false,true,true,true,true,true,true,true,true,true,true,true,true,true,true,true,true,true,true,true,true,true,true,true,true,false,true,true,true,true,true,true,true,true,true,true,true,true,true,true,false,true,true,true,true,true,true,true,true,true,true,true,true,true,false,true,true,true,false,false,true,false,true,true,false,true,true,false,false,false,true,true,true,true,true,true,true,true,true,false,true,true,false,false,true,true,true,true,true,true,false,true,true,false,true,true,false,false,true,true,true,true,true,true,true,true,true,true,true,true,true,true,true,true,true,true,true,true,true,true,true,true,true,false,true,true,true,true,true,true,false,false,false,false,true,false,true,true,true,true,false,true,true,false,false,false,true,true,true,true,true,false,true,true,true,false,true,true,true,false,true,true,true,true,false,true,true,true,true,true,true,true,true,true,true,false,false,false,false,false,true,false,true,true,true,true,true,true,false,false,false,false,true,true,true,true,true,true,true,true,true,true,true,true,true,true,true,true,true,true,true,false,true,false,true,true,false,false,true,false,true,true,true,true,true,true,true,true,false,false,true,true,false,false,true,true,false,true,true,true,true,true,false,false,false,false,true,true,true,false,false,true,false,false,true,true,false,false,false,false,false,false,false,false,false,false,false,false,false,false,false,false,false,false,false,false,false,false,false,false,false,false,false,false,false,false,false,false,false,false,false,false,false,false,false,false,false,false,false,false,false,false,false,false,false,false,false,false,false,false,false,false,false,false,false,false,false,false,false,false,false,false,false,false,false,false,false,false,false,false,false,false,false,false,false,false,false,false,false,false,false,false,false,false,false,false,false,false,false,false,false,false,false,false,false,false,false,false,false,false,false,false,false,false,false,false,false,false,false,false,false,false,false,false,false,false,false,false,false,false,false,false,false,false,false,false,false,false,false,false,false,false,false,false,false,false,false,false,false,false,false,false,false,false,false,false,false,false,false,false,false,false,false,false,false,false],"id":3,"left_children":[1,3,5,7,9,11,13,15,17,19,21,23,25,27,-1,29,31,33,35,37,39,41,43,45,-1,47,49,-1,51,53,55,57,59,61,63,65,67,69,71,73,75,77,79,81,83,85,87,89,91,93,95,97,-1,99,101,103,105,107,109,111,113,115,117,119,121,123,125,-1,127,129,131,133,135,137,139,141,143,145,147,149,151,-1,153,155,157,-1,-1,159,-1,161,163,-1,165,167,-1,-1,-1,169,171,173,175,177,179,181,183,185,-1,187,189,-1,-1,191,193,195,197,199,201,-1,203,205,-1,207,209,-1,-1,211,213,215,217,219,221,223,225,227,229,231,233,235,237,239,241,243,245,247,249,251,253,255,257,259,-1,261,263,265,267,269,271,-1,-1,-1,-1,273,-1,275,277,279,281,-1,283,285,-1,-1,-1,287,289,291,293,295,-1,297,299,301,-1,303,305,307,-1,309,311,313,315,-1,317,319,321,323,325,327,329,331,333,335,-1,-1,-1,-1,-1,337,-1,339,341,343,345,347,349,-1,-1,-1,-1,351,353,355,357,359,361,363,365,367,369,371,373,375,377,379,381,383,385,387,-1,389,-1,391,393,-1,-1,395,-1,397,399,401,403,405,407,409,411,-1,-1,413,415,-1,-1,417,419,-1,421,423,425,427,429,-1,-1,-1,-1,431,433,435,-1,-1,437,-1,-1,439,441,-1,-1,-1,-1,-1,-1,-1,-1,-1,-1,-1,-1,-1,-1,-1,-1,-1,-1,-1,-1,-1,-1,-1,-1,-1,-1,-1,-1,-1,-1,-1,-1,-1,-1,-1,-1,-1,-1,-1,-1,-1,-1,-1,-1,-1,-1,-1,-1,-1,-1,-1,-1,-1,-1,-1,-1,-1,-1,-1,-1,-1,-1,-1,-1,-1,-1,-1,-1,-1,-1,-1,-1,-1,-1,-1,-1,-1,-1,-1,-1,-1,-1,-1,-1,-1,-1,-1,-1,-1,-1,-1,-1,-1,-1,-1,-1,-1,-1,-1,-1,-1,-1,-1,-1,-1,-1,-1,-1,-1,-1,-1,-1,-1,-1,-1,-1,-1,-1,-1,-1,-1,-1,-1,-1,-1,-1,-1,-1,-1,-1,-1,-1,-1,-1,-1,-1,-1,-1,-1,-1,-1,-1,-1,-1,-1,-1,-1,-1,-1,-1,-1,-1,-1,-1,-1,-1,-1,-1,-1,-1],"loss_changes":[4.8371953E3,2.417551E2,4.4746094E1,1.7394604E2,4.5158447E1,5.5163605E1,4.9804688E-2,3.8969437E1,2.465946E2,1.6165588E1,5.8370777E1,4.1331665E1,6.316973E1,3.725708E0,0E0,2.1797567E1,1.2118944E1,3.143678E1,5.038803E1,1.5328033E1,1.3742191E1,1.4722902E1,2.8302551E1,4.5119858E-1,0E0,7.2791333E0,1.2638924E1,0E0,2.5904697E1,1.8690355E1,1.549521E1,9.775269E0,1.0074369E1,1.0071093E1,1.1458572E1,2.8702866E1,1.1096191E1,2.17765E1,1.1198975E1,2.5927795E1,8.933968E0,1.4326706E1,6.086836E0,1.0174688E1,8.291443E0,8.2003653E-1,6.831069E-1,1.5416043E1,8.21101E0,4.2610626E0,6.818476E-1,5.129294E0,0E0,1.1353874E1,7.9583435E0,7.5840836E0,4.1166945E0,3.9465065E0,1.6551704E0,1.0484517E1,5.840319E0,6.690195E0,1.8690405E0,6.800194E-1,1.563969E1,4.2821817E0,2.047335E1,0E0,1.0749023E1,2.6286987E1,1.480489E1,8.71756E0,1.0002045E1,6.3085773E1,1.4088451E1,5.031069E0,1.0688984E1,6.9931765E0,5.542533E0,6.4707575E0,6.612646E0,0E0,6.408948E0,1.5961838E0,8.0771055E0,0E0,0E0,6.598797E-1,0E0,9.124154E0,3.0351424E0,0E0,2.1676243E1,2.493354E1,0E0,0E0,0E0,3.7237291E0,9.209857E-1,1.4451593E1,1.1395018E1,2.4132228E0,6.6678467E0,4.708116E0,6.5949783E0,1.6850616E0,0E0,1.1054176E1,8.559912E0,0E0,0E0,6.8412375E0,1.2697962E1,4.2262983E0,7.888182E0,3.7416E0,1.7101654E1,0E0,8.109064E-1,1.7419901E-1,0E0,1.2633322E1,4.633854E0,0E0,0E0,1.5523743E1,2.8111359E1,7.081299E-1,3.2984447E0,2.2965733E1,1.1395233E1,7.4738235E0,2.872987E1,1.0942097E1,8.539185E0,2.1448318E1,7.1648693E0,2.0195942E1,4.2375214E1,9.690229E0,1.5016338E1,6.2205666E-1,6.325054E0,7.703932E0,7.70784E0,9.191523E0,5.9400806E0,4.674676E0,4.113207E0,8.764835E0,0E0,6.318142E0,1.5698275E1,6.467526E0,7.073731E0,9.450989E-1,1.3314933E-1,0E0,0E0,0E0,0E0,6.107742E0,0E0,9.083765E0,1.892724E0,7.8405666E-1,6.729809E0,0E0,7.965126E-1,1.081588E0,0E0,0E0,0E0,1.6787863E1,5.126586E0,1.4258526E1,1.2588655E1,3.2346928E0,0E0,1.05140915E1,1.9410763E1,1.2575449E0,0E0,1.3014774E0,4.8413563E0,1.0408356E0,0E0,5.210394E0,1.07001915E1,6.0286007E0,4.176937E0,0E0,6.851984E0,7.7943497E0,1.2140418E1,1.6053162E0,4.2115192E0,1.3084754E1,3.220389E0,5.3299963E-1,3.0990982E-1,5.8090725E0,0E0,0E0,0E0,0E0,0E0,4.518115E0,0E0,6.323E0,2.1972313E0,3.3263474E0,1.512017E1,1.8167744E1,1.1209005E1,0E0,0E0,0E0,0E0,1.0273565E1,2.3494255E1,4.1951065E0,1.5417868E0,1.2937217E0,5.3302956E0,2.1330318E1,2.6519585E1,1.075083E1,1.7581005E1,1.4760521E1,7.314148E0,1.1595281E1,2.8036118E-1,8.015829E0,1.338584E0,1.7786057E1,4.5048065E0,1.3853002E1,0E0,8.951851E0,0E0,1.4240838E1,1.1060387E1,0E0,0E0,1.0848991E0,0E0,5.695725E-1,3.1414108E0,8.486614E0,8.833334E0,2.4500422E0,1.167345E0,3.7480197E0,2.7778244E-1,0E0,0E0,2.018156E0,6.7910516E-1,0E0,0E0,4.194477E0,8.999592E0,0E0,1.186456E1,4.167694E0,4.1419973E0,3.859274E0,4.482222E0,0E0,0E0,0E0,0E0,2.0758958E0,6.428183E0,1.0404411E1,0E0,0E0,1.8972224E0,0E0,0E0,9.2254925E0,1.139565E0,0E0,0E0,0E0,0E0,0E0,0E0,0E0,0E0,0E0,0E0,0E0,0E0,0E0,0E0,0E0,0E0,0E0,0E0,0E0,0E0,0E0,0E0,0E0,0E0,0E0,0E0,0E0,0E0,0E0,0E0,0E0,0E0,0E0,0E0,0E0,0E0,0E0,0E0,0E0,0E0,0E0,0E0,0E0,0E0,0E0,0E0,0E0,0E0,0E0,0E0,0E0,0E0,0E0,0E0,0E0,0E0,0E0,0E0,0E0,0E0,0E0,0E0,0E0,0E0,0E0,0E0,0E0,0E0,0E0,0E0,0E0,0E0,0E0,0E0,0E0,0E0,0E0,0E0,0E0,0E0,0E0,0E0,0E0,0E0,0E0,0E0,0E0,0E0,0E0,0E0,0E0,0E0,0E0,0E0,0E0,0E0,0E0,0E0,0E0,0E0,0E0,0E0,0E0,0E0,0E0,0E0,0E0,0E0,0E0,0E0,0E0,0E0,0E0,0E0,0E0,0E0,0E0,0E0,0E0,0E0,0E0,0E0,0E0,0E0,0E0,0E0,0E0,0E0,0E0,0E0,0E0,0E0,0E0,0E0,0E0,0E0,0E0,0E0,0E0,0E0,0E0,0E0,0E0,0E0,0E0,0E0,0E0,0E0,0E0,0E0,0E0,0E0,0E0,0E0,0E0,0E0,0E0,0E0,0E0,0E0],"parents":[2147483647,0,0,1,1,2,2,3,3,4,4,5,5,6,6,7,7,8,8,9,9,10,10,11,11,12,12,13,13,15,15,16,16,17,17,18,18,19,19,20,20,21,21,22,22,23,23,25,25,26,26,28,28,29,29,30,30,31,31,32,32,33,33,34,34,35,35,36,36,37,37,38,38,39,39,40,40,41,41,42,42,43,43,44,44,45,45,46,46,47,47,48,48,49,49,50,50,51,51,53,53,54,54,55,55,56,56,57,57,58,58,59,59,60,60,61,61,62,62,63,63,64,64,65,65,66,66,68,68,69,69,70,70,71,71,72,72,73,73,74,74,75,75,76,76,77,77,78,78,79,79,80,80,82,82,83,83,84,84,87,87,89,89,90,90,92,92,93,93,97,97,98,98,99,99,100,100,101,101,102,102,103,103,104,104,105,105,107,107,108,108,111,111,112,112,113,113,114,114,115,115,116,116,118,118,119,119,121,121,122,122,125,125,126,126,127,127,128,128,129,129,130,130,131,131,132,132,133,133,134,134,135,135,136,136,137,137,138,138,139,139,140,140,141,141,142,142,143,143,144,144,145,145,146,146,147,147,148,148,149,149,151,151,152,152,153,153,154,154,155,155,156,156,161,161,163,163,164,164,165,165,166,166,168,168,169,169,173,173,174,174,175,175,176,176,177,177,179,179,180,180,181,181,183,183,184,184,185,185,187,187,188,188,189,189,190,190,192,192,193,193,194,194,195,195,196,196,197,197,198,198,199,199,200,200,201,201,207,207,209,209,210,210,211,211,212,212,213,213,214,214,219,219,220,220,221,221,222,222,223,223,224,224,225,225,226,226,227,227,228,228,229,229,230,230,231,231,232,232,233,233,234,234,235,235,236,236,237,237,239,239,241,241,242,242,245,245,247,247,248,248,249,249,250,250,251,251,252,252,253,253,254,254,257,257,258,258,261,261,262,262,264,264,265,265,266,266,267,267,268,268,273,273,274,274,275,275,278,278,281,281,282,282],"right_children":[2,4,6,8,10,12,14,16,18,20,22,24,26,28,-1,30,32,34,36,38,40,42,44,46,-1,48,50,-1,52,54,56,58,60,62,64,66,68,70,72,74,76,78,80,82,84,86,88,90,92,94,96,98,-1,100,102,104,106,108,110,112,114,116,118,120,122,124,126,-1,128,130,132,134,136,138,140,142,144,146,148,150,152,-1,154,156,158,-1,-1,160,-1,162,164,-1,166,168,-1,-1,-1,170,172,174,176,178,180,182,184,186,-1,188,190,-1,-1,192,194,196,198,200,202,-1,204,206,-1,208,210,-1,-1,212,214,216,218,220,222,224,226,228,230,232,234,236,238,240,242,244,246,248,250,252,254,256,258,260,-1,262,264,266,268,270,272,-1,-1,-1,-1,274,-1,276,278,280,282,-1,284,286,-1,-1,-1,288,290,292,294,296,-1,298,300,302,-1,304,306,308,-1,310,312,314,316,-1,318,320,322,324,326,328,330,332,334,336,-1,-1,-1,-1,-1,338,-1,340,342,344,346,348,350,-1,-1,-1,-1,352,354,356,358,360,362,364,366,368,370,372,374,376,378,380,382,384,386,388,-1,390,-1,392,394,-1,-1,396,-1,398,400,402,404,406,408,410,412,-1,-1,414,416,-1,-1,418,420,-1,422,424,426,428,430,-1,-1,-1,-1,432,434,436,-1,-1,438,-1,-1,440,442,-1,-1,-1,-1,-1,-1,-1,-1,-1,-1,-1,-1,-1,-1,-1,-1,-1,-1,-1,-1,-1,-1,-1,-1,-1,-1,-1,-1,-1,-1,-1,-1,-1,-1,-1,-1,-1,-1,-1,-1,-1,-1,-1,-1,-1,-1,-1,-1,-1,-1,-1,-1,-1,-1,-1,-1,-1,-1,-1,-1,-1,-1,-1,-1,-1,-1,-1,-1,-1,-1,-1,-1,-1,-1,-1,-1,-1,-1,-1,-1,-1,-1,-1,-1,-1,-1,-1,-1,-1,-1,-1,-1,-1,-1,-1,-1,-1,-1,-1,-1,-1,-1,-1,-1,-1,-1,-1,-1,-1,-1,-1,-1,-1,-1,-1,-1,-1,-1,-1,-1,-1,-1,-1,-1,-1,-1,-1,-1,-1,-1,-1,-1,-1,-1,-1,-1,-1,-1,-1,-1,-1,-1,-1,-1,-1,-1,-1,-1,-1,-1,-1,-1,-1,-1,-1,-1,-1,-1,-1,-1],"split_conditions":[2.45E1,1.1925E3,2.75E1,1.85E1,-3.8855E2,1.2425E3,2.95E1,-4.4045E2,9.25E-1,1.2615E3,1.4085E3,8.85E-1,1.2685E3,1.2425E3,-3.685482E-1,8.91E2,8.045E2,-4.2845E2,2.05E1,-4.6595E2,9.35E-1,1.2485E3,1.85E1,8.55E-1,-3.668414E-1,-4.4475E2,9.35E-1,-3.6778477E-1,1.2575E3,1.75E1,-4.4384998E2,7.74E2,-4.0815002E2,7.02E2,1.135E2,-5.038E2,-5.0484998E2,-4.8325E2,-4.0245E2,1.4365E3,-5.036E2,-3.8025E2,9.05E-1,-2.227E1,-3.7184998E2,-4.2375E2,-4.273E2,9.35E-1,-4.3965002E2,-4.2255E2,1.4455E3,-4.548E2,-3.584603E-1,-4.8884998E2,-5.04E2,-4.9345E2,1.1325E3,7.115E2,-4.327E2,-4.2445E2,-3.853E2,-1.735E1,-4.6284998E2,8.45E-1,-4.1665002E2,-5.1145E2,-4.4045E2,3.8143525E-1,-4.0665E2,1.2515E3,1.2475E3,-3.3175003E1,-3.9755E2,1.2795E3,-2.8685001E1,1.2655E3,-4.9505E2,-3.8635E2,-2.83E1,-3.6685E2,9.25E-1,-3.8837394E-1,-3.7784998E2,9.25E-1,-2.0259998E1,-5.9259232E-2,1.9163252E-1,-4.3459998E2,3.590841E-1,-4.552E2,-4.662E2,3.7364852E-1,-4.3455E2,1.4E3,-3.6835787E-1,1.1553569E-3,2.8313002E-1,9.35E-1,1.2445E3,1.045E2,-4.7645E2,9.35E-1,-4.74E2,-4.9725E2,9.665E2,-4.422E2,-4.47294E-1,6.625E2,9.15E-1,3.6833607E-2,4.412999E-1,-2.991E1,9.35E-1,-2.28E1,1.0605E3,2.67E2,9.15E-1,-4.0589534E-2,-1.62E1,-1.875E1,-3.500438E-1,8.535E2,8.55E-1,8.849532E-2,6.8271905E-1,8.75E2,8.685E2,1.1905E3,9.6E2,-4.9695E2,-1.855E1,-4.8315002E2,-4.7555E2,-4.437E2,-4.5784998E2,-2.655E1,-3.9005E2,-3.9384998E2,1.95E1,8.45E-1,-4.4034998E2,-5.057E2,-5.124E2,1.2655E3,-2.0935001E1,9.25E-1,1.2445E3,1.2435E3,9.25E-1,-3.8305E2,3.042951E-1,-3.7345E2,1.2565E3,9.25E-1,1.4815E3,1.6445E3,-1.9735E1,3.95174E-1,-2.5313762E-1,2.053571E-1,-3.1315073E-2,-4.752E2,-3.993176E-1,-4.6805E2,-4.511E2,-4.39E2,9.35E-1,-3.6438102E-1,-4.27E2,-4.5965002E2,2.0417984E-1,4.878768E-2,3.722131E-1,5E1,-4.979E2,9.45E-1,-4.6665002E2,-2.4060001E1,-1.8126144E-1,9.45E-1,-4.658E2,-5.062E2,-4.6498045E-1,9.35E-1,-4.487E2,-1.6099998E1,1.13398686E-1,4.665E2,6.91E2,7.355E2,-1.5485001E1,-3.3930585E-1,-1.585E1,1.1315E3,-1.505E1,-3.9865E2,8.905E2,-1.1450001E1,1.066E3,-4.752E2,-4.517E2,8.25E-1,3.8123572E-1,3.9239526E-1,5.813913E-2,7.985464E-3,-1.3523859E-1,-1.6599998E1,-3.4811634E-1,8.35E-1,