{"learner":{"attributes":{"scikit_learn":"{\"use_label_encoder\": true, \"n_estimators\": 100, \"objective\": \"binary:logistic\", \"max_depth\": 9, \"learning_rate\": null, \"verbosity\": null, \"booster\": null, \"tree_method\": null, \"gamma\": 0, \"min_child_weight\": 1, \"max_delta_step\": null, \"subsample\": 0.8, \"colsample_bytree\": 0.8, \"colsample_bylevel\": null, \"colsample_bynode\": null, \"reg_alpha\": null, \"reg_lambda\": null, \"scale_pos_weight\": null, \"base_score\": null, \"missing\": NaN, \"num_parallel_tree\": null, \"kwargs\": {}, \"random_state\": null, \"n_jobs\": null, \"monotone_constraints\": null, \"interaction_constraints\": null, \"importance_type\": \"gain\", \"gpu_id\": null, \"validate_parameters\": null, \"classes_\": [0, 1], \"n_classes_\": 2, \"_le\": {\"classes_\": [0, 1]}, \"_estimator_type\": \"classifier\"}"},"feature_names":[],"feature_types":[],"gradient_booster":{"model":{"gbtree_model_param":{"num_trees":"100","size_leaf_vector":"0"},"tree_info":[0,0,0,0,0,0,0,0,0,0,0,0,0,0,0,0,0,0,0,0,0,0,0,0,0,0,0,0,0,0,0,0,0,0,0,0,0,0,0,0,0,0,0,0,0,0,0,0,0,0,0,0,0,0,0,0,0,0,0,0,0,0,0,0,0,0,0,0,0,0,0,0,0,0,0,0,0,0,0,0,0,0,0,0,0,0,0,0,0,0,0,0,0,0,0,0,0,0,0,0],"trees":[{"base_weights":[-1.5771927E0,-1.8939244E0,-1.510159E0,-1.9409653E0,-1.8133687E0,-1.5634254E0,-1.3965857E0,-1.9481572E0,-1.4E0,-5.263158E-1,-1.8273093E0,-9.139073E-1,-1.574756E0,-1.7844458E0,-1.3360493E0,1.1764706E-1,-1.7014925E0,-1.6666666E0,1.1111112E0,-1.8323835E0,6.666667E-1,2.7027026E-1,-1.4692557E0,-1.6370032E0,-1.4470222E0,-1.8147005E0,1.3333334E0,-1.3466349E0,4.761905E-2,-1.2E0,1.2727273E0,-1.8688525E0,-0E0,-0E0,1.4285715E0,-1.4754099E0,1.4285715E0,-1.8787879E0,-1.2523365E0,-6.086956E-1,-1.6421921E0,-1.4804993E0,-1.0563798E0,-2.2222222E-1,-1.8280374E0,-8.659341E-1,-1.367917E0,1.0545454E0,-1.6363636E0,-1.826087E0,-3.1578946E-1,-1.4666667E0,1.9E0,-1.5E0,-3.2E-1,-9.8734176E-1,1.2941177E0,-1.799373E0,-1.6139232E0,-1.0729927E0,-1.5109122E0,-4.631579E-1,-1.2786885E0,1.2E0,-1.3333334E0,-1.917481E0,-1.6976744E0,1.6734694E0,-1.5457064E0,-1.792E0,-1.333046E0,-5.882353E-1,1.6190476E0,1.2E0,-1.3846154E0,1.1111112E0,-1.6073619E0,9.5652175E-1,-1.2258065E0,-1.4576272E0,3.3333334E-1,-1.8640351E0,-1.6284153E0,-1.6216933E0,-4.2424244E-1,1.5294118E0,-1.1476636E0,-1.4157939E0,-1.6021E0,-7.294118E-1,1.5E0,-1.3630574E0,8.5714287E-1,-1.762309E0,-1.2621359E0,-1.2E0,1.9130435E0,-8.75E-1,-1.6677741E0,-1.2440945E0,-1.8915471E0,-7.6679844E-1,-1.3650866E0,-1.0769231E0,5E-1,-0E0,1.7894737E0,-4E-1,-1.7278912E0,-1E0,1.5789474E0,4E-1,-1.68E0,1E0,-1.709091E0,1.4666667E0,-1.0769231E0,-1.8784468E0,-1.2156863E0,-6.434783E-1,-1.800322E0,-1.8121951E0,-1.5965645E0,1.7142857E0,-1.2E0,-1.266129E0,3.255814E-1,-1.4843247E0,5.16129E-1,-1.8175895E0,-1.5559987E0,-1.3061224E0,5.263158E-2,1.0526316E-1,-1.4122807E0,-1.8418604E0,-1.5092025E0,6.666667E-1,-1.3877552E0,1.5384616E-1,-1.4285715E0,-1.0625E0,-1.8008299E0,-1.6140351E0,1.5294118E0,-1E0,-1.9143327E0,-1.0325581E0,7E-1,-1.2277848E0,-1.4426934E0,9.0909094E-1,-1.3846154E0,-9.230769E-1,-1.84E0,-1.7647059E0,-5E-1,-1.3846154E0,-1.9005917E0,-9.52381E-2,-1.7647059E0,-1.2682927E0,8.108108E-1,-1.1304348E0,-1.8411053E0,-4.516129E-1,-1.83385E0,-1.1692308E0,-1.6095896E0,1.2941177E0,-1.8064516E0,-1.3100616E0,7.692308E-1,-1.3684211E0,1.4285715E0,-1.5437969E0,-1.2064517E0,1.884058E0,-1.1186441E0,-0E0,-1.8295082E0,-4.680851E-1,-1.5711396E0,-0E0,-1.6410257E0,6.666667E-1,-1.4782609E0,-1.2727273E0,1.3333334E0,-1.4247788E0,-0E0,-5.641026E-1,-1.75E0,2.2222222E-1,-1.483871E0,-1.1428572E0,1.25E0,2.2222222E-1,-1.6756756E0,-1.6923077E0,-5.714286E-1,-1.8608695E0,-4E-1,-1.9069767E0,-6.25E-1,-0E0,-1.3333334E0,1.5789474E0,-1.1421686E0,1.6190476E0,-2.857143E-1,-1.2888889E0,-6.625E-1,-1.0550458E0,-1.4743788E0],"categories":[],"categories_nodes":[],"categories_segments":[],"categories_sizes":[],"default_left":[true,true,true,true,true,true,true,false,true,true,true,true,true,true,true,true,true,false,true,false,false,true,true,true,true,true,false,true,true,false,false,false,false,false,false,true,true,false,true,true,true,true,true,true,true,true,true,true,false,false,true,false,false,true,true,true,false,true,true,true,true,true,true,false,false,false,true,true,true,true,true,true,true,false,false,false,true,true,true,true,true,true,true,true,true,false,true,true,true,true,false,true,false,true,true,false,false,true,true,true,true,true,true,false,false,false,false,true,true,false,false,false,false,false,true,false,false,true,true,true,true,true,true,false,true,true,true,true,true,true,true,true,true,true,true,false,true,false,true,true,true,true,true,true,false,true,false,true,true,true,true,false,false,false,false,false,false,false,false,false,false,false,false,false,false,false,false,false,false,false,false,false,false,false,false,false,false,false,false,false,false,false,false,false,false,false,false,false,false,false,false,false,false,false,false,false,false,false,false,false,false,false,false,false,false,false,false,false,false,false,false,false,false,false,false],"id":0,"left_children":[1,3,5,7,9,11,13,-1,15,17,19,21,23,25,27,29,31,-1,33,-1,-1,35,37,39,41,43,-1,45,47,-1,-1,-1,-1,-1,-1,49,51,-1,53,55,57,59,61,63,65,67,69,71,-1,-1,73,-1,-1,75,77,79,-1,81,83,85,87,89,91,-1,-1,-1,93,95,97,99,101,103,105,-1,-1,-1,107,109,111,113,115,117,119,121,123,-1,125,127,129,131,-1,133,-1,135,137,-1,-1,139,141,143,145,147,149,-1,-1,-1,-1,151,153,-1,-1,-1,-1,-1,155,-1,-1,157,159,161,163,165,167,-1,169,171,173,175,177,179,181,183,185,187,189,-1,191,-1,193,195,197,199,201,203,-1,205,-1,207,209,211,213,-1,-1,-1,-1,-1,-1,-1,-1,-1,-1,-1,-1,-1,-1,-1,-1,-1,-1,-1,-1,-1,-1,-1,-1,-1,-1,-1,-1,-1,-1,-1,-1,-1,-1,-1,-1,-1,-1,-1,-1,-1,-1,-1,-1,-1,-1,-1,-1,-1,-1,-1,-1,-1,-1,-1,-1,-1,-1,-1,-1,-1,-1,-1,-1],"loss_changes":[2.416914E2,4.0893555E0,5.535547E1,2.149414E0,1.259375E1,4.6148438E1,6.9134766E1,0E0,9.35136E0,1.9590643E1,1.0675049E1,7.487381E1,4.8152344E1,4.092871E1,3.8713867E1,7.995722E0,4.7697563E0,0E0,1.5873017E0,0E0,0E0,7.6922585E1,4.509659E0,2.1754883E1,2.5774902E1,8.190186E0,0E0,2.5605957E1,3.73342E1,0E0,0E0,0E0,0E0,0E0,0E0,5.62479E0,3.3838093E1,0E0,1.1873459E1,1.7849072E1,1.5947266E1,2.2211426E1,2.1629257E1,8.711111E0,1.4233398E0,1.9894379E2,3.467041E1,1.3703489E1,0E0,0E0,9.357084E0,0E0,0E0,1.355999E1,1.5626031E1,1.2752485E1,0E0,4.017334E0,3.2640625E1,2.837761E1,1.3231445E1,2.5922289E1,2.315245E1,0E0,0E0,0E0,2.6176758E0,1.9161667E1,5.929611E0,7.873413E0,4.1036133E1,2.7986426E0,2.8972435E0,0E0,0E0,0E0,5.238884E0,8.581236E0,6.3948374E0,1.0824652E1,1.116923E1,1.9771729E0,2.98266E1,1.425293E1,4.3116882E1,0E0,2.3755447E1,1.17704956E2,6.159912E0,1.9236784E1,0E0,8.659119E0,0E0,1.8515015E-1,7.164257E0,0E0,0E0,9.332418E0,4.1468964E0,3.504506E1,1.2699585E0,5.0034508E1,2.160669E1,0E0,0E0,0E0,0E0,7.703496E0,1.6173706E0,0E0,0E0,0E0,0E0,0E0,4.2247772E-2,0E0,0E0,2.2266846E0,7.67507E0,2.7152344E1,2.1602173E0,1.1251831E1,1.5777832E1,0E0,3.0698296E1,1.2095642E1,2.2040916E1,1.2238037E1,7.143145E1,3.3253174E0,1.165564E1,1.0716904E1,1.8845919E1,9.735248E0,2.0121765E0,0E0,8.286613E0,0E0,4.120987E0,1.06675825E1,4.655512E0,3.9814568E0,4.322998E0,7.0654297E0,0E0,2E0,0E0,3.2575134E1,1.8580952E1,2.6744629E1,1.5591309E1,0E0,0E0,0E0,0E0,0E0,0E0,0E0,0E0,0E0,0E0,0E0,0E0,0E0,0E0,0E0,0E0,0E0,0E0,0E0,0E0,0E0,0E0,0E0,0E0,0E0,0E0,0E0,0E0,0E0,0E0,0E0,0E0,0E0,0E0,0E0,0E0,0E0,0E0,0E0,0E0,0E0,0E0,0E0,0E0,0E0,0E0,0E0,0E0,0E0,0E0,0E0,0E0,0E0,0E0,0E0,0E0,0E0,0E0,0E0,0E0,0E0,0E0,0E0,0E0],"parents":[2147483647,0,0,1,1,2,2,3,3,4,4,5,5,6,6,8,8,9,9,10,10,11,11,12,12,13,13,14,14,15,15,16,16,18,18,21,21,22,22,23,23,24,24,25,25,27,27,28,28,35,35,36,36,38,38,39,39,40,40,41,41,42,42,43,43,44,44,45,45,46,46,47,47,50,50,53,53,54,54,55,55,57,57,58,58,59,59,60,60,61,61,62,62,66,66,67,67,68,68,69,69,70,70,71,71,72,72,76,76,77,77,78,78,79,79,80,80,81,81,82,82,83,83,84,84,86,86,87,87,88,88,89,89,91,91,93,93,94,94,97,97,98,98,99,99,100,100,101,101,102,102,107,107,108,108,114,114,117,117,118,118,119,119,120,120,121,121,122,122,124,124,125,125,126,126,127,127,128,128,129,129,130,130,131,131,132,132,133,133,134,134,136,136,138,138,139,139,140,140,141,141,142,142,143,143,145,145,147,147,148,148,149,149,150,150],"right_children":[2,4,6,8,10,12,14,-1,16,18,20,22,24,26,28,30,32,-1,34,-1,-1,36,38,40,42,44,-1,46,48,-1,-1,-1,-1,-1,-1,50,52,-1,54,56,58,60,62,64,66,68,70,72,-1,-1,74,-1,-1,76,78,80,-1,82,84,86,88,90,92,-1,-1,-1,94,96,98,100,102,104,106,-1,-1,-1,108,110,112,114,116,118,120,122,124,-1,126,128,130,132,-1,134,-1,136,138,-1,-1,140,142,144,146,148,150,-1,-1,-1,-1,152,154,-1,-1,-1,-1,-1,156,-1,-1,158,160,162,164,166,168,-1,170,172,174,176,178,180,182,184,186,188,190,-1,192,-1,194,196,198,200,202,204,-1,206,-1,208,210,212,214,-1,-1,-1,-1,-1,-1,-1,-1,-1,-1,-1,-1,-1,-1,-1,-1,-1,-1,-1,-1,-1,-1,-1,-1,-1,-1,-1,-1,-1,-1,-1,-1,-1,-1,-1,-1,-1,-1,-1,-1,-1,-1,-1,-1,-1,-1,-1,-1,-1,-1,-1,-1,-1,-1,-1,-1,-1,-1,-1,-1,-1,-1,-1,-1],"split_conditions":[4.566E1,4.0895E1,4.8565002E1,4.5059998E1,3.388E1,4.6059998E1,5.225E1,-5.844472E-1,4.516E1,3.343E1,9.9547094E-1,9.05E-1,6.033E1,9.9322504E-1,7.65E1,9.55E-1,7.4210143E-1,-5E-1,9.25E-1,-5.497151E-1,2.0000002E-1,8.95E-1,3.0138585E-1,9.865E2,9.45E-1,2.5179362E-2,4.0000004E-1,5.304E1,7.73E1,-3.6E-1,3.818182E-1,-5.606558E-1,-0E0,-0E0,4.2857146E-1,8.3753085E-1,4.596E1,-5.6363636E-1,4.596E1,9.455E2,9.05E-1,6.093E1,4.0226647E-1,4.4568E4,9.35E-1,8.886366E-2,9.371376E-2,9.55E-1,-4.909091E-1,-5.478261E-1,4.053E1,-4.4000003E-1,5.7E-1,3.1088173E-1,9.75E-1,5.6739998E1,3.8823533E-1,6.7635345E-1,9.9165726E-1,8.45E-1,6.043258E-1,3.8559982E-1,4.8445E1,3.6E-1,-4.0000004E-1,-5.752443E-1,8.563874E-1,5.279E1,4.917E1,5.5239998E1,1.6336489E-1,1.28255E4,9.35E-1,3.6E-1,-4.1538465E-1,3.3333337E-1,9.15E-1,9.25E-1,4.5624274E-1,8.95E-1,5.6940002E1,6.003E1,7.2714424E-1,4.795E1,9.9169195E-1,4.5882356E-1,9.111551E-1,5.958477E-1,4.2114998E1,4.618E1,4.5000002E-1,9.35E-1,2.5714287E-1,5.125E1,8.6232084E-1,-3.6E-1,5.739131E-1,2.9241E4,5.2545E1,5.504E1,9.6500003E-1,1.5638894E-1,9.25E-1,-3.2307696E-1,1.5E-1,-0E0,5.368421E-1,9.75E-1,3.9261293E-1,-3E-1,4.7368425E-1,1.20000005E-1,-5.04E-1,3E-1,4.8370003E1,4.4000003E-1,-3.2307696E-1,4.6559998E1,8.95E-1,7.2266114E-1,3.9519997E1,6.8913944E-2,4.865E1,5.1428574E-1,4.975E1,9.85825E4,4.7425E1,6.9509995E1,5.978473E-1,5.2395E3,4.2275E1,1.5685788E-1,3.9624E4,4.1235E1,9.85E-1,-5.525581E-1,5.155E1,2.0000002E-1,2.3615E3,1.9107E4,5.264E1,4.982E1,9.6706754E-1,5.078E1,4.5882356E-1,9.25E-1,-5.742999E-1,9.390686E-2,5.7239998E1,9.691283E-1,4.8855E1,2.7272728E-1,-4.1538465E-1,-2.769231E-1,-5.5200005E-1,-5.294118E-1,-1.5E-1,-4.1538465E-1,-5.7017756E-1,-2.857143E-2,-5.294118E-1,-3.8048783E-1,2.4324325E-1,-3.3913043E-1,-5.523316E-1,-1.3548388E-1,-5.5015504E-1,-3.5076925E-1,-4.828769E-1,3.8823533E-1,-5.419355E-1,-3.9301848E-1,2.3076925E-1,-4.1052634E-1,4.2857146E-1,-4.631391E-1,-3.619355E-1,5.6521744E-1,-3.3559325E-1,-0E0,-5.488525E-1,-1.4042553E-1,-4.7134188E-1,-0E0,-4.9230772E-1,2.0000002E-1,-4.434783E-1,-3.818182E-1,4.0000004E-1,-4.2743367E-1,-0E0,-1.6923079E-1,-5.2500004E-1,6.666667E-2,-4.451613E-1,-3.4285718E-1,3.75E-1,6.666667E-2,-5.027027E-1,-5.0769234E-1,-1.7142859E-1,-5.5826086E-1,-1.20000005E-1,-5.72093E-1,-1.875E-1,-0E0,-4.0000004E-1,4.7368425E-1,-3.426506E-1,4.8571432E-1,-8.5714296E-2,-3.866667E-1,-1.9875002E-1,-3.1651378E-1,-4.4231367E-1],"split_indices":[5,3,3,5,5,5,5,0,5,5,10,0,5,8,5,4,8,0,0,0,0,0,8,2,0,10,0,5,5,0,0,0,0,0,0,8,5,0,5,2,0,5,8,2,0,8,10,4,0,0,3,0,0,8,6,5,0,8,11,0,11,8,3,0,0,0,8,5,3,5,10,2,0,0,0,0,0,0,8,4,5,5,8,5,8,0,10,10,3,3,0,4,0,5,8,0,0,2,5,5,6,10,0,0,0,0,0,6,8,0,0,0,0,0,3,0,0,5,0,8,3,8,5,0,5,2,3,5,8,2,3,8,2,3,4,0,5,0,2,2,5,3,8,3,0,0,0,10,5,8,3,0,0,0,0,0,0,0,0,0,0,0,0,0,0,0,0,0,0,0,0,0,0,0,0,0,0,0,0,0,0,0,0,0,0,0,0,0,0,0,0,0,0,0,0,0,0,0,0,0,0,0,0,0,0,0,0,0,0,0,0,0,0,0,0],"split_type":[0,0,0,0,0,0,0,0,0,0,0,0,0,0,0,0,0,0,0,0,0,0,0,0,0,0,0,0,0,0,0,0,0,0,0,0,0,0,0,0,0,0,0,0,0,0,0,0,0,0,0,0,0,0,0,0,0,0,0,0,0,0,0,0,0,0,0,0,0,0,0,0,0,0,0,0,0,0,0,0,0,0,0,0,0,0,0,0,0,0,0,0,0,0,0,0,0,0,0,0,0,0,0,0,0,0,0,0,0,0,0,0,0,0,0,0,0,0,0,0,0,0,0,0,0,0,0,0,0,0,0,0,0,0,0,0,0,0,0,0,0,0,0,0,0,0,0,0,0,0,0,0,0,0,0,0,0,0,0,0,0,0,0,0,0,0,0,0,0,0,0,0,0,0,0,0,0,0,0,0,0,0,0,0,0,0,0,0,0,0,0,0,0,0,0,0,0,0,0,0,0,0,0,0,0,0,0,0,0,0,0,0,0,0,0],"sum_hessian":[1.151725E4,2.007E3,9.51025E3,1.2525E3,7.545E2,6.46525E3,3.045E3,1.2335E3,1.9E1,8.5E0,7.46E2,1.1225E2,6.353E3,4.0725E2,2.63775E3,3.25E0,1.575E1,5E0,3.5E0,7.4475E2,1.25E0,3.6E1,7.625E1,4.2635E3,2.0895E3,4.0375E2,3.5E0,2.61775E3,2E1,1.5E0,1.75E0,1.425E1,1.5E0,1E0,2.5E0,1.425E1,2.175E1,2.375E1,5.25E1,2.2E1,4.2415E3,1.922E3,1.675E2,3.5E0,4.0025E2,1.1275E2,2.505E3,1.275E1,7.25E0,1.05E1,3.75E0,2.75E0,1.9E1,4.1E1,1.15E1,1.875E1,3.25E0,6.37E2,3.6045E3,1.36E2,1.786E3,4.65E1,1.21E2,1.5E0,2E0,2.2925E2,1.71E2,2.35E1,8.925E1,1.865E2,2.3185E3,3.25E0,9.5E0,1.5E0,2.25E0,1.25E0,3.975E1,4.75E0,6.75E0,1.375E1,5E0,4.55E2,1.82E2,3.58075E3,2.375E1,3.25E0,1.3275E2,8.8225E2,9.0375E2,4.15E1,5E0,1.1675E2,4.25E0,1.4625E2,2.475E1,1.5E0,2.2E1,1.5E1,7.425E1,3.075E1,1.5575E2,1.255E2,2.193E3,2.25E0,1E0,1E0,8.5E0,4E0,3.575E1,1E0,3.75E0,1.5E0,5.25E0,1E0,1.275E1,2.75E0,2.25E0,4.4325E2,1.175E1,2.775E1,1.5425E2,4.09E2,3.17175E3,6E0,1.775E1,1.23E2,9.75E0,8.5225E2,3E1,1.525E2,7.5125E2,2.35E1,1.8E1,3.75E0,1.13E2,1.065E2,3.975E1,1.25E0,2.35E1,5.5E0,9.5E0,1.5E1,5.925E1,2.75E1,3.25E0,5E0,1.5075E2,1.065E2,1.9E1,7.98E2,1.395E3,1.75E0,2.25E0,5.5E0,3.025E1,1.175E1,1E0,2.175E1,4.215E2,4.25E0,7.5E0,1.95E1,8.25E0,1.05E1,1.4375E2,6.75E0,4.0225E2,9.65E1,3.07525E3,3.25E0,1.45E1,1.2075E2,2.25E0,3.75E0,6E0,6.9825E2,1.54E2,1.625E1,1.375E1,1E0,1.515E2,1.075E1,7.405E2,5E0,1.85E1,1.325E1,4.75E0,1.75E0,2E0,1.12E2,1E0,8.75E0,3.1E1,1.25E0,2.225E1,2.5E0,3E0,1.25E0,8.25E0,5.5E0,9.5E0,5.65E1,2.75E0,2.05E1,7E0,1.5E0,3.5E0,3.75E0,1.0275E2,9.5E0,9.5E0,7.19E2,7.9E1,1.08E2,1.287E3],"tree_param":{"num_deleted":"0","num_feature":"12","num_nodes":"215","size_leaf_vector":"0"}},{"base_weights":[-1.1835635E0,-1.3385433E0,-1.0870762E0,-1.4500384E0,-1.2477937E0,-1.1425087E0,-9.857815E-1,-1.2501717E0,-1.46539E0,-9.127008E-1,-1.3039032E0,-1.1992837E0,-1.0764121E0,-1.961119E-1,-1.0031308E0,-1.2903472E0,1.590374E0,-1.50145E0,-1.4082153E0,6.207719E-1,-1.1047555E0,-1.2295467E0,-1.4184632E0,2.5531074E-1,-1.2042141E0,-5.302248E-1,-1.0973163E0,1.4914217E0,-1.3542907E0,-1.3615224E0,-9.7507745E-1,-1.3611932E0,-8.4419596E-1,-1.5061055E0,-1.1248065E0,-4.2527166E-1,-1.4186436E0,-8.7494457E-1,1.559281E0,-8.0011797E-1,-1.3241277E0,-1.427988E0,-1.1552649E0,-1.1854914E0,-1.5019083E0,-7.6814866E-1,8.8805205E-1,-8.3951265E-1,-1.2255018E0,-1.1031551E0,1.0596932E-1,-1.1236547E0,-7.873471E-1,-1.5204929E0,-1.22410424E-1,-1.0365963E0,-1.4911487E0,1.2834926E0,-9.79643E-1,-1.5381489E0,-1.142289E0,1.8833954E0,-1.2305351E0,-1.3439579E0,-6.495869E-2,-1.3617673E0,1.2215246E0,-1.421874E0,1.994498E-1,-1.2312195E0,2.920331E-1,-1.0286368E0,-2.1075052E-1,-1.4971985E0,-1.1501396E0,-1.4473954E0,6.6684055E-1,-1.3145825E0,-1.0484653E0,-6.3865834E-1,-1.2759659E0,-1.5084546E0,-1.5722632E-1,-1.1917772E-1,-1.0144542E0,1.3067056E0,-2.110706E-1,9.990995E-1,-9.871485E-1,-1.2298595E0,1.813967E-1,-3.5842046E-1,-1.5797567E0,-4.5035037E-1,1.6690351E0,-9.060091E-1,-1.1878333E0,-2.9306066E-1,-9.715424E-1,6.8218416E-1,-1.039224E0,1.2443225E0,-1.131101E0,-1.5030025E0,-3.0983976E-1,-4.254314E-1,-9.9877846E-1,9.812839E-1,-1.372351E0,-1.4790679E0,9.2923826E-1,-1.4428372E0,-3.8106754E-1,9.2867166E-1,-1.0384548E0,-1.3781774E0,-1.5027965E0,-2.051833E-1,-1.460929E0,9.921645E-1,-8.675495E-1,2.5150272E-1,-1.1249356E0,-7.6440096E-1,9.407478E-1,-4.2028004E-1,-1.5075923E0,-5.439529E-1,-1.3192325E0,-9.969289E-1,-1.4875834E0,9.899446E-1,5.549141E-3,-1.4548644E0,-9.7644484E-1,-1.1559706E0,-6.348918E-1,-1.2907742E0,1.1876763E0,1.1892877E0,-1.3002198E0,-5.999603E-1,-1.5131675E0,-9.581895E-1,7.1172136E-1,1.78039E0,-1.1291941E0,1.0137845E-1,-1.2005595E0,-1.3464551E0,-1.1873417E0,1.9367702E0,-1.2697887E0,-6.728392E-1,1.5569559E0,-1.1427959E0,1.6766389E-1,1.8339525E0,2.599244E-1,-6.262892E-1,-1.0588764E0,-1.5080591E0,-1.1530064E0,-1.1663243E0,1.0465545E-1,-1.0600953E0,7.385038E-1,-1.1832418E0,5.566892E-1,4.8413172E-2,-1.3228439E0,-1.0046511E0,6.946956E-1,1.5826461E0,-8.470117E-1,-7.7597845E-1,-1.4894403E0,-1.4228568E0,-1.1891584E0,-8.5332966E-1,5.387055E-1,-4.1639793E-1,1.5136659E0,-1.324644E-1,-1.1907337E0,1.4757385E0,-1.1741452E0,2.1951647E0,-4.6452323E-1,-1.4088624E0,7.640096E-3,-1.3431913E0,3.6402717E-2,6.529043E-1,-1.2379254E0,-1.5392988E0,-1.261306E0,-1.4647633E0,-5.6270665E-1,1.2552187E0,-1.2220823E0,-7.0205027E-1,-1.2162827E0,1.1110423E0,-7.9346585E-1,-1.4385655E0,2.6170298E-1,1.6335658E0,-8.9954025E-1,-1.3358498E0,3.4098703E-1,5.01008E-1,-1.1357183E0,-4.264346E-1,-1.5147212E0,3.0321762E-1,2.0574052E0,-1.2959173E0,5.358282E-1,-1.2447778E0,1.3550243E0,-1.2514875E0,-1.5646651E0,1.7794143E0,-1.1946017E0,-8.257424E-1,4.5441642E-1,-7.677828E-2,-1.2945285E0,8.840287E-1,-1.3834399E0,1.9917417E0,7.344747E-1,4.0981236E-1,-7.4434644E-1,-1.3197929E0,-7.34043E-1,-1.5591432E0,-1.0650831E0,2.0861106E0,-1.1692692E0,-2.8441682E-1,-1.3849767E0,1.3173145E0,-2.6900035E-1,-1.5625886E0,-9.447697E-1,-6.597619E-1,1.414434E0,-1.4425102E0,-6.40087E-1,-2.3750581E-1,1.5971122E0,-1.09178476E-1,-1.4183838E0,-1.0135812E0,1.0031869E-1,-6.650555E-1,1.9066825E0,8.265766E-2,2.0205355E0,-1.3390608E0,2.6734582E-1,-1.5114019E0,-4.9400303E-1,-1.334078E0,-1.5093144E0,-1.4590836E0,-7.3938245E-1,9.1447514E-1,-1.2180406E0,-5.729865E-1,5.991527E-1,-9.97596E-1,-1.4709576E0,1.7343609E0,4.3776765E-1,-2.192864E-1,-1.5108122E0,-1.1876116E0,3.7948832E-1,1.789289E0,-4.6293998E-1,-1.3915122E0,-3.004881E-1,9.704303E-1,2.2176893E-1,-1.3026304E0,7.3474675E-2,-1.5477399E0,7.9101264E-2,-6.504215E-1,-1.4977262E0,-1.124585E0,5.01008E-1,-1.1734865E0,2.154844E0,-6.7498314E-1,-1.4142126E0,-8.7378085E-2,-1.2218803E0,-4.7074035E-2,-1.2407609E0,-3.1371093E-1,2.1625206E0,-8.848271E-1,7.741959E-1,-1.3910841E0,-6.196456E-1,1.4364976E0,-9.906317E-1,1.6847136E0,-4.973538E-1,-3.2788786E-1,-1.3210098E0,-1.3161333E0,1.2536284E0,-1.3534459E0,-1.1526045E0,-4.621656E-1,-1.1320723E0,-1.2440964E0,1.7609808E0,-1.2828403E0,9.366325E-1,-1.3273351E0,-4.4985545E-1,-1.3524178E0,-2.9412E-1,-9.9595594E-1,3.2575378E-1,-1.5668525E0,-5.5607945E-1,2.1074554E-1,-1.3720082E0,-1.0303535E0,-1.2789528E0,8.728931E-1,-1.3275139E0,1.5130787E0,3.056311E-1,-6.879044E-1,1.1798732E0,-5.6566936E-1,-1.1881787E0,2.8896862E-1,-1.3122756E0,8.792135E-1,-7.287423E-1,2.0260754E0,3.7189472E-2,-1.1320979E-1,-1.5306147E0,-9.595758E-1,-1.1816959E0,8.658751E-1,-1.3608522E0,-1.4428014E-1,-1.0202755E0],"categories":[],"categories_nodes":[],"categories_segments":[],"categories_sizes":[],"default_left":[true,true,true,true,true,true,true,true,true,true,true,true,true,true,true,true,false,true,true,true,true,true,true,true,true,true,true,false,true,true,true,true,true,false,true,true,true,true,false,true,true,true,true,true,true,true,true,true,true,true,true,true,true,false,true,true,true,false,true,false,true,false,true,true,true,false,false,true,false,true,true,true,true,true,true,true,true,true,true,true,true,true,true,false,false,false,false,true,true,true,true,true,false,true,true,true,true,true,true,false,false,false,true,false,false,true,true,true,true,false,false,false,false,false,false,true,false,true,false,false,false,true,true,true,true,false,false,true,true,true,true,false,false,true,true,true,true,true,true,false,true,true,true,false,false,true,false,true,true,true,true,false,false,true,false,true,true,true,false,true,true,true,true,true,true,true,true,true,false,true,true,true,true,true,false,true,true,true,true,false,false,true,false,true,true,true,true,false,true,false,true,true,false,true,true,true,true,false,true,true,true,true,true,true,true,false,false,false,false,true,true,false,false,false,false,false,false,false,true,true,false,true,false,false,true,true,false,false,false,true,false,false,false,true,true,true,true,true,true,false,true,true,false,true,true,false,true,false,false,false,true,true,true,false,true,true,true,true,false,false,false,false,false,false,false,false,false,false,false,false,false,false,false,false,false,false,false,false,false,false,false,false,false,false,false,false,false,false,false,false,false,false,false,false,false,false,false,false,false,false,false,false,false,false,false,false,false,false,false,false,false,false,false,false,false,false,false,false,false,false,false,false,false,false,false,false,false,false,false,false,false,false,false,false,false,false,false,false,false,false,false,false,false,false,false,false,false,false,false,false,false,false,false,false,false,false,false,false,false],"id":1,"left_children":[1,3,5,7,9,11,13,15,17,19,21,23,25,27,29,31,-1,33,35,37,39,41,43,45,47,49,51,-1,53,55,57,59,61,-1,63,65,67,69,-1,71,73,75,77,79,81,83,85,87,89,91,93,95,97,-1,99,101,103,-1,105,-1,107,-1,109,111,113,-1,-1,115,-1,117,119,121,123,125,127,129,131,133,135,137,139,141,143,-1,-1,-1,-1,145,147,149,151,153,-1,155,157,159,161,163,165,-1,-1,-1,167,-1,-1,169,171,173,175,-1,-1,-1,-1,-1,-1,177,-1,179,-1,-1,-1,181,183,185,187,-1,-1,189,191,193,195,-1,-1,197,199,201,203,205,207,-1,209,211,213,-1,-1,215,-1,217,219,221,223,-1,-1,225,-1,227,229,231,-1,233,235,237,239,241,243,245,247,249,-1,251,253,255,257,259,-1,261,263,265,267,-1,-1,269,-1,271,273,275,277,-1,279,-1,281,283,-1,285,287,289,291,-1,293,295,297,299,301,303,305,-1,-1,-1,-1,307,309,-1,-1,-1,-1,-1,-1,-1,311,313,-1,315,-1,-1,317,319,-1,-1,-1,321,-1,-1,-1,323,325,327,329,331,333,-1,335,337,-1,339,341,-1,343,-1,-1,-1,345,347,349,-1,351,353,355,357,-1,-1,-1,-1,-1,-1,-1,-1,-1,-1,-1,-1,-1,-1,-1,-1,-1,-1,-1,-1,-1,-1,-1,-1,-1,-1,-1,-1,-1,-1,-1,-1,-1,-1,-1,-1,-1,-1,-1,-1,-1,-1,-1,-1,-1,-1,-1,-1,-1,-1,-1,-1,-1,-1,-1,-1,-1,-1,-1,-1,-1,-1,-1,-1,-1,-1,-1,-1,-1,-1,-1,-1,-1,-1,-1,-1,-1,-1,-1,-1,-1,-1,-1,-1,-1,-1,-1,-1,-1,-1,-1,-1,-1,-1,-1,-1,-1,-1,-1,-1,-1],"loss_changes":[1.6070605E2,4.024756E1,3.6431152E1,3.871582E0,4.2029297E1,1.4907715E1,3.2313965E1,1.7961395E1,1.4328613E0,9.876596E1,1.5008545E1,1.6898193E1,2.2303223E1,1.0415622E2,2.2015625E1,3.213272E0,0E0,1.2963867E-1,6.3828125E0,5.429509E1,1.8743347E1,1.6040405E1,1.3140991E1,6.277096E0,1.6871826E1,2.7752954E1,1.4868408E1,0E0,6.265991E0,5.4468994E0,2.3496826E1,2.7933502E0,2.5021832E1,0E0,3.7795181E0,1.4900172E1,3.8065186E0,6.670185E0,0E0,1.6831078E1,3.419403E0,1.4081848E1,1.3568726E1,9.434448E0,4.704468E0,4.9241638E-1,2.9459543E0,3.6365524E1,1.3565674E1,1.3624798E1,3.2785442E1,2.3732666E1,1.3777863E1,0E0,4.27469E0,1.232011E1,1.1641846E0,0E0,2.2407227E1,0E0,2.8899384E1,0E0,1.1829342E1,7.588215E-1,4.7401094E0,0E0,0E0,3.0786133E-1,0E0,2.4860973E0,4.3991327E0,1.1495483E1,2.4067966E1,2.8741455E-1,8.452118E0,4.3098145E0,7.735691E-1,1.51154175E1,2.2868408E1,3.8944027E1,1.2114685E1,1.4837646E0,3.3518713E0,0E0,0E0,0E0,0E0,1.8945839E1,2.8265732E1,9.157715E0,2.1797861E1,1.1222461E1,0E0,1.2155357E1,1.8198452E0,1.681189E1,1.3522339E1,1.5182924E1,1.7757057E1,0E0,0E0,0E0,4.9827003E0,0E0,0E0,3.1359869E1,2.1387207E1,8.042545E0,2.4264984E0,0E0,0E0,0E0,0E0,0E0,0E0,2.0991821E0,0E0,2.0631218E0,0E0,0E0,0E0,6.6836157E0,5.37825E0,2.4940693E1,2.27724E1,0E0,0E0,1.0131096E1,2.297966E0,1.2434557E1,1.4724731E0,0E0,0E0,1.3337402E0,5.9235123E1,1.0647461E1,3.1817814E1,5.797325E0,9.646048E0,0E0,1.0718567E1,3.246714E0,2.911377E-1,0E0,0E0,2.583475E0,0E0,1.3309654E1,1.3141983E1,9.902344E0,3.655371E1,0E0,0E0,2.9970503E0,0E0,2.0538616E0,1.8606209E1,4.3287277E-2,0E0,1.826957E1,2.1305634E1,1.3033142E0,6.7676636E1,2.2386017E0,1.427062E1,4.7235107E0,6.706255E0,5.833702E0,0E0,2.2134075E1,2.79813E0,2.0562744E1,1.4090307E1,3.0748138E0,0E0,6.5305085E0,1.6703796E-1,7.34375E-1,1.0080078E1,0E0,0E0,6.9604697E0,0E0,2.4047008E0,2.8286743E0,4.0920734E-1,6.719002E0,0E0,4.5063E0,0E0,1.2521832E1,3.0115204E0,0E0,3.846172E-1,2.2899857E0,3.3045654E0,7.6641083E0,0E0,3.136557E0,2.641065E1,9.065887E0,1.6392948E1,1.051593E1,1.5240436E1,1.5439827E1,0E0,0E0,0E0,0E0,5.9414673E0,8.025435E0,0E0,0E0,0E0,0E0,0E0,0E0,0E0,2.0494457E1,6.568207E0,0E0,6.7039856E1,0E0,0E0,9.081055E0,1.0081196E0,0E0,0E0,0E0,2.330176E1,0E0,0E0,0E0,1.5172739E1,2.2099335E1,4.437271E0,3.344461E1,2.017212E-2,6.828045E0,0E0,1.746753E1,5.95216E0,0E0,1.0038977E0,1.5565385E1,0E0,7.590645E0,0E0,0E0,0E0,1.1183789E1,2.3869259E1,5.1347523E0,0E0,3.272705E0,1.7542236E1,2.0791767E1,6.6825235E-1,0E0,0E0,0E0,0E0,0E0,0E0,0E0,0E0,0E0,0E0,0E0,0E0,0E0,0E0,0E0,0E0,0E0,0E0,0E0,0E0,0E0,0E0,0E0,0E0,0E0,0E0,0E0,0E0,0E0,0E0,0E0,0E0,0E0,0E0,0E0,0E0,0E0,0E0,0E0,0E0,0E0,0E0,0E0,0E0,0E0,0E0,0E0,0E0,0E0,0E0,0E0,0E0,0E0,0E0,0E0,0E0,0E0,0E0,0E0,0E0,0E0,0E0,0E0,0E0,0E0,0E0,0E0,0E0,0E0,0E0,0E0,0E0,0E0,0E0,0E0,0E0,0E0,0E0,0E0,0E0,0E0,0E0,0E0,0E0,0E0,0E0,0E0,0E0,0E0,0E0,0E0,0E0,0E0,0E0,0E0,0E0,0E0,0E0,0E0,0E0,0E0],"parents":[2147483647,0,0,1,1,2,2,3,3,4,4,5,5,6,6,7,7,8,8,9,9,10,10,11,11,12,12,13,13,14,14,15,15,17,17,18,18,19,19,20,20,21,21,22,22,23,23,24,24,25,25,26,26,28,28,29,29,30,30,31,31,32,32,34,34,35,35,36,36,37,37,39,39,40,40,41,41,42,42,43,43,44,44,45,45,46,46,47,47,48,48,49,49,50,50,51,51,52,52,54,54,55,55,56,56,58,58,60,60,62,62,63,63,64,64,67,67,69,69,70,70,71,71,72,72,73,73,74,74,75,75,76,76,77,77,78,78,79,79,80,80,81,81,82,82,87,87,88,88,89,89,90,90,91,91,93,93,94,94,95,95,96,96,97,97,98,98,102,102,105,105,106,106,107,107,108,108,115,115,117,117,121,121,122,122,123,123,124,124,127,127,128,128,129,129,130,130,133,133,134,134,135,135,136,136,137,137,138,138,140,140,141,141,142,142,145,145,147,147,148,148,149,149,150,150,153,153,155,155,156,156,157,157,159,159,160,160,161,161,162,162,163,163,164,164,165,165,166,166,167,167,169,169,170,170,171,171,172,172,173,173,175,175,176,176,177,177,178,178,181,181,183,183,184,184,185,185,186,186,188,188,190,190,191,191,193,193,194,194,195,195,196,196,198,198,199,199,200,200,201,201,202,202,203,203,204,204,209,209,210,210,218,218,219,219,221,221,224,224,225,225,229,229,233,233,234,234,235,235,236,236,237,237,238,238,240,240,241,241,243,243,244,244,246,246,250,250,251,251,252,252,254,254,255,255,256,256,257,257],"right_children":[2,4,6,8,10,12,14,16,18,20,22,24,26,28,30,32,-1,34,36,38,40,42,44,46,48,50,52,-1,54,56,58,60,62,-1,64,66,68,70,-1,72,74,76,78,80,82,84,86,88,90,92,94,96,98,-1,100,102,104,-1,106,-1,108,-1,110,112,114,-1,-1,116,-1,118,120,122,124,126,128,130,132,134,136,138,140,142,144,-1,-1,-1,-1,146,148,150,152,154,-1,156,158,160,162,164,166,-1,-1,-1,168,-1,-1,170,172,174,176,-1,-1,-1,-1,-1,-1,178,-1,180,-1,-1,-1,182,184,186,188,-1,-1,190,192,194,196,-1,-1,198,200,202,204,206,208,-1,210,212,214,-1,-1,216,-1,218,220,222,224,-1,-1,226,-1,228,230,232,-1,234,236,238,240,242,244,246,248,250,-1,252,254,256,258,260,-1,262,264,266,268,-1,-1,270,-1,272,274,276,278,-1,280,-1,282,284,-1,286,288,290,292,-1,294,296,298,300,302,304,306,-1,-1,-1,-1,308,310,-1,-1,-1,-1,-1,-1,-1,312,314,-1,316,-1,-1,318,320,-1,-1,-1,322,-1,-1,-1,324,326,328,330,332,334,-1,336,338,-1,340,342,-1,344,-1,-1,-1,346,348,350,-1,352,354,356,358,-1,-1,-1,-1,-1,-1,-1,-1,-1,-1,-1,-1,-1,-1,-1,-1,-1,-1,-1,-1,-1,-1,-1,-1,-1,-1,-1,-1,-1,-1,-1,-1,-1,-1,-1,-1,-1,-1,-1,-1,-1,-1,-1,-1,-1,-1,-1,-1,-1,-1,-1,-1,-1,-1,-1,-1,-1,-1,-1,-1,-1,-1,-1,-1,-1,-1,-1,-1,-1,-1,-1,-1,-1,-1,-1,-1,-1,-1,-1,-1,-1,-1,-1,-1,-1,-1,-1,-1,-1,-1,-1,-1,-1,-1,-1,-1,-1,-1,-1,-1,-1],"split_conditions":[5.284E1,4.566E1,4.8684998E1,1.3992622E-1,1.3157895E-1,6.043E1,5.304E1,1.3882275E-1,4.0625E1,1.373272E-1,6.052631E-1,8.07E2,6.073E1,9.810469E-2,9.371376E-2,1.0426182E-1,4.771122E-1,4.496E1,3.388E1,1.11114435E-1,4.362E1,4.795E1,4.825E1,5.6739998E1,7.8947365E-2,5E-1,9.45E-1,4.4742653E-1,8.97347E-1,5.526316E-1,9.390686E-2,4.167E1,1.0645214E-1,-4.5183167E-1,7.4210143E-1,9.2105263E-1,9.9547094E-1,9.85E-1,4.6778432E-1,4.2395E1,9.35E-1,9.9562085E-1,9.25E-1,9.75E-1,9.8511E4,9.25E-1,5.739E1,1.144633E-1,9.96175E4,5.795862E-1,4.6945E1,2.3684211E-1,4.0226647E-1,-4.5614788E-1,6.8421054E-1,9.6500003E-1,9.70125E4,3.850478E-1,4.8805E1,-4.6144468E-1,4.217E1,5.6501865E-1,4.794E1,8.1578946E-1,7.853278E-1,-4.085302E-1,3.664574E-1,4.416E1,5.9834946E-2,9.25E-1,5.07E1,8.85E-1,5.0800003E1,8.505E2,7.8947365E-2,4.586E1,2.80845E4,5E-1,8.5811913E-1,8.684211E-1,6.9055945E-2,9.6500003E-1,9.25E-1,-3.5753317E-2,-3.0433628E-1,3.920117E-1,-6.332118E-2,5.7885002E1,5.454E1,2.986148E-1,9.97065E4,5.738237E-1,-4.7392705E-1,6.063E1,4.8269997E1,9.75E-1,1.456031E-1,6.2475E1,9.736842E-1,2.0465526E-1,-3.1176722E-1,3.7329677E-1,6.868863E-2,-4.5090076E-1,-9.295193E-2,4.0597E4,9.92825E4,4.3035E1,3.986E1,-4.437204E-1,2.787715E-1,-4.328512E-1,-1.1432027E-1,2.786015E-1,-3.1153643E-1,4.316E1,-4.5083898E-1,5.3453363E-2,-4.3827873E-1,2.9764935E-1,-2.6026484E-1,9.701319E-1,7.037E3,2.8870362E-1,5.1E1,-1.2608401E-1,-4.5227772E-1,2.7735E4,5.4475E1,4.0125E1,5E-1,2.969834E-1,1.6647425E-3,5.2739998E1,1.6562676E-1,4.875E1,8.6203074E-1,4.785E1,4.7260002E1,3.567863E-1,9.538727E-1,4.935E1,3.709E1,-2.8745687E-1,2.1351641E-1,5.684E1,-3.3875826E-1,2.2721615E-1,6.028E1,2.3801664E-1,2.987097E-1,5.810311E-1,-3.8093665E-1,8.1845E4,4.670868E-1,8.922457E-2,7.631579E-1,8.2562006E-1,7.797733E-2,1.0378048E-1,1.3157895E-1,9.2105263E-1,1.469419E-1,1.541181E-1,6.317E1,1.8421052E-1,4.6425E1,5.033E1,1.6700676E-1,6.7270004E1,4.8695E1,7.655E1,5.2019997E1,6.0446322E-2,-2.541035E-1,3.8980003E1,9.848362E-2,6.1559576E-1,4.384E1,-2.559989E-1,1.6161166E-1,8.2607555E-1,4.540998E-1,4.1415E1,4.1195E1,9.1499996E-1,4.278E1,6.585494E-1,5.4830736E-1,-4.226587E-1,2.87885E4,5.264E1,1.0920815E-2,5.591E3,4.8739998E1,9.55E-1,4.146263E-1,-4.3942901E-1,9.85E-1,1.2809949E-1,4.975E1,4.011315E-1,2.5179362E-2,8.604879E-1,9.927194E-1,-4.3156967E-1,7.8510895E-2,4.9006975E-1,-2.698621E-1,4.795E1,8.1578946E-1,1.503024E-1,-3.4071553E-1,-1.2793039E-1,-4.5441636E-1,9.0965286E-2,6.172216E-1,-3.887752E-1,5.130111E-1,4.0295E1,4.065073E-1,2.3471794E-1,-4.6939954E-1,5.338243E-1,4.2045E1,2.4286938E-1,1.3632493E-1,-2.3033485E-2,-3.8835856E-1,6.5789473E-1,-4.15032E-1,5.975225E-1,2.2034243E-1,2.9196413E-2,4.1918874E-1,9.7949064E-1,6.5020004E1,9.62985E4,4.3295E1,6.258332E-1,5.9784675E-1,6.223E1,-4.1549304E-1,2.4459746E-1,7.4899994E1,-4.6877658E-1,5E-1,-1.9792858E-1,4.243302E-1,-4.327531E-1,5.539E1,8.239E3,3.8054624E-1,-3.2753546E-2,1.8421052E-1,7.631579E-1,7.73E1,9.75E-1,5.720048E-1,2.4797298E-2,6.0616064E-1,-4.0171826E-1,8.020375E-2,-4.5342058E-1,-1.4820091E-1,-4.002234E-1,-4.5279434E-1,-4.377251E-1,-2.2181474E-1,2.7434257E-1,-3.6541218E-1,-1.7189595E-1,1.7974581E-1,-2.9927883E-1,-4.412873E-1,5.203083E-1,1.313303E-1,-6.578592E-2,-4.5324367E-1,-3.562835E-1,1.138465E-1,5.3678674E-1,-1.38882E-1,-4.1745368E-1,-9.014644E-2,2.911291E-1,6.653068E-2,-3.9078915E-1,2.2042403E-2,-4.6432197E-1,2.373038E-2,-1.9512646E-1,-4.4931787E-1,-3.3737552E-1,1.503024E-1,-3.5204595E-1,6.4645326E-1,-2.0249495E-1,-4.242638E-1,-2.6213426E-2,-3.665641E-1,-1.4122211E-2,-3.722283E-1,-9.411328E-2,6.487562E-1,-2.6544812E-1,2.3225878E-1,-4.1732523E-1,-1.8589368E-1,4.309493E-1,-2.9718953E-1,5.054141E-1,-1.4920615E-1,-9.8366365E-2,-3.9630294E-1,-3.9484E-1,3.7608853E-1,-4.0603378E-1,-3.4578136E-1,-1.3864969E-1,-3.3962172E-1,-3.7322894E-1,5.2829427E-1,-3.8485208E-1,2.8098977E-1,-3.9820054E-1,-1.3495664E-1,-4.0572536E-1,-8.8236004E-2,-2.987868E-1,9.772614E-2,-4.7005576E-1,-1.6682383E-1,6.322367E-2,-4.1160247E-1,-3.0910608E-1,-3.8368586E-1,2.6186794E-1,-3.982542E-1,4.539236E-1,9.168933E-2,-2.0637134E-1,3.5396197E-1,-1.6970082E-1,-3.564536E-1,8.669059E-2,-3.9368272E-1,2.6376405E-1,-2.186227E-1,6.0782266E-1,1.1156842E-2,-3.396294E-2,-4.5918444E-1,-2.8787273E-1,-3.545088E-1,2.5976256E-1,-4.082557E-1,-4.3284044E-2,-3.0608267E-1],"split_indices":[5,5,3,8,7,5,5,8,3,8,7,2,5,8,10,8,0,5,5,8,3,5,5,5,7,7,0,0,8,7,10,5,8,0,8,7,10,6,0,3,0,10,0,6,2,0,5,8,2,8,3,7,8,0,7,6,2,0,3,0,5,0,3,7,8,0,0,5,0,0,5,0,5,2,7,5,2,7,10,7,8,6,0,0,0,0,0,5,5,11,2,8,0,5,3,6,10,5,7,0,0,0,8,0,0,2,2,3,3,0,0,0,0,0,0,5,0,8,0,0,0,8,2,8,5,0,0,2,3,3,7,0,0,5,8,5,8,5,5,0,8,5,3,0,0,5,0,8,5,8,8,0,0,2,0,8,7,8,0,8,7,7,8,8,5,7,3,3,0,5,3,5,3,8,0,3,8,10,3,0,0,8,0,3,3,0,3,0,8,0,2,5,0,2,3,0,8,0,6,8,5,10,10,8,11,0,0,0,0,5,7,0,0,0,0,0,0,0,8,3,0,8,0,0,3,8,0,0,0,7,0,0,0,8,8,8,5,2,3,0,8,5,0,8,5,0,7,0,0,0,5,2,8,0,7,7,5,6,0,0,0,0,0,0,0,0,0,0,0,0,0,0,0,0,0,0,0,0,0,0,0,0,0,0,0,0,0,0,0,0,0,0,0,0,0,0,0,0,0,0,0,0,0,0,0,0,0,0,0,0,0,0,0,0,0,0,0,0,0,0,0,0,0,0,0,0,0,0,0,0,0,0,0,0,0,0,0,0,0,0,0,0,0,0,0,0,0,0,0,0,0,0,0,0,0,0,0,0,0],"split_type":[0,0,0,0,0,0,0,0,0,0,0,0,0,0,0,0,0,0,0,0,0,0,0,0,0,0,0,0,0,0,0,0,0,0,0,0,0,0,0,0,0,0,0,0,0,0,0,0,0,0,0,0,0,0,0,0,0,0,0,0,0,0,0,0,0,0,0,0,0,0,0,0,0,0,0,0,0,0,0,0,0,0,0,0,0,0,0,0,0,0,0,0,0,0,0,0,0,0,0,0,0,0,0,0,0,0,0,0,0,0,0,0,0,0,0,0,0,0,0,0,0,0,0,0,0,0,0,0,0,0,0,0,0,0,0,0,0,0,0,0,0,0,0,0,0,0,0,0,0,0,0,0,0,0,0,0,0,0,0,0,0,0,0,0,0,0,0,0,0,0,0,0,0,0,0,0,0,0,0,0,0,0,0,0,0,0,0,0,0,0,0,0,0,0,0,0,0,0,0,0,0,0,0,0,0,0,0,0,0,0,0,0,0,0,0,0,0,0,0,0,0,0,0,0,0,0,0,0,0,0,0,0,0,0,0,0,0,0,0,0,0,0,0,0,0,0,0,0,0,0,0,0,0,0,0,0,0,0,0,0,0,0,0,0,0,0,0,0,0,0,0,0,0,0,0,0,0,0,0,0,0,0,0,0,0,0,0,0,0,0,0,0,0,0,0,0,0,0,0,0,0,0,0,0,0,0,0,0,0,0,0,0,0,0,0,0,0,0,0,0,0,0,0,0,0,0,0,0,0,0,0,0,0,0,0,0,0,0,0,0,0,0,0,0,0,0,0,0,0,0,0,0,0,0,0,0,0,0,0],"sum_hessian":[1.0843354E4,4.1556274E3,6.687726E3,1.8579565E3,2.297671E3,4.315714E3,2.3720125E3,1.3840767E2,1.7195488E3,3.3202753E2,1.9656434E3,2.312341E3,2.0033727E3,5.125796E1,2.3207544E3,1.3701552E2,1.3921522E0,1.038994E3,6.805549E2,3.6706886E1,2.9532065E2,1.1990913E3,7.6655206E2,7.6396995E0,2.3047014E3,7.4820145E1,1.9285526E3,2.0744417E1,3.0513546E1,1.6502078E2,2.1557336E3,1.1646989E2,2.0545626E1,1.0233458E3,1.5648168E1,7.5829263E0,6.729719E2,1.4178355E1,2.2528532E1,1.25579025E2,1.6974161E2,3.216335E2,8.774578E2,2.0616438E2,5.603877E2,2.8369424E0,4.8027573E0,1.293367E2,2.1753647E3,3.8981243E1,3.5838898E1,1.7750956E3,1.5345706E2,2.6679703E1,3.8338435E0,4.962521E1,1.1539557E2,3.7837548E0,2.15195E3,6.1073368E1,5.5396523E1,2.0682938E0,1.8477333E1,1.2744782E1,2.9033854E0,4.9442973E0,2.638629E0,6.71752E2,1.2198768E0,1.0819992E1,3.3583624E0,8.995495E1,3.5624073E1,8.1282486E1,8.845912E1,3.1898734E2,2.6461716E0,3.4760745E2,5.2985034E2,3.0411903E1,1.7575247E2,5.575516E2,2.836101E0,1.1887256E0,1.6482168E0,3.341228E0,1.461529E0,9.1847925E0,1.201519E2,2.1687732E3,6.5915766E0,1.5895331E1,2.3085913E1,2.6956526E1,8.882372E0,4.0767734E2,1.3674182E3,4.2364193E1,1.11092865E2,2.1781871E0,1.6556562E0,1.4902607E0,4.813495E1,1.1397952E2,1.4160403E0,7.259671E1,2.079353E3,5.0956984E0,5.0300823E1,1.6853155E1,1.6241776E0,1.1105875E1,1.638907E0,1.4596208E0,1.4437644E0,4.479164E2,2.2383563E2,2.3255882E0,8.494404E0,2.1840546E0,1.174308E0,6.1807013E0,8.377425E1,2.4284191E1,1.1339882E1,1.1730919E0,8.01094E1,2.021316E1,6.8245964E1,2.824093E1,2.9074643E2,1.4437666E0,1.2024049E0,2.4334799E2,1.04259476E2,4.1911063E2,1.1073972E2,2.2626183E1,7.785721E0,1.2442813E0,1.745082E2,3.539626E0,5.5401196E2,1.4223404E0,1.4137607E0,6.838035E0,2.3467574E0,1.9781101E1,1.00370804E2,5.71337E2,1.5974362E3,2.8317008E0,3.759876E0,1.4211206E1,1.6841246E0,1.2312271E1,1.4644256E1,7.6818213E0,1.200551E0,1.4586586E2,2.618115E2,1.2997961E2,1.2374386E3,1.2651904E1,2.9712288E1,1.0598464E2,5.108224E0,4.6982464E1,1.1524849E0,4.8129704E1,2.4467007E1,2.0725728E3,6.7804933E0,3.9355714E0,1.1601268E0,9.506814E0,4.079401E1,3.5700232E2,9.091408E1,1.1641504E0,1.1614379E0,4.4800687E0,1.7006323E0,5.396016E0,7.837823E1,3.352718E0,2.0931473E1,5.6945453E0,5.6453366E0,7.2659016E0,1.2947258E1,6.7069786E1,1.1761783E0,3.3816147E0,2.4859316E1,2.3193518E2,5.8811234E1,2.4004277E2,3.3052108E0,9.930342E0,9.432913E1,5.0638252E1,3.6847235E2,8.720349E0,1.0201937E2,2.072646E1,1.8997232E0,6.59433E0,1.1913911E0,1.709823E2,3.525901E0,1.1798753E0,2.3597505E0,1.1841424E0,5.528278E2,1.4106086E0,5.4274263E0,4.2213426E0,1.5559757E1,9.9167854E1,1.2029462E0,4.027783E2,1.6855873E2,3.3036509E0,1.5941324E3,1.2749336E1,1.4618704E0,1.7217677E0,1.0590504E1,1.0311868E1,4.332388E0,6.0080547E0,1.6737666E0,1.4667624E1,1.3119823E2,1.4349156E2,1.1831993E2,1.1428102E2,1.5698598E1,5.5460114E0,1.2318926E3,2.9707057E0,9.681199E0,6.4038424E0,2.3308447E1,1.7441174E1,8.8543465E1,1.6724414E0,3.4357824E0,3.0681307E1,1.6301157E1,4.1343548E1,6.7861547E0,1.9418596E0,2.2525148E1,2.0560388E3,1.6533777E1,3.4081233E0,3.37237E0,1.1579119E0,2.7776597E0,5.99036E0,3.5164547E0,3.9406284E1,1.3877224E0,1.842431E2,1.7275923E2,5.5414196E1,3.549988E1,1.6312104E0,2.8488584E0,3.5033793E0,1.8926367E0,4.9098366E1,2.9279867E1,2.146883E0,1.2058352E0,5.88675E0,1.5044723E1,2.8212173E0,2.8241196E0,2.1196835E0,1.0827574E1,6.377959E1,3.290197E0,1.2270414E0,2.1545732E0,2.3696793E1,1.162524E0,2.3077519E2,1.15999E0,1.7456533E1,4.1354702E1,2.1253355E0,1.1798753E0,2.6018224E0,7.3285193E0,2.5689726E1,6.8639404E1,2.3737719E1,2.6900534E1,7.615971E0,3.6085638E2,4.0008483E0,4.719501E0,9.681283E1,5.206545E0,1.5786528E2,1.311702E1,1.8912371E0,1.6346639E0,7.0687685E0,8.49099E0,8.019039E0,9.114882E1,3.9310855E2,9.669736E0,3.2681287E2,1.2673196E3,6.9770875E0,5.7722483E0,2.8870707E0,7.4247966E0,3.140917E0,1.1526707E1,4.2854393E1,8.834384E1,1.387593E2,4.732264E0,9.492169E1,2.3398241E1,1.1285161E2,1.4294143E0,3.1050136E0,1.2593584E1,5.4810455E2,6.8378796E2,1.4856063E0,1.4850994E0,4.9503317E0,1.4535112E0,1.848826E1,4.820185E0,3.5921318E1,5.2622147E1,7.0824122E0,9.218744E0,1.2389322E1,2.8954226E1,5.088137E0,1.6980178E0,1.9426069E0,2.058254E1,1.5612186E3,4.948202E2,1.111675E1,5.4170275E0,1.9522176E0,1.4559057E0],"tree_param":{"num_deleted":"0","num_feature":"12","num_nodes":"359","size_leaf_vector":"0"}},{"base_weights":[-9.63183E-1,-1.153116E0,-9.1139376E-1,-1.2402127E0,-1.0872432E0,-9.411882E-1,-7.355656E-1,-1.3173517E0,-1.1941162E0,4.628059E-1,-1.0919365E0,-1.2102033E0,-9.308478E-1,-8.358357E-1,-5.8509934E-1,-1.3390801E0,-1.0959951E0,-1.1178632E0,-1.2927932E0,-8.384597E-1,1.5345967E0,-1.0206375E0,-1.188262E0,-1.2270108E0,1.3080907E-2,-6.114863E-1,-9.378208E-1,-1.0029069E0,-7.3635346E-1,1.3281631E0,-6.014835E-1,-2.4439539E-1,-1.2737656E0,-1.139449E0,1.1667121E-2,-1.0477482E0,1.0237541E0,-1.2679247E0,-9.927455E-1,-7.0800084E-1,-1.2477772E0,7.314632E-1,-8.207437E-1,-9.2532843E-1,1.3121331E0,-9.305331E-1,-1.2739702E0,-1.0383958E0,-5.837132E-1,-8.4695053E-1,-4.2995155E-1,2.0373893E0,-3.0705613E-1,1.0288978E0,-6.1705905E-1,-1.1131434E0,1.644614E0,-9.4683385E-1,-1.1965787E0,-1.06679E0,1.3884277E0,-1.2509425E0,-9.7295445E-1,2.1710773E0,9.716474E-2,-1.2760942E0,7.390481E-1,2.5600955E0,-1.0688052E0,5.274089E-1,-1.2825798E0,-1.3543028E0,-1.101206E0,-2.4732102E-1,-1.2077706E0,-9.338522E-1,6.737346E-1,-1.297255E0,-3.5138118E-1,-8.756709E-1,-1.1714839E0,1.7388019E-1,-9.1170853E-1,1.4612076E0,-8.7381655E-1,-5.3193134E-1,5.562311E-1,1.5419906E0,1.3691033E-1,-5.3832805E-1,-8.2956284E-1,-1.0279033E0,4.3340373E-1,-1.2281811E0,-9.873347E-1,-8.3361906E-1,-1.291641E0,-1.3399265E0,-9.248922E-1,1.6362189E0,-8.7653637E-1,-2.891479E-1,-1.2944508E0,-1.3628442E0,-8.5965073E-1,-8.293369E-1,1.3887826E0,-1.1301693E-2,-1.1738132E0,-9.121326E-1,6.28267E-1,-9.3095225E-1,-1.3006738E0,-7.272622E-1,-9.432247E-1,1.0261719E0,-9.272413E-1,-8.4770215E-1,-1.3278629E0,1.7934258E-1,-7.087425E-1,-1.0242366E0,-2.070166E-1,-6.397273E-1,-1.2637839E0,-6.177743E-1,1.2212685E0,1.14153236E-1,-1.1016885E0,1.9005806E0,1.7966804E-1,-1.1760638E0,-7.6680976E-1,-3.2237396E-1,-7.9746944E-1,1.4947407E0,-1.149046E0,-7.5598836E-1,-3.287742E-1,7.248884E-1,-9.4290966E-1,-1.0779028E0,1.120893E0,1.4545523E0,-8.913815E-1,-1.2405307E0,-7.213156E-1,9.514623E-1,-1.1841108E0,-9.70484E-1,7.6827914E-1,-7.3135126E-1,-1.3106396E0,-8.593773E-1,-1.1226681E0,-1.0166466E0,-1.946464E-1,-8.380489E-1,3.4831816E-1,-1.2970666E0,-2.1604474E-1,9.8812413E-1,-9.8561746E-1,-1.2862673E0,1.600935E0,-2.4808657E-1,-1.2130387E0,-2.8426662E-1,-1.2895892E0,1.0568296E-1,1.4456431E0,-1.2346313E0,2.6231006E-1,-8.4638536E-1,-1.1873192E-1,-1.0534928E0,-9.107975E-1,1.3987801E0,-8.451414E-1,-1.1205657E0,5.5617504E-2,-1.3358293E0,-3.2972437E-1,-8.499863E-1,-1.2550588E0,-3.659458E-1,1.0282712E0,-9.0553415E-1,1.7478738E0,-7.91649E-1,-1.3173345E0,-1.109031E0,5.391983E-1,-7.7027303E-1,9.1881144E-1,-4.6753392E-1,-1.2710311E0,-1.2220765E0,4.0998966E-1,8.008129E-2,-8.263907E-1,-5.2203983E-1,4.748995E-1,-8.4199315E-1,2.677839E-1,-3.7675548E-1,1.9363748E0,-8.56635E-1,8.5250065E-2,6.810815E-1,-5.669769E-1,2.0512938E0,-1.1094865E0,-1.2252226E0,-7.1576995E-1,-5.380708E-1,-1.157737E0,-3.5404214E-1,-1.2447996E0,1.9960962E-1,-9.997722E-1,-8.442341E-3,1.4979324E0,-4.4058967E-1,-1.2556282E0,-1.1613027E0,-4.0482572E-1,6.76383E-2,-8.7797153E-1,-2.3875244E-1,-1.3163993E0,-9.5946497E-1,-6.6857314E-1,-4.732432E-1,-1.1888748E0,-1.9514883E-1,-9.710777E-1,-4.4711143E-1,9.8617226E-1,3.6326692E-1,1.4824356E0,-8.3019984E-1,-1.2468228E0,5.555203E-1,-9.483675E-1,-1.3896128E0,-1.0317259E0,-9.1389406E-1,1.1648672E0,-1.0015415E0,5.746165E-1,1.7420546E0,3.762388E-1,-1.3067309E0,-7.239942E-2,1.359192E0,-5.864531E-1,-7.119496E-1,-1.37385E0,-8.3171284E-1,8.604739E-1,1.1761881E0,-1.0594378E0,1.937269E0,-9.150733E-1,2.288975E0,4.6525335E-1,8.6683756E-1,-7.7026266E-1,-2.994571E-1,-1.3433478E0,-1.06348E0,2.3169482E0,-1.2780491E0,-2.8518164E-1,8.5708934E-1,-5.097261E-1,3.494325E-1,-1.3692888E0,-1.3917474E0,1.4119666E0,-1.3453671E0,-5.3188396E-1,-9.79157E-1,4.7306994E-1,-4.838368E-1,-1.3708801E0,-6.9346064E-1,-1.3243448E0,-8.135158E-1,9.579467E-1,-1.0217848E0,-6.2427765E-1,-3.5354525E-1,-1.0096918E0,8.668549E-1,-9.713809E-1,-1.0395108E0,-4.503824E-1,2.271791E0,1.8049043E-1,2.6778415E-1,-9.3852746E-1,2.1126652E0,-3.379085E-1,1.2402593E0,-6.6586703E-1,5.4045036E-2,-7.182061E-1,-5.201983E-1,-1.0493393E0],"categories":[],"categories_nodes":[],"categories_segments":[],"categories_sizes":[],"default_left":[true,true,true,true,true,true,true,true,true,true,true,true,true,true,true,false,true,true,false,false,false,true,true,true,true,true,true,true,true,true,true,true,false,true,true,true,true,true,true,true,true,false,false,true,false,true,true,true,true,true,true,false,false,true,true,false,false,true,true,false,false,true,true,false,true,true,false,false,true,true,false,false,true,true,true,true,true,true,true,true,true,true,true,true,true,true,true,false,false,true,true,true,true,true,true,true,true,false,true,false,true,true,true,false,true,false,false,true,true,true,true,true,false,true,true,true,false,true,true,false,false,true,true,true,true,true,false,true,true,false,false,true,true,true,true,true,false,true,true,true,true,true,false,false,false,true,true,true,true,true,false,true,true,true,true,false,false,true,true,false,false,true,true,false,false,true,true,true,false,true,true,true,true,true,true,true,true,true,false,false,true,true,false,true,true,true,false,true,false,true,true,false,false,false,false,true,true,true,false,true,true,true,true,true,false,false,true,true,true,true,true,false,false,false,true,false,false,false,false,false,false,false,false,false,false,false,false,false,false,false,false,false,false,false,false,false,false,false,false,false,false,false,false,false,false,false,false,false,false,false,false,false,false,false,false,false,false,false,false,false,false,false,false,false,false,false,false,false,false,false,false,false,false,false,false,false,false,false,false,false,false,false,false,false,false,false,false,false,false,false,false,false,false,false,false,false,false,false,false,false,false,false,false,false,false,false,false,false,false,false,false],"id":2,"left_children":[1,3,5,7,9,11,13,15,17,19,21,23,25,27,29,-1,31,33,-1,-1,-1,35,37,39,41,43,45,47,49,51,53,55,-1,57,59,61,63,65,67,69,71,-1,-1,73,-1,75,77,79,81,83,85,-1,-1,87,89,-1,-1,91,93,-1,-1,95,97,-1,99,101,-1,-1,103,105,-1,-1,107,109,111,113,115,117,119,121,123,125,127,129,131,133,135,-1,-1,137,139,141,143,145,147,149,151,-1,153,-1,155,157,159,-1,161,-1,-1,163,165,167,169,171,-1,173,175,177,-1,179,181,-1,-1,183,185,187,189,191,-1,193,195,-1,-1,197,199,201,203,205,-1,207,209,211,213,215,-1,-1,-1,217,219,221,223,225,-1,227,229,231,233,-1,-1,235,237,-1,-1,239,241,-1,-1,243,245,247,-1,249,251,253,255,257,259,261,263,265,-1,-1,267,269,-1,271,273,275,-1,277,-1,279,281,-1,-1,-1,-1,283,285,287,-1,289,291,293,295,297,-1,-1,299,301,303,305,307,-1,-1,-1,309,-1,-1,-1,-1,-1,-1,-1,-1,-1,-1,-1,-1,-1,-1,-1,-1,-1,-1,-1,-1,-1,-1,-1,-1,-1,-1,-1,-1,-1,-1,-1,-1,-1,-1,-1,-1,-1,-1,-1,-1,-1,-1,-1,-1,-1,-1,-1,-1,-1,-1,-1,-1,-1,-1,-1,-1,-1,-1,-1,-1,-1,-1,-1,-1,-1,-1,-1,-1,-1,-1,-1,-1,-1,-1,-1,-1,-1,-1,-1,-1,-1,-1,-1,-1,-1,-1,-1,-1,-1,-1,-1,-1,-1,-1,-1,-1],"loss_changes":[9.367383E1,1.0467529E1,3.8973145E1,1.5550537E0,9.094727E0,1.6873047E1,1.6132385E1,6.854248E-2,2.7788086E0,7.2371125E0,6.8739014E0,4.8721313E0,1.3312988E1,1.0210907E1,1.4713913E1,0E0,4.8445816E0,7.914398E0,0E0,0E0,0E0,3.8967102E1,6.4469604E0,1.6278076E0,3.1105413E0,8.338826E1,1.3759766E1,3.0105133E0,1.3755875E1,5.3582106E0,1.1829056E1,1.3513536E1,0E0,2.366211E0,1.1973456E1,9.045166E0,9.839363E0,6.6474E0,4.268431E1,8.680296E0,1.9861145E0,0E0,0E0,2.2223091E1,0E0,3.244287E1,2.2669067E0,3.8003235E0,5.4410467E0,2.0198517E1,1.1614391E1,0E0,0E0,1.8696103E0,6.869278E0,0E0,0E0,9.120995E0,3.840332E-1,0E0,0E0,1.9495239E0,7.545532E0,0E0,1.0840566E1,5.909851E0,0E0,0E0,7.7727966E0,6.1630373E0,0E0,0E0,7.8283615E0,2.1437311E1,9.176407E-1,1.0860352E1,8.23967E0,5.7029724E-1,9.789776E-1,1.0141174E1,5.062958E0,6.7766056E0,3.0483541E0,1.8460674E0,8.873703E0,5.4469547E0,1.9379856E1,0E0,0E0,1.4434311E1,2.1185524E1,9.107933E0,8.066942E0,3.9260864E-1,1.51592865E1,4.8350763E0,7.5024414E-1,0E0,4.783386E0,0E0,2.3163342E-1,2.9586196E0,6.795654E-1,0E0,2.1385506E1,0E0,0E0,1.6856533E1,3.072197E0,4.558489E0,6.707811E0,9.134939E0,0E0,1.8975296E1,1.9424316E1,8.894576E0,0E0,2.6804967E0,4.6310425E-1,0E0,0E0,2.352829E0,4.342033E0,1.4096843E1,1.5084229E0,3.3264408E0,0E0,3.020117E0,7.745981E-1,0E0,0E0,6.1316986E0,1.1474594E1,9.635436E0,2.3377552E0,6.9722404E0,0E0,1.3377037E1,4.0264404E1,2.2893055E1,6.105423E0,2.4957962E0,0E0,0E0,0E0,3.138733E-1,2.0667577E0,2.081316E0,1.2461281E0,1.4324226E0,0E0,9.411826E-1,6.364746E-1,5.8038483E0,4.043274E0,0E0,0E0,1.8583441E-1,2.588386E0,0E0,0E0,1.3444185E0,2.3180466E0,0E0,0E0,3.3592758E0,1.4111633E0,9.3542E0,0E0,6.2226524E0,1.3051376E0,1.5442619E0,6.1573067E0,1.461554E1,3.1604265E1,1.833374E1,5.55083E1,6.9135666E0,0E0,0E0,2.9569473E0,4.7355652E-1,0E0,3.7315155E1,4.0424347E-1,3.7138064E0,0E0,1.1188261E1,0E0,1.8872238E1,1.2467651E0,0E0,0E0,0E0,0E0,2.517267E0,8.171654E-2,3.1486435E0,0E0,1.3152157E1,7.7075806E0,3.557191E0,7.834093E0,2.8571167E0,0E0,0E0,3.284958E0,1.318248E1,1.5899085E1,2.4999035E1,1.2687939E1,0E0,0E0,0E0,3.5474358E0,0E0,0E0,0E0,0E0,0E0,0E0,0E0,0E0,0E0,0E0,0E0,0E0,0E0,0E0,0E0,0E0,0E0,0E0,0E0,0E0,0E0,0E0,0E0,0E0,0E0,0E0,0E0,0E0,0E0,0E0,0E0,0E0,0E0,0E0,0E0,0E0,0E0,0E0,0E0,0E0,0E0,0E0,0E0,0E0,0E0,0E0,0E0,0E0,0E0,0E0,0E0,0E0,0E0,0E0,0E0,0E0,0E0,0E0,0E0,0E0,0E0,0E0,0E0,0E0,0E0,0E0,0E0,0E0,0E0,0E0,0E0,0E0,0E0,0E0,0E0,0E0,0E0,0E0,0E0,0E0,0E0,0E0,0E0,0E0,0E0,0E0,0E0,0E0,0E0,0E0,0E0,0E0,0E0,0E0,0E0,0E0],"parents":[2147483647,0,0,1,1,2,2,3,3,4,4,5,5,6,6,7,7,8,8,9,9,10,10,11,11,12,12,13,13,14,14,16,16,17,17,21,21,22,22,23,23,24,24,25,25,26,26,27,27,28,28,29,29,30,30,31,31,33,33,34,34,35,35,36,36,37,37,38,38,39,39,40,40,43,43,45,45,46,46,47,47,48,48,49,49,50,50,53,53,54,54,57,57,58,58,61,61,62,62,64,64,65,65,68,68,69,69,72,72,73,73,74,74,75,75,76,76,77,77,78,78,79,79,80,80,81,81,82,82,83,83,84,84,85,85,86,86,89,89,90,90,91,91,92,92,93,93,94,94,95,95,96,96,98,98,100,100,101,101,102,102,104,104,107,107,108,108,109,109,110,110,111,111,113,113,114,114,115,115,117,117,118,118,121,121,122,122,123,123,124,124,125,125,127,127,128,128,131,131,132,132,133,133,134,134,135,135,137,137,138,138,139,139,140,140,141,141,145,145,146,146,147,147,148,148,149,149,151,151,152,152,153,153,154,154,157,157,158,158,161,161,162,162,165,165,166,166,167,167,169,169,170,170,171,171,172,172,173,173,174,174,175,175,176,176,177,177,180,180,181,181,183,183,184,184,185,185,187,187,189,189,190,190,195,195,196,196,197,197,199,199,200,200,201,201,202,202,203,203,206,206,207,207,208,208,209,209,210,210,214,214],"right_children":[2,4,6,8,10,12,14,16,18,20,22,24,26,28,30,-1,32,34,-1,-1,-1,36,38,40,42,44,46,48,50,52,54,56,-1,58,60,62,64,66,68,70,72,-1,-1,74,-1,76,78,80,82,84,86,-1,-1,88,90,-1,-1,92,94,-1,-1,96,98,-1,100,102,-1,-1,104,106,-1,-1,108,110,112,114,116,118,120,122,124,126,128,130,132,134,136,-1,-1,138,140,142,144,146,148,150,152,-1,154,-1,156,158,160,-1,162,-1,-1,164,166,168,170,172,-1,174,176,178,-1,180,182,-1,-1,184,186,188,190,192,-1,194,196,-1,-1,198,200,202,204,206,-1,208,210,212,214,216,-1,-1,-1,218,220,222,224,226,-1,228,230,232,234,-1,-1,236,238,-1,-1,240,242,-1,-1,244,246,248,-1,250,252,254,256,258,260,262,264,266,-1,-1,268,270,-1,272,274,276,-1,278,-1,280,282,-1,-1,-1,-1,284,286,288,-1,290,292,294,296,298,-1,-1,300,302,304,306,308,-1,-1,-1,310,-1,-1,-1,-1,-1,-1,-1,-1,-1,-1,-1,-1,-1,-1,-1,-1,-1,-1,-1,-1,-1,-1,-1,-1,-1,-1,-1,-1,-1,-1,-1,-1,-1,-1,-1,-1,-1,-1,-1,-1,-1,-1,-1,-1,-1,-1,-1,-1,-1,-1,-1,-1,-1,-1,-1,-1,-1,-1,-1,-1,-1,-1,-1,-1,-1,-1,-1,-1,-1,-1,-1,-1,-1,-1,-1,-1,-1,-1,-1,-1,-1,-1,-1,-1,-1,-1,-1,-1,-1,-1,-1,-1,-1,-1,-1,-1],"split_conditions":[4.1425E1,3.9135002E1,5.1235E1,9.6500003E-1,2.5148012E-2,5.8234714E-2,9.6500003E-1,9.6500003E-1,5.7624626E-1,2.489309E-2,5.9908795E-1,5.1E1,8.790834E-2,9.75E-1,3.125E1,-4.0172404E-1,8.95E-1,5.698464E-1,-3.8783798E-1,-2.5153792E-1,4.6037903E-1,5.910111E-1,8.226819E-1,9.6500003E-1,9.6500003E-1,8.776051E-2,5.716E1,9.4986856E-1,9.55E-1,5.9688085E-1,5.1245003E1,5.3561115E-1,-3.821297E-1,3.325E1,3.8415E1,9.05E-1,5.945258E-1,9.55E-1,8.2399315E-1,3.796E1,4.6755E1,2.1943897E-1,-2.462231E-1,4.3625E1,3.9363995E-1,5.704E1,9.5746756E-1,6.1312413E-1,4.89E1,3.3415E1,5.6375E1,6.112168E-1,-9.211684E-2,9.0999997E-1,9.85E-1,-3.3394304E-1,4.933842E-1,9.25E-1,9.6500003E-1,-3.20037E-1,4.1652834E-1,1.2027469E-1,9.6500003E-1,6.513232E-1,3.99E1,2.946E1,2.2171445E-1,7.680287E-1,9.75E-1,9.35E-1,-3.8477394E-1,-4.0629086E-1,2.5108594E-2,9.85E-1,4.405E1,1.5660414E-1,4.9585E1,4.416E1,4.9055E1,5.472338E-1,5.209E1,4.3765E1,9.6841145E-1,9.0999997E-1,3.0459E-1,5.092E1,6.01E1,4.6259722E-1,4.1073103E-2,5.0550003E1,4.1055E1,5.412365E-1,3.6985E1,3.9065002E1,3.6589996E1,1.1269668E-1,3.9285E1,-4.0197796E-1,4.4239998E1,4.9086568E-1,5.9632075E-1,6.6029125E-1,5.618E1,-4.088533E-1,8.85E-1,-2.4880107E-1,4.166348E-1,2.5022577E-2,4.6945E1,6.4336985E-2,7.967366E-2,4.2385E1,-3.9020216E-1,1.4580798E-1,3.5779852E-1,6.030853E-1,-2.781724E-1,7.470914E-1,5.1125E1,5.3802777E-2,-2.1262276E-1,2.591799E-1,6.110267E-1,5.2065002E1,9.55E-1,9.15E-1,3.6638057E-1,5.2085E1,5.2004997E1,5.701742E-1,5.3900413E-2,5.7300003E1,3.796718E-1,5.0309998E1,5.6565002E1,5.9209394E-1,-3.447138E-1,9.493437E-1,5.202E1,5.3085E1,5.2555E1,1.07325904E-1,3.3626792E-1,4.363657E-1,-2.6741445E-1,3.392E1,2.3349525E-1,3.9335E1,7.9578884E-2,4.107E1,2.3048376E-1,3.2845E1,2.5369999E1,9.85E-1,1.21993236E-1,-3.04994E-1,-5.839392E-2,2.803E1,9.6000004E-1,-3.8911998E-1,-6.481343E-2,3.5085E1,9.35E-1,-3.858802E-1,4.8028052E-1,3.2926697E-2,3.1008229E-2,6.3896775E-2,-3.8687676E-1,3.755E1,8.129791E-2,8.277482E-2,4.543E1,1.3908067E-1,4.6855E1,4.1445E1,3.5840368E-1,4.4755E1,-2.5354242E-1,-3.3616972E-1,8.113264E-1,9.6500003E-1,-9.891731E-2,2.5892532E-1,6.617E1,5.5079186E-1,3.0848137E-1,4.639E1,5.2436215E-1,8.32505E-1,9.45E-1,-3.327093E-1,1.617595E-1,-2.3108192E-1,2.7564344E-1,5.1915E1,8.15E-1,9.15E-1,1.22996904E-1,5.3895E1,9.45E-1,5.3550003E1,5.3324997E1,9.35E-1,8.033518E-2,-1.1302665E-1,8.999469E-1,1.08537436E-1,9.5304394E-1,8.2442266E-1,5.1775E1,6.1538815E-1,-3.3284596E-1,-3.675668E-1,9.75E-1,-1.6142124E-1,-3.4732112E-1,-1.06212646E-1,-3.734399E-1,5.988289E-2,-2.9993168E-1,-2.5327024E-3,4.4937974E-1,-1.321769E-1,-3.7668848E-1,-3.4839082E-1,-1.2144772E-1,2.029149E-2,-2.6339146E-1,-7.162573E-2,-3.949198E-1,-2.878395E-1,-2.0057195E-1,-1.4197297E-1,-3.5666245E-1,-5.854465E-2,-2.913233E-1,-1.3413343E-1,2.9585168E-1,1.0898008E-1,4.447307E-1,-2.4905996E-1,-3.7404686E-1,1.6665609E-1,-2.8451025E-1,-4.1688386E-1,-3.0951777E-1,-2.7416822E-1,3.4946015E-1,-3.0046245E-1,1.7238495E-1,5.226164E-1,1.1287164E-1,-3.9201927E-1,-2.1719828E-2,4.077576E-1,-1.7593592E-1,-2.1358489E-1,-4.12155E-1,-2.4951386E-1,2.5814217E-1,3.5285646E-1,-3.1783134E-1,5.811807E-1,-2.74522E-1,6.8669254E-1,1.3957602E-1,2.6005128E-1,-2.310788E-1,-8.9837134E-2,-4.0300435E-1,-3.1904402E-1,6.9508445E-1,-3.8341475E-1,-8.5554495E-2,2.571268E-1,-1.5291783E-1,1.0482975E-1,-4.1078666E-1,-4.1752422E-1,4.2358997E-1,-4.0361014E-1,-1.595652E-1,-2.937471E-1,1.4192098E-1,-1.4515105E-1,-4.1126406E-1,-2.080382E-1,-3.9730343E-1,-2.4405475E-1,2.8738403E-1,-3.0653545E-1,-1.872833E-1,-1.0606358E-1,-3.0290756E-1,2.600565E-1,-2.914143E-1,-3.1185326E-1,-1.3511473E-1,6.8153733E-1,5.414713E-2,8.0335245E-2,-2.8155825E-1,6.3379955E-1,-1.01372555E-1,3.720778E-1,-1.9976012E-1,1.6213512E-2,-2.1546184E-1,-1.5605949E-1,-3.148018E-1],"split_indices":[3,3,3,6,11,10,4,4,8,8,10,3,10,6,1,0,0,10,0,0,0,8,8,6,4,10,1,8,4,8,3,8,0,1,3,0,11,0,11,1,3,0,0,3,0,1,10,8,1,1,1,0,0,0,6,0,0,0,4,0,0,8,6,0,3,1,0,0,6,0,0,0,10,6,1,11,3,3,3,8,3,1,8,0,10,1,1,0,0,1,1,8,3,3,3,11,3,0,1,0,10,8,1,0,0,0,0,10,3,11,8,1,0,10,8,8,0,8,3,0,0,10,10,3,6,0,0,3,3,0,0,1,8,1,3,8,0,10,1,3,3,8,0,0,0,3,8,1,10,3,0,1,1,6,8,0,0,1,4,0,0,1,0,0,0,8,10,8,0,1,8,10,3,10,3,3,10,3,0,0,8,6,0,10,3,8,0,1,0,8,0,0,0,0,0,3,0,0,0,3,4,3,3,0,0,0,8,8,8,8,3,0,0,0,4,0,0,0,0,0,0,0,0,0,0,0,0,0,0,0,0,0,0,0,0,0,0,0,0,0,0,0,0,0,0,0,0,0,0,0,0,0,0,0,0,0,0,0,0,0,0,0,0,0,0,0,0,0,0,0,0,0,0,0,0,0,0,0,0,0,0,0,0,0,0,0,0,0,0,0,0,0,0,0,0,0,0,0,0,0,0,0,0,0,0,0,0,0,0,0,0],"split_type":[0,0,0,0,0,0,0,0,0,0,0,0,0,0,0,0,0,0,0,0,0,0,0,0,0,0,0,0,0,0,0,0,0,0,0,0,0,0,0,0,0,0,0,0,0,0,0,0,0,0,0,0,0,0,0,0,0,0,0,0,0,0,0,0,0,0,0,0,0,0,0,0,0,0,0,0,0,0,0,0,0,0,0,0,0,0,0,0,0,0,0,0,0,0,0,0,0,0,0,0,0,0,0,0,0,0,0,0,0,0,0,0,0,0,0,0,0,0,0,0,0,0,0,0,0,0,0,0,0,0,0,0,0,0,0,0,0,0,0,0,0,0,0,0,0,0,0,0,0,0,0,0,0,0,0,0,0,0,0,0,0,0,0,0,0,0,0,0,0,0,0,0,0,0,0,0,0,0,0,0,0,0,0,0,0,0,0,0,0,0,0,0,0,0,0,0,0,0,0,0,0,0,0,0,0,0,0,0,0,0,0,0,0,0,0,0,0,0,0,0,0,0,0,0,0,0,0,0,0,0,0,0,0,0,0,0,0,0,0,0,0,0,0,0,0,0,0,0,0,0,0,0,0,0,0,0,0,0,0,0,0,0,0,0,0,0,0,0,0,0,0,0,0,0,0,0,0,0,0,0,0,0,0,0,0,0,0,0,0,0,0,0,0,0,0,0,0,0,0,0,0,0,0,0,0,0,0,0,0,0,0],"sum_hessian":[9.629012E3,2.0584692E3,7.570542E3,8.7875635E2,1.1797129E3,6.469858E3,1.1006841E3,3.183841E2,5.6037225E2,3.266496E0,1.1764464E3,2.3518738E2,6.2346704E3,6.5778424E2,4.4289984E2,2.85327E2,3.305709E1,3.230569E2,2.3731538E2,1.573638E0,1.692858E0,6.8270953E2,4.9373694E2,2.3199677E2,3.190613E0,1.3511456E2,6.099556E3,2.4210681E2,4.156774E2,3.0807571E0,4.3981906E2,6.1190267E0,2.6938065E1,3.169903E2,6.066579E0,6.7425574E2,8.453804E0,3.4690607E2,1.4683087E2,1.0275563E1,2.217212E2,1.7799E0,1.4107131E0,1.1660861E2,1.8505949E1,5.9738125E3,1.2574336E2,2.2184808E2,2.0258724E1,3.0413455E2,1.1154288E2,1.9772453E0,1.1035119E0,3.5463185E0,4.3627277E2,4.4727516E0,1.6462748E0,7.653237E1,2.4045793E2,3.5280771E0,2.5385017E0,1.7718004E2,4.9707568E2,3.17695E0,5.2768536E0,3.4586237E2,1.0436864E0,2.3929777E0,1.444379E2,3.2880273E0,6.987536E0,1.2362951E2,9.80917E1,3.4843002E1,8.176561E1,5.961896E3,1.1916689E1,1.222518E2,3.4915597E0,1.0322091E2,1.18627174E2,6.2628527E0,1.3995871E1,2.8849976E0,3.0124954E2,1.0150681E2,1.0036065E1,1.7887009E0,1.7576176E0,3.2091098E2,1.15361755E2,7.2527664E1,4.004708E0,2.0467593E2,3.5781986E1,1.7652647E1,1.5952739E2,5.445027E1,4.426254E2,1.7811366E0,3.495717E0,6.62123E0,3.3924115E2,5.774348E1,8.669442E1,1.2912998E0,1.9967276E0,6.19872E0,9.1892975E1,1.97816E1,1.5061402E1,2.3315239E1,5.845037E1,2.6215048E2,5.6997456E3,1.0060921E1,1.8557683E0,9.622129E0,1.1262967E2,1.6054398E0,1.8861198E0,8.402085E1,1.920006E1,1.8718372E1,9.9908806E1,3.800484E0,2.462369E0,2.2492747E0,1.1746596E1,1.7887009E0,1.0962968E0,7.6154884E1,2.2509465E2,5.797116E1,4.3535652E1,6.5530276E0,3.4830375E0,1.5613176E2,1.6477922E2,7.4735346E0,1.0788822E2,7.136546E1,1.1622047E0,2.206205E0,1.7985028E0,1.9839467E2,6.281276E0,2.9436362E0,3.283835E1,1.6626276E1,1.02637E0,6.527207E0,1.5300018E2,3.3650174E2,1.06123665E2,2.4926243E0,1.0030929E0,3.388687E0,3.232543E0,3.38218E2,1.0231681E0,5.096136E0,8.159828E1,3.574316E0,2.6244042E0,4.0332036E0,8.785977E1,8.085383E0,1.1696218E1,9.87633E0,5.185071E0,1.8557726E1,4.7575135E0,2.189073E2,4.3243176E1,1.2881006E3,4.411645E3,8.600866E0,1.4600543E0,7.205181E0,2.4169483E0,1.11402214E2,1.227459E0,5.0545727E1,3.347512E1,1.7634947E1,1.5651133E0,1.74018E1,1.3165729E0,1.1785328E1,8.8123474E1,2.696832E0,1.1036519E0,1.091883E0,1.1573917E0,3.2683074E0,8.478289E0,7.423087E1,1.9240142E0,1.4772486E1,2.1032217E2,4.663684E1,1.1334319E1,4.1990196E1,1.5454535E0,1.2791836E0,5.2738442E0,1.3943172E2,1.6700056E1,3.1094677E1,1.3368456E2,4.2686753E0,3.2048593E0,4.6142895E1,6.1745327E1,1.0191463E1,6.1174E1,1.3530542E0,1.9704161E2,1.5240431E0,4.757233E0,1.425035E0,1.5186013E0,3.5098016E0,2.9328548E1,1.1644964E1,4.9813128E0,1.0955925E0,5.4316144E0,1.0446459E0,1.5195554E2,2.1807858E2,1.1842316E2,1.0571847E1,9.555182E1,1.0039201E0,2.384767E0,1.5716592E0,1.6608838E0,3.0171118E0,2.0790243E0,5.3778397E1,2.781989E1,1.9743071E0,2.0588968E0,4.113533E1,4.672444E1,5.893915E0,2.1914682E0,2.6004593E0,7.2758713E0,3.5673094E0,1.6177619E0,1.7356668E1,1.2010574E0,1.8130611E0,2.9444523E0,1.763185E2,4.2588814E1,2.5110386E1,1.813279E1,2.9018881E0,1.2851987E3,5.9355245E0,4.4057095E3,3.65938E0,4.9414864E0,1.1942778E0,1.2226706E0,1.0964273E0,1.10305786E2,4.7975716E1,2.5700116E0,3.2389603E1,1.0855193E0,1.3332081E0,1.6301739E1,4.7619643E0,1.2639836E1,9.552402E0,2.2329266E0,8.4398445E1,3.7250288E0,2.0903273E0,1.1779802E0,1.6123613E0,6.8659277E0,1.3294343E1,6.0936527E1,7.356974E0,7.4155116E0,1.0487657E2,1.05445595E2,3.59428E1,1.0694042E1,9.232781E0,2.101538E0,2.6812342E1,1.51778555E1,4.181299E0,1.0925447E0,9.311457E0,1.3012025E2,2.1942883E0,1.4505768E1,2.202877E1,9.065907E0,2.6305166E1,1.0737939E2,4.0537617E1,2.1207714E1],"tree_param":{"num_deleted":"0","num_feature":"12","num_nodes":"311","size_leaf_vector":"0"}},{"base_weights":[-7.869097E-1,-1.0105528E0,-6.9887275E-1,-1.1693885E0,-9.309006E-1,-7.1910495E-1,-5.435819E-1,-1.1730596E0,-1.0020572E-1,-9.417504E-1,6.781445E-1,-1.0993493E0,-7.1080333E-1,-6.240138E-1,8.874523E-2,-7.829942E-1,-1.1783375E0,-8.310621E-1,8.4664387E-1,-6.7968076E-1,-9.8695546E-1,1.1702895E0,-9.9153155E-1,-1.187612E0,8.914552E-1,-6.431617E-1,-7.617775E-1,-6.3931435E-1,1.3058285E0,-7.859557E-2,1.9510812E0,-1.1354529E0,7.183764E-1,7.167257E-1,-8.8304543E-1,-1.1781924E0,-9.374145E-1,-1.1645011E-1,1.4725828E0,-7.208334E-1,-1.2563905E0,2.3507738E0,-9.581693E-1,-1.0059766E0,-6.273452E-1,-7.685596E-1,4.7845426E-1,-5.132768E-1,-8.704456E-1,-5.4123133E-1,1.0225186E0,-8.070443E-1,2.9165337E0,-3.5599896E-1,1.2032768E0,9.5756537E-1,-9.082111E-1,-1.1886721E0,-7.076961E-1,-5.9480006E-1,-9.5620584E-1,-9.378929E-1,1.1517483E0,-6.6988647E-1,-1.2257049E0,-5.1173657E-2,-6.41445E-1,-8.980549E-1,-7.2152054E-1,1.1427486E0,-1.120718E0,-7.5118625E-1,-2.1424678E-1,-1.2314196E0,-7.2541934E-1,1.4325836E0,-6.4485466E-1,1.752377E0,-1.2599565E-1,-6.786283E-1,5.460549E-1,-9.0445507E-1,1.4338993E0,-6.9011515E-1,2.3189046E0,-7.186399E-1,-1.2356884E0,-1.1140186E0,6.551634E-1,-8.4870017E-1,9.7398293E-1,-7.590465E-1,-9.882759E-1,-2.551196E-2,-1.2032752E0,-1.044053E0,2.0277636E0,-2.3527211E-1,1.8083469E0,-1.1670463E0,-6.239087E-1,-6.366261E-1,-1.0176265E0,1.5188977E0,-7.2843325E-1,-1.4408338E-1,1.5939409E0,-5.465986E-1,-1.2698779E0,-1.1581464E0,3.0990174E-1,3.3934627E-2,-1.2615253E0,4.445153E-1,-8.6277896E-1,-1.8605483E-1,-1.1391973E0,-8.433254E-1,2.1564567E0,-1.0890331E0,5.377232E-1,-9.780191E-1,5.306665E-1,1.0694342E0,-2.8796878E-1,-1.062946E0,-3.2793233E-1,-9.490504E-1,9.991985E-1,1.4616841E0,-7.769456E-1,-8.27263E-1,6.7759013E-1,-1.0770867E0,-8.6806124E-1,4.2396826E-1,-7.129908E-1,-1.3748223E-1,-1.2645314E0,-8.6818767E-1,4.5585565E-2,2.0396383E0,5.897957E-1,-2.2467197E-1,-1.2023861E0,4.7168007E-1,-6.447177E-1,-2.665398E-1,-1.246278E0,-1.2044055E0,-9.3693E-1,2.2311554E0,-8.268307E-1,-6.0430884E-1,-8.24049E-1,5.76734E-1,-8.2365566E-1,-3.4598928E-2,1.8544233E0,-6.636919E-1,1.6271145E0,-1.2823539E0,-4.2022347E-1,-4.628325E-1,-1.2984627E0,1.4212759E-1,2.0900052E0,-1.2914345E0,-3.3383746E-2,9.735697E-1,-1.06747E0,-1.2643087E0,-7.21535E-1,1.5184795E0,-6.0192466E-1,-1.2492583E0,-2.3412131E-1,1.3800825E0,-4.8342565E-1,-1.0833198E0,-2.7241597E-1,-1.2432647E0,-6.2719387E-1,5.0314087E-1,-7.372049E-1,2.32671E-1,-1.0179124E0,1.04845114E-1,1.7452325E0,2.5487614E-1,-9.1917914E-1,-9.85654E-1,2.3921053E0,-6.576063E-1,-1.0885118E0,-8.81294E-1,1.1808214E0,-4.206496E-1,1.0597211E0,-1.1484915E0,1.2867941E0,6.1475974E-1,-1.0243154E0,2.196241E0,-3.2822675E-1,-8.452091E-1,6.4325327E-1,-1.3099252E0,-9.273495E-1,-9.529921E-1,1.668072E0,-1.2982694E0,-6.3348895E-1,-5.8501613E-1,1.0085365E0,-1.2878038E0,-2.3357823E-1,-1.2222835E0,2.408987E-1,-3.7563876E-3,-9.7544354E-1,-6.383896E-1,1.484754E0,-8.358712E-1,6.951215E-1,-9.945537E-2,-7.9256284E-1,-9.046884E-1,5.7646924E-1,-2.9952379E-2,1.3283242E0,-2.9525572E-1,3.2036958E0,-1.5903443E-1,1.8961334E0,2.9203397E-1,-1.318479E0,1.0997326E-2,-9.554818E-1,3.9895964E-1,2.4164894E0,-8.2344466E-1,1.5068604E0,-8.0891436E-1,4.747366E-1,2.0745064E-1,-8.4250355E-1],"categories":[],"categories_nodes":[],"categories_segments":[],"categories_sizes":[],"default_left":[true,true,true,true,true,true,true,true,true,true,true,true,true,true,true,true,false,false,false,true,true,true,false,true,true,true,true,true,false,true,true,false,false,true,true,true,true,false,false,true,false,false,false,true,true,true,true,true,true,true,true,false,false,true,true,true,true,false,true,true,true,true,false,true,false,true,true,true,true,true,false,true,true,true,true,false,true,true,true,true,true,false,false,false,false,true,false,false,false,true,true,true,true,true,false,true,false,true,true,true,true,true,true,true,true,true,true,true,true,true,true,false,true,true,true,true,true,false,false,false,true,true,false,false,false,true,true,true,false,true,false,true,true,true,true,true,false,true,false,true,true,false,false,true,true,true,true,true,true,true,true,false,false,true,true,false,false,false,false,true,false,false,false,true,false,true,true,false,false,true,false,true,true,true,true,false,true,false,true,false,false,false,false,false,false,false,false,false,false,false,false,false,false,false,false,false,false,false,false,false,false,false,false,false,false,false,false,false,false,false,false,false,false,false,false,false,false,false,false,false,false,false,false,false,false,false,false,false,false,false,false,false,false,false,false,false,false,false,false,false,false,false,false,false,false,false,false],"id":3,"left_children":[1,3,5,7,9,11,13,15,17,19,21,23,25,27,29,31,-1,-1,-1,33,35,37,-1,39,41,43,45,47,-1,49,51,-1,-1,53,55,57,59,-1,-1,61,-1,-1,-1,63,65,67,69,71,73,75,77,-1,-1,79,81,83,85,-1,87,89,91,93,-1,95,-1,97,99,101,103,105,-1,107,109,111,113,-1,115,117,119,121,123,-1,-1,-1,-1,125,-1,-1,-1,127,129,131,133,135,-1,137,-1,139,141,143,145,147,149,151,153,155,157,159,161,163,165,-1,167,169,171,173,175,-1,-1,-1,177,179,-1,-1,-1,181,183,185,-1,187,-1,189,191,193,195,197,-1,199,-1,201,203,-1,-1,205,207,209,211,213,215,217,219,-1,-1,221,223,-1,-1,-1,-1,225,-1,-1,-1,227,-1,229,231,-1,-1,233,-1,235,237,239,241,-1,243,-1,245,-1,-1,-1,-1,-1,-1,-1,-1,-1,-1,-1,-1,-1,-1,-1,-1,-1,-1,-1,-1,-1,-1,-1,-1,-1,-1,-1,-1,-1,-1,-1,-1,-1,-1,-1,-1,-1,-1,-1,-1,-1,-1,-1,-1,-1,-1,-1,-1,-1,-1,-1,-1,-1,-1,-1,-1,-1,-1,-1,-1,-1,-1,-1,-1,-1,-1,-1,-1],"loss_changes":[1.6584766E2,2.9112793E1,1.8690186E1,2.99646E0,2.8480347E1,1.6169434E1,3.5867126E1,7.0495605E-1,3.3389227E0,1.8100708E1,1.0415464E1,2.0897568E1,1.7639893E1,1.9283768E1,2.5189047E1,7.9779625E0,0E0,0E0,0E0,6.7743E1,1.16779785E1,3.73355E0,0E0,2.5789642E0,1.6731867E1,1.2372498E1,2.5543213E1,1.7630814E1,0E0,3.8592476E1,2.0093689E1,0E0,0E0,1.6396057E1,1.0445282E1,5.083313E-1,6.3618774E0,0E0,0E0,7.6994905E0,0E0,0E0,0E0,6.0469666E0,1.7628845E1,1.7486816E1,1.9227997E1,2.8581306E1,1.0495316E1,1.1811975E1,1.9029387E1,0E0,0E0,3.3733768E0,1.1638636E1,8.946548E0,1.1804398E1,0E0,5.400886E0,2.4174967E1,5.6920776E0,3.63628E0,0E0,4.14534E1,0E0,1.8575302E1,1.8830688E1,2.4022034E1,3.5007324E1,7.4473743E0,0E0,2.3140144E1,8.96158E1,2.3634262E0,2.5714485E1,0E0,1.14159565E1,1.6278854E1,6.754608E0,3.431938E0,1.7363412E0,0E0,0E0,0E0,0E0,1.7392471E1,0E0,0E0,0E0,1.0403133E1,8.50602E0,1.4952675E1,8.385681E0,1.6724808E0,0E0,6.7988014E0,0E0,8.772284E0,1.7557144E-1,1.9733353E0,4.7169067E1,5.615264E1,7.008423E0,1.3635754E1,2.5409058E1,2.5050907E0,4.003771E0,4.252361E1,1.265564E-1,5.7040405E0,3.458171E1,0E0,2.1435242E0,1.4815622E1,7.107353E0,2.0610046E1,2.1463737E0,0E0,0E0,0E0,6.1576924E0,2.1018648E-1,0E0,0E0,0E0,4.6935043E0,2.1875612E1,4.2139435E0,0E0,2.5477648E0,0E0,1.4224007E1,2.290915E1,1.6705933E0,1.1237061E1,2.2222178E0,0E0,1.2920071E1,0E0,4.137249E0,2.8840445E1,0E0,0E0,2.5174289E0,6.988907E-1,6.78825E1,1.3985046E1,6.4366974E1,3.6645813E0,4.412369E0,1.3706665E1,0E0,0E0,6.884076E1,2.2677185E1,0E0,0E0,0E0,0E0,1.1207352E1,0E0,0E0,0E0,6.2183523E0,0E0,2.2043987E1,2.747319E1,0E0,0E0,1.4178875E1,0E0,3.3752518E0,1.8336704E1,4.799879E0,1.2009279E1,0E0,1.966986E0,0E0,1.0742853E0,0E0,0E0,0E0,0E0,0E0,0E0,0E0,0E0,0E0,0E0,0E0,0E0,0E0,0E0,0E0,0E0,0E0,0E0,0E0,0E0,0E0,0E0,0E0,0E0,0E0,0E0,0E0,0E0,0E0,0E0,0E0,0E0,0E0,0E0,0E0,0E0,0E0,0E0,0E0,0E0,0E0,0E0,0E0,0E0,0E0,0E0,0E0,0E0,0E0,0E0,0E0,0E0,0E0,0E0,0E0,0E0,0E0,0E0,0E0,0E0,0E0,0E0,0E0,0E0,0E0,0E0,0E0,0E0],"parents":[2147483647,0,0,1,1,2,2,3,3,4,4,5,5,6,6,7,7,8,8,9,9,10,10,11,11,12,12,13,13,14,14,15,15,19,19,20,20,21,21,23,23,24,24,25,25,26,26,27,27,29,29,30,30,33,33,34,34,35,35,36,36,39,39,43,43,44,44,45,45,46,46,47,47,48,48,49,49,50,50,53,53,54,54,55,55,56,56,58,58,59,59,60,60,61,61,63,63,65,65,66,66,67,67,68,68,69,69,71,71,72,72,73,73,74,74,76,76,77,77,78,78,79,79,80,80,85,85,89,89,90,90,91,91,92,92,93,93,95,95,97,97,98,98,99,99,100,100,101,101,102,102,103,103,104,104,105,105,106,106,107,107,108,108,109,109,110,110,112,112,113,113,114,114,115,115,116,116,120,120,121,121,125,125,126,126,127,127,129,129,131,131,132,132,133,133,134,134,135,135,137,137,139,139,140,140,143,143,144,144,145,145,146,146,147,147,148,148,149,149,150,150,153,153,154,154,159,159,163,163,165,165,166,166,169,169,171,171,172,172,173,173,174,174,176,176,178,178],"right_children":[2,4,6,8,10,12,14,16,18,20,22,24,26,28,30,32,-1,-1,-1,34,36,38,-1,40,42,44,46,48,-1,50,52,-1,-1,54,56,58,60,-1,-1,62,-1,-1,-1,64,66,68,70,72,74,76,78,-1,-1,80,82,84,86,-1,88,90,92,94,-1,96,-1,98,100,102,104,106,-1,108,110,112,114,-1,116,118,120,122,124,-1,-1,-1,-1,126,-1,-1,-1,128,130,132,134,136,-1,138,-1,140,142,144,146,148,150,152,154,156,158,160,162,164,166,-1,168,170,172,174,176,-1,-1,-1,178,180,-1,-1,-1,182,184,186,-1,188,-1,190,192,194,196,198,-1,200,-1,202,204,-1,-1,206,208,210,212,214,216,218,220,-1,-1,222,224,-1,-1,-1,-1,226,-1,-1,-1,228,-1,230,232,-1,-1,234,-1,236,238,240,242,-1,244,-1,246,-1,-1,-1,-1,-1,-1,-1,-1,-1,-1,-1,-1,-1,-1,-1,-1,-1,-1,-1,-1,-1,-1,-1,-1,-1,-1,-1,-1,-1,-1,-1,-1,-1,-1,-1,-1,-1,-1,-1,-1,-1,-1,-1,-1,-1,-1,-1,-1,-1,-1,-1,-1,-1,-1,-1,-1,-1,-1,-1,-1,-1,-1,-1,-1,-1,-1,-1,-1],"split_conditions":[5.065E1,4.157E1,6.7515E1,9.9652797E-1,9.9288857E-1,9.6500003E-1,9.75E-1,2.839E1,4.071E1,1.3157895E-1,9.9655664E-1,5.6614998E1,3.9473683E-1,9.8968625E-1,9.2105263E-1,2.829E1,-3.5350126E-1,-2.4931863E-1,2.5399318E-1,1.3534006E-1,9.05E-1,4.641E1,-2.9745948E-1,1.6596009E-1,5.913E1,5.785556E-2,9.90785E4,7.664228E-1,3.9174855E-1,5.1045E1,8.7786806E-1,-3.4063587E-1,2.1551293E-1,1.13327414E-1,4.187E1,9.8438454E-1,3.3375E1,-3.4935035E-2,4.4177487E-1,1.6465086E-1,-3.7691715E-1,7.0523214E-1,-2.874508E-1,3.11984E-2,1.1743197E-1,2.986148E-1,9.9732E4,4.1923502E-1,4.1440002E1,8.3500004E-1,5.2935E1,-2.421133E-1,8.749601E-1,9.85E-1,4.596E1,4.177E1,4.541E1,-3.5660163E-1,8.8E-1,3.329E1,4.3760002E1,9.15E-1,3.455245E-1,3.0936342E-2,-3.6771148E-1,1.14521E-1,1.5454106E-1,5.564E1,2.998961E-1,5.689E1,-3.362154E-1,2.7919438E-1,9.55E-1,2.81E3,4.284E1,4.297751E-1,6.841E1,2.3684211E-1,6.821001E1,9.5415145E-2,3.848982E-2,-2.7133653E-1,4.301698E-1,-2.0703456E-1,6.9567144E-1,4.616E1,-3.7070656E-1,-3.3420557E-1,1.9654903E-1,9.736842E-1,8.684211E-1,4.366E1,4.795E1,3.7762E4,-3.6098257E-1,5.125E1,6.083291E-1,5.4989998E1,3.82025E4,2.4205E3,1.6336489E-1,2.3802513E-1,5.793E1,9.85E-1,6.154213E-1,5.544E1,9.93155E4,2.753377E-1,9.2105263E-1,9.25E-1,7.3600006E1,1.0180389E-2,9.45E-1,6.5789473E-1,8.0439353E-1,2.336012E-1,7.0509995E1,-2.5299764E-1,6.46937E-1,-3.2670996E-1,4.2105263E-1,4.855E1,1.5919995E-1,3.2083026E-1,-8.639064E-2,6.8908215E-1,4.1304827E-1,4.187E1,2.9975957E-1,2.3059E4,-2.3308368E-1,1.4475761E-1,7.878018E-1,3.415E1,9.90815E4,1.3111E4,-2.1389726E-1,5.11E1,-3.7935942E-1,6.447721E-2,5.634E1,6.118915E-1,1.7693871E-1,2.184E3,4.22665E4,5.429E1,1.6662486E-1,5.215E1,2.82871E-1,9.95E-1,5.813E1,6.6934663E-1,-2.4804921E-1,6.1359227E-1,6.722E1,1.7302021E-1,-2.470967E-1,-1.0379679E-2,5.56327E-1,1.8421052E-1,4.8813438E-1,-3.8470617E-1,-1.2606704E-1,7.47E1,-3.8953885E-1,7.3202455E-1,6.808865E-1,-3.8743037E-1,-1.0015124E-2,7.071001E1,-3.20241E-1,4.05E3,8.615075E-1,4.4485E1,6.831E1,-3.747775E-1,5.751496E-1,4.1402477E-1,6.1279964E-1,-3.2499593E-1,-8.172479E-2,-3.729794E-1,-1.8815817E-1,1.5094227E-1,-2.2116148E-1,6.98013E-2,-3.0537373E-1,3.1453535E-2,5.2356976E-1,7.646284E-2,-2.7575377E-1,-2.956962E-1,7.1763164E-1,-1.972819E-1,-3.2655355E-1,-2.643882E-1,3.5424644E-1,-1.2619488E-1,3.1791633E-1,-3.4454745E-1,3.8603824E-1,1.8442793E-1,-3.072946E-1,6.588723E-1,-9.846803E-2,-2.5356275E-1,1.9297598E-1,-3.9297757E-1,-2.7820486E-1,-2.8589764E-1,5.0042164E-1,-3.8948083E-1,-1.900467E-1,-1.7550485E-1,3.0256096E-1,-3.8634115E-1,-7.007347E-2,-3.6668506E-1,7.226961E-2,-1.1269164E-3,-2.926331E-1,-1.9151689E-1,4.454262E-1,-2.507614E-1,2.0853646E-1,-2.9836612E-2,-2.3776886E-1,-2.7140653E-1,1.7294078E-1,-8.985714E-3,3.9849728E-1,-8.857672E-2,9.6110874E-1,-4.7710333E-2,5.6884E-1,8.761019E-2,-3.955437E-1,3.2991979E-3,-2.8664455E-1,1.1968789E-1,7.2494686E-1,-2.470334E-1,4.5205814E-1,-2.4267432E-1,1.4242099E-1,6.2235195E-2,-2.5275108E-1],"split_indices":[5,5,5,11,11,6,6,5,1,7,8,1,7,8,7,5,0,0,0,8,0,5,0,10,5,8,2,8,0,1,8,0,0,8,5,8,1,0,0,8,0,0,0,10,8,11,2,8,1,0,1,0,0,6,5,5,1,0,0,1,5,0,0,10,0,11,8,5,8,5,0,8,6,2,1,0,5,7,5,8,8,0,0,0,0,5,0,0,0,7,7,5,5,2,0,5,0,5,2,2,10,8,5,6,11,5,2,8,7,0,5,0,0,7,8,8,5,0,0,0,7,5,0,0,0,8,8,5,0,2,0,8,8,1,2,2,0,5,0,8,5,0,0,2,2,5,10,1,10,6,5,0,0,10,5,0,0,0,0,7,0,0,0,5,0,8,8,0,0,5,0,2,8,1,5,0,8,0,8,0,0,0,0,0,0,0,0,0,0,0,0,0,0,0,0,0,0,0,0,0,0,0,0,0,0,0,0,0,0,0,0,0,0,0,0,0,0,0,0,0,0,0,0,0,0,0,0,0,0,0,0,0,0,0,0,0,0,0,0,0,0,0,0,0,0,0,0],"split_type":[0,0,0,0,0,0,0,0,0,0,0,0,0,0,0,0,0,0,0,0,0,0,0,0,0,0,0,0,0,0,0,0,0,0,0,0,0,0,0,0,0,0,0,0,0,0,0,0,0,0,0,0,0,0,0,0,0,0,0,0,0,0,0,0,0,0,0,0,0,0,0,0,0,0,0,0,0,0,0,0,0,0,0,0,0,0,0,0,0,0,0,0,0,0,0,0,0,0,0,0,0,0,0,0,0,0,0,0,0,0,0,0,0,0,0,0,0,0,0,0,0,0,0,0,0,0,0,0,0,0,0,0,0,0,0,0,0,0,0,0,0,0,0,0,0,0,0,0,0,0,0,0,0,0,0,0,0,0,0,0,0,0,0,0,0,0,0,0,0,0,0,0,0,0,0,0,0,0,0,0,0,0,0,0,0,0,0,0,0,0,0,0,0,0,0,0,0,0,0,0,0,0,0,0,0,0,0,0,0,0,0,0,0,0,0,0,0,0,0,0,0,0,0,0,0,0,0,0,0,0,0,0,0,0,0,0,0,0,0,0,0,0,0,0,0,0,0],"sum_hessian":[8.458282E3,2.3861619E3,6.0721206E3,7.923809E2,1.593781E3,5.3689863E3,7.031342E2,7.8957275E2,2.8081892E0,1.583518E3,1.0263029E1,1.1190441E2,5.2570815E3,6.238001E2,7.93341E1,1.2534904E1,7.7703784E2,1.6538775E0,1.1543117E0,2.3531998E2,1.348198E3,8.157622E0,2.1054063E0,1.07540054E2,4.364357E0,2.2650393E3,2.9920425E3,6.1955676E2,4.243382E0,7.3672066E1,5.66203E0,1.0349094E1,2.1858096E0,2.9593239E1,2.0572673E2,2.727091E2,1.0754889E3,1.6688377E0,6.488785E0,1.5285111E1,9.2254944E1,2.2881238E0,2.0762331E0,9.200198E1,2.1730374E3,2.9761482E3,1.589442E1,4.0301202E2,2.1654472E2,5.2234207E1,2.1437857E1,1.5105981E0,4.151432E0,9.317899E0,2.0275341E1,2.275108E0,2.0345163E2,2.6527402E2,7.4350967E0,5.761792E1,1.017871E3,1.4144681E1,1.1404303E0,3.7971134E1,5.4030846E1,5.2017822E1,2.1210195E3,7.881979E2,2.1879502E3,1.1431289E1,4.4631314E0,2.2360162E2,1.794104E2,5.991753E1,1.566272E2,1.9657491E0,5.026846E1,1.2786506E1,8.651352E0,7.0456357E0,2.2722628E0,1.7115104E0,1.856383E1,1.2523739E0,1.0227342E0,1.3088118E2,7.257045E1,5.8681545E0,1.566942E0,4.99868E1,7.631119E0,1.4585498E2,8.72016E2,3.4341726E0,1.0710508E1,3.3884327E1,4.0868096E0,4.812661E1,3.891211E0,6.636493E1,2.0546545E3,2.4934955E2,5.388484E2,6.057233E0,2.1818928E3,3.1442704E0,8.287018E0,1.6182626E2,6.1775356E1,6.3624413E1,1.1578599E2,1.3894919E0,5.8528038E1,1.6222128E1,1.4040506E2,2.6785336E1,2.3483124E1,1.5759549E0,1.121055E1,3.2683141E0,5.3830376E0,5.800762E0,1.2448735E0,1.2227104E0,1.0495523E0,6.865727E1,6.2223904E1,4.7873447E1,2.1133537E0,6.097832E0,1.5332868E0,1.3964818E2,6.206813E0,4.9693564E2,3.7508038E2,2.3082902E0,1.1258823E0,6.946211E0,2.6938116E1,1.4149461E1,3.397715E1,2.7041228E0,1.1870883E0,2.6647213E0,6.3700207E1,3.789361E1,2.0167609E3,1.5605457E2,9.329498E1,1.5836766E2,3.804807E2,4.6838655E0,1.3733673E0,9.5259424E2,1.2292987E3,1.5992672E0,1.5450032E0,1.2622964E0,7.0247216E0,1.5421378E2,7.6124907E0,6.037951E1,1.3958473E0,1.1405398E1,5.2219013E1,1.06799965E2,8.98602E0,5.708626E1,1.4417762E0,1.2281012E1,3.9411154E0,3.4467957E1,1.0593711E2,4.7333446E0,2.205199E1,2.0598038E1,2.8850853E0,2.7571378E0,2.6258998E0,4.5817013E0,1.2190609E0,4.725112E1,2.140615E1,2.0456125E1,4.176778E1,2.5051103E0,4.5368336E1,1.2908071E0,4.807025E0,1.0794183E1,1.2885399E2,3.3662956E0,2.8405173E0,1.4728426E1,4.822072E2,3.7323965E2,1.8407079E0,1.1366109E0,1.1716795E0,4.1757355E0,2.7704751E0,1.0679743E0,1.3081487E1,4.309284E0,2.9667866E1,1.5690656E0,1.0956558E0,4.3089527E1,2.0610678E1,1.7389505E1,2.0504105E1,3.212888E1,1.984632E3,1.2529962E2,3.0754942E1,8.935916E1,3.9358225E0,1.5658505E2,1.7826034E0,1.5124138E1,3.6535657E2,9.379864E2,1.4607797E1,1.2202524E3,9.046263E0,2.9002728E1,1.2521105E2,8.093847E0,3.311551E0,9.412074E1,1.2679223E1,3.0940928E0,5.8919272E0,5.884456E0,6.3965554E0,1.0116485E0,3.3456306E1,2.5873917E1,8.0063194E1,2.7496793E0,1.9836653E0,2.0507294E1,1.5446976E0,1.5152555E0,1.3698299E0,1.0424548E0,1.5834451E0],"tree_param":{"num_deleted":"0","num_feature":"12","num_nodes":"247","size_leaf_vector":"0"}},{"base_weights":[-6.545304E-1,-1.0047042E0,-5.9453917E-1,-1.0867975E0,-9.377389E-1,-6.7857075E-1,-5.2633125E-1,-1.105646E0,-7.8912467E-1,-7.639578E-2,-9.519276E-1,-4.329951E-1,-7.190555E-1,-7.628911E-1,-4.8187122E-1,-8.3026606E-1,-1.1171098E0,6.194785E-1,-1.0952951E0,3.5802287E-1,-8.949146E-1,-8.888622E-1,-1.049764E0,4.399932E-1,-5.080618E-1,-7.4318844E-1,-3.965602E-1,-5.0118047E-1,-8.8638014E-1,1.9974E0,-4.8953578E-1,3.596729E-1,-1.0333564E0,-7.563055E-1,-1.1244879E0,-7.800212E-1,1.4361318E0,-1.130577E0,-1.214006E-1,-3.9163363E-1,2.2229607E0,-9.117553E-1,-7.539735E-2,-1.1286229E0,-9.798634E-1,-5.96059E-1,1.1534797E0,-4.1929343E-1,-9.2459565E-1,-5.820826E-1,-7.891931E-1,2.1431212E0,-4.8078486E-1,1.7779079E-1,-7.211586E-1,-9.141077E-1,-4.4449538E-1,2.4904351E0,-7.0469016E-1,7.45856E-1,-5.010469E-1,-7.56772E-1,1.7109997E0,-1.1041198E0,-2.4720883E-1,-1.0466839E0,2.2625875E-1,-9.654068E-1,1.28378E0,-1.0289785E0,-7.968308E-1,-1.0243962E0,1.2499735E0,-7.9218876E-1,-1.0526599E0,-8.821345E-3,-9.234897E-1,1.2132338E-1,1.2091573E0,-4.4134733E-1,2.5669222E0,-1.1086116E0,-2.7787993E-2,-6.0706556E-1,1.6622293E0,-1.1048511E0,-7.5283486E-1,-6.957743E-1,3.2187014E0,-3.045918E-1,-1.0627888E0,-1.5781021E-1,1.7127577E0,-8.0866915E-1,7.439871E-1,5.466965E-1,-9.213084E-1,1.159802E0,-1.1966267E0,1.4114028E0,3.3762584E0,-1.1149005E0,1.3843415E0,-8.949674E-1,-4.8548594E-1,-6.644047E-1,8.8863766E-1,-5.2810603E-1,-1.0865363E0,-9.9257535E-1,-6.671837E-1,-7.820276E-3,1.739148E0,-9.3340874E-1,1.7272282E-1,-7.9860026E-1,5.930553E-1,1.2962122E0,2.453211E-1,-1.076981E0,-3.7550643E-1,-1.1218386E0,-2.6538938E-1,-3.4589052E-1,1.4681482E0,-8.172494E-1,-3.5006285E-1,2.801746E0,-7.800536E-1,-1.1148952E0,3.0363408E-1,-7.5451635E-2,-7.6808506E-1,-1.1593521E0,-1.465748E-1,3.5261688E-1,-1.2169981E0,8.818601E-1,-6.6710126E-1,-7.1644634E-1,2.2528079E0,-1.7373117E-2,-8.772262E-1,2.0344195E0,-6.690977E-1,-1.121772E0,-8.7265915E-1,-7.4397415E-1,1.6511161E0,2.2209198E0,-7.187133E-1,2.4685745E0,-1.0968142E0,9.9418396E-1,-9.384496E-1,-3.8589942E-1,-5.6099445E-1,-8.528484E-1,1.3574501E0,-7.053304E-1,-1.1137958E0,-1.0569882E0,3.514424E-1,-4.3062097E-1,-1.1030024E0,-9.8329514E-1,-4.3205443E-1,-7.0762813E-1,1.6997552E0,-2.3014101E-1,9.493179E-1,-1.1741719E0,1.80496E-1,1.2945954E0,-4.1130984E-1,-1.1537136E0,-4.6929434E-1,9.041841E-1,-7.6777554E-1,-1.0924467E0,-6.8348324E-1,8.3662085E-2,-5.616777E-1,-9.0144104E-1,-1.1673036E0,-4.2282778E-1,1.1528947E0,1.2030252E0,-7.722408E-1,1.3358773E-1,-6.8566513E-1,-7.976192E-1,1.1187408E0,-9.890323E-1,1.5528091E0,-9.451543E-1,-2.3574649E-1,-5.0361276E-1,1.2320569E0,-1.0080482E0,-5.7898754E-1,-9.749486E-1,5.322498E-2,-1.1544988E0,-3.957501E-1,-8.9282405E-1,3.6613795E-1,7.466981E-1,2.9834752E0,4.1689697E-1,-9.855612E-1,-4.530261E-1,-3.6353324E-2,-1.2473228E-1,-6.1597246E-1,-1.0380088E0,-3.6083016E-1,1.3241495E0,-1.0759501E0,-1.1195797E0,-4.104105E-1,-2.5167286E-1,-1.1108861E0,1.6017216E0,-7.6031685E-1,-8.06085E-1,2.2822246E-1,-1.1732606E0,-5.250244E-1,5.4920745E-1,-8.820805E-1,-8.320094E-1,-2.0860817E-1,-4.2142597E-1,-1.2057492E0,-1.1738834E0,-3.5259613E-1,-8.200534E-1,2.770752E-1,-9.414251E-1,1.8065305E-2,-2.9261654E-2,-1.1165891E0,-1.1262605E0,-5.8846503E-1,-8.56418E-2,2.3069408E0,5.9535956E-1,-7.1859974E-1,-4.6825558E-1,-1.0301069E0,5.290551E-1,-7.5902563E-1,-6.2136424E-1,1.498023E0,-8.7988955E-1,-7.0680934E-1,-1.6830814E-1,7.4721193E-1,3.708817E-2,-9.368201E-1,-3.8566172E-1,-1.0744684E0,-6.1122227E-1,9.969508E-1,-9.710687E-1,6.347739E-3,-1.6577823E-1,-1.1182861E0,2.0784152E0,-7.16611E-1,-7.7708364E-1,-1.2398068E0,-9.443745E-1,6.2142545E-1,-7.90009E-1,-9.7112924E-1,1.1979524E0,-8.324944E-1,1.1595538E0,-4.9803153E-2,1.6754136E0,3.8572598E0,1.1532805E0,-7.1706706E-1,-1.0107484E0,3.9540696E-1,-4.028305E-1,-8.0123365E-1,2.5232782E0,-1.2393028E-1,1.12370394E-1,-8.131945E-1,-9.5870286E-1,-5.5834126E-1],"categories":[],"categories_nodes":[],"categories_segments":[],"categories_sizes":[],"default_left":[true,true,true,true,true,true,true,true,true,true,true,true,true,true,true,true,true,true,true,true,false,true,true,true,true,true,true,true,true,true,true,true,true,true,false,false,false,false,false,true,false,true,true,false,true,true,true,true,true,true,true,true,true,true,true,true,true,true,false,true,true,false,false,false,false,false,true,false,false,true,true,false,true,true,false,true,false,false,true,true,false,true,true,true,true,true,true,false,false,true,true,true,true,true,true,false,true,true,false,true,false,false,true,true,true,false,false,true,true,true,true,false,false,true,true,false,true,false,false,true,true,true,false,true,false,true,true,false,false,true,false,true,true,false,true,true,false,true,true,false,false,true,true,false,true,true,true,false,false,false,false,true,false,false,true,true,true,true,false,true,true,true,true,true,true,false,true,true,false,false,false,true,false,false,true,false,true,false,true,true,true,true,true,true,false,true,true,false,true,true,true,false,false,false,false,true,true,true,false,true,true,false,false,true,true,true,true,true,true,true,true,true,true,true,true,false,false,false,false,false,false,false,false,false,false,false,false,false,false,false,false,false,false,false,false,false,false,false,false,false,false,false,false,false,false,false,false,false,false,false,false,false,false,false,false,false,false,false,false,false,false,false,false,false,false,false,false,false,false,false,false,false,false,false,false,false,false,false,false,false,false,false,false,false,false,false,false,false,false,false,false,false,false,false,false],"id":4,"left_children":[1,3,5,7,9,11,13,15,17,19,21,23,25,27,29,31,33,35,37,39,-1,41,43,45,47,49,51,53,55,57,59,61,63,65,-1,-1,-1,-1,-1,67,-1,69,71,-1,73,75,77,79,81,83,85,87,89,91,93,95,97,99,-1,101,103,-1,-1,-1,-1,-1,105,-1,-1,107,109,-1,111,113,-1,115,-1,-1,117,119,-1,121,123,125,127,129,131,-1,-1,133,135,137,139,141,143,-1,145,147,-1,149,-1,-1,151,153,155,-1,-1,157,159,161,163,-1,-1,165,167,-1,169,-1,-1,171,173,175,-1,177,-1,179,181,-1,-1,183,-1,185,187,-1,189,191,-1,193,195,-1,-1,197,199,-1,201,203,205,-1,-1,-1,-1,207,-1,-1,209,211,213,215,-1,217,219,221,223,225,227,-1,229,231,-1,-1,-1,233,-1,-1,235,-1,237,-1,239,241,243,245,247,249,-1,251,253,-1,255,257,259,-1,-1,-1,-1,261,263,265,-1,267,269,-1,-1,271,273,275,277,279,281,283,285,287,289,291,293,-1,-1,-1,-1,-1,-1,-1,-1,-1,-1,-1,-1,-1,-1,-1,-1,-1,-1,-1,-1,-1,-1,-1,-1,-1,-1,-1,-1,-1,-1,-1,-1,-1,-1,-1,-1,-1,-1,-1,-1,-1,-1,-1,-1,-1,-1,-1,-1,-1,-1,-1,-1,-1,-1,-1,-1,-1,-1,-1,-1,-1,-1,-1,-1,-1,-1,-1,-1,-1,-1,-1,-1,-1,-1,-1,-1,-1,-1,-1,-1],"loss_changes":[1.5504346E2,4.9300537E0,3.5910645E1,1.8199463E0,7.300415E0,2.7839966E1,3.6413452E1,4.8937988E-1,1.4509323E1,4.1834717E0,2.7284546E0,2.66493E1,1.8611938E1,1.738153E1,5.6970215E1,5.6475725E0,2.888794E-1,8.3945265E0,7.8035355E-1,1.1791667E1,0E0,6.772522E0,1.4578247E-1,2.4685904E1,1.3358994E1,1.628357E1,3.7667057E1,2.6882133E1,4.1692505E0,1.4115345E1,4.215851E1,7.215846E0,7.7884865E-1,3.5552192E0,0E0,0E0,0E0,0E0,0E0,7.4129405E0,0E0,3.9924011E0,1.5299264E1,0E0,9.142761E-1,2.6643386E0,9.7772026E-1,2.1436806E1,1.0610577E1,2.9357605E1,1.9303345E1,1.9586279E1,1.6759811E1,2.3263496E1,1.7973572E1,4.189972E0,3.034229E1,2.945301E0,0E0,3.4247967E1,1.7414062E1,0E0,0E0,0E0,0E0,0E0,2.6407423E0,0E0,0E0,4.4253693E0,4.027794E0,0E0,3.1521735E0,5.585037E0,0E0,3.3186553E0,0E0,0E0,1.230339E0,1.2439266E1,0E0,2.9873657E-1,6.220165E0,2.6764053E1,1.842077E1,2.8717651E0,1.6226135E1,0E0,0E0,1.7291887E1,8.791531E0,2.0466984E1,1.2230398E1,6.9466553E0,1.6235962E1,0E0,2.4256287E0,8.867302E0,0E0,1.0830417E1,0E0,0E0,5.9042427E1,9.925064E0,2.0863342E1,0E0,0E0,1.3293193E1,8.208008E-1,6.568611E0,1.1301449E1,0E0,0E0,4.4748688E-1,9.168679E0,0E0,1.3829175E0,0E0,0E0,3.6669464E0,1.7252625E1,5.47287E-1,0E0,6.3417645E0,0E0,9.366516E0,2.0885244E1,0E0,0E0,9.3914795E-1,0E0,1.5770334E1,1.35564575E1,0E0,1.6743958E1,4.892563E0,0E0,1.7571335E1,2.8678093E0,0E0,0E0,7.456505E0,4.023407E0,0E0,1.078325E0,1.0797501E0,7.4569397E0,0E0,0E0,0E0,0E0,1.09653015E1,0E0,0E0,7.276169E0,2.8424362E1,3.8111755E1,1.2216759E0,0E0,1.1235522E1,1.2042236E-1,2.696228E0,6.811581E0,1.890456E1,9.899292E-1,0E0,2.6659973E0,1.0355544E-1,0E0,0E0,0E0,1.1878967E-1,0E0,0E0,1.1877022E1,0E0,1.3067051E0,0E0,1.183373E0,2.230896E0,7.227272E0,2.854848E1,2.8156357E1,1.7182083E0,0E0,9.570892E0,5.930192E0,0E0,1.0217468E1,1.372106E1,6.9086323E0,0E0,0E0,0E0,0E0,6.951828E-1,5.9007225E0,2.1062963E0,0E0,7.310196E0,1.5515742E1,0E0,0E0,1.0121994E0,2.9926443E0,1.4963074E0,6.262546E0,1.6227982E0,6.2487183E0,4.4297256E0,4.0241394E0,1.7448502E1,4.43298E1,2.9383705E1,2.73891E1,0E0,0E0,0E0,0E0,0E0,0E0,0E0,0E0,0E0,0E0,0E0,0E0,0E0,0E0,0E0,0E0,0E0,0E0,0E0,0E0,0E0,0E0,0E0,0E0,0E0,0E0,0E0,0E0,0E0,0E0,0E0,0E0,0E0,0E0,0E0,0E0,0E0,0E0,0E0,0E0,0E0,0E0,0E0,0E0,0E0,0E0,0E0,0E0,0E0,0E0,0E0,0E0,0E0,0E0,0E0,0E0,0E0,0E0,0E0,0E0,0E0,0E0,0E0,0E0,0E0,0E0,0E0,0E0,0E0,0E0,0E0,0E0,0E0,0E0,0E0,0E0,0E0,0E0,0E0,0E0],"parents":[2147483647,0,0,1,1,2,2,3,3,4,4,5,5,6,6,7,7,8,8,9,9,10,10,11,11,12,12,13,13,14,14,15,15,16,16,17,17,18,18,19,19,21,21,22,22,23,23,24,24,25,25,26,26,27,27,28,28,29,29,30,30,31,31,32,32,33,33,39,39,41,41,42,42,44,44,45,45,46,46,47,47,48,48,49,49,50,50,51,51,52,52,53,53,54,54,55,55,56,56,57,57,59,59,60,60,66,66,69,69,70,70,72,72,73,73,75,75,78,78,79,79,81,81,82,82,83,83,84,84,85,85,86,86,89,89,90,90,91,91,92,92,93,93,94,94,96,96,97,97,99,99,102,102,103,103,104,104,107,107,108,108,109,109,110,110,113,113,114,114,116,116,119,119,120,120,121,121,123,123,125,125,126,126,129,129,131,131,132,132,134,134,135,135,137,137,138,138,141,141,142,142,144,144,145,145,146,146,151,151,154,154,155,155,156,156,157,157,159,159,160,160,161,161,162,162,163,163,164,164,166,166,167,167,171,171,174,174,176,176,178,178,179,179,180,180,181,181,182,182,183,183,185,185,186,186,188,188,189,189,190,190,195,195,196,196,197,197,199,199,200,200,203,203,204,204,205,205,206,206,207,207,208,208,209,209,210,210,211,211,212,212,213,213,214,214],"right_children":[2,4,6,8,10,12,14,16,18,20,22,24,26,28,30,32,34,36,38,40,-1,42,44,46,48,50,52,54,56,58,60,62,64,66,-1,-1,-1,-1,-1,68,-1,70,72,-1,74,76,78,80,82,84,86,88,90,92,94,96,98,100,-1,102,104,-1,-1,-1,-1,-1,106,-1,-1,108,110,-1,112,114,-1,116,-1,-1,118,120,-1,122,124,126,128,130,132,-1,-1,134,136,138,140,142,144,-1,146,148,-1,150,-1,-1,152,154,156,-1,-1,158,160,162,164,-1,-1,166,168,-1,170,-1,-1,172,174,176,-1,178,-1,180,182,-1,-1,184,-1,186,188,-1,190,192,-1,194,196,-1,-1,198,200,-1,202,204,206,-1,-1,-1,-1,208,-1,-1,210,212,214,216,-1,218,220,222,224,226,228,-1,230,232,-1,-1,-1,234,-1,-1,236,-1,238,-1,240,242,244,246,248,250,-1,252,254,-1,256,258,260,-1,-1,-1,-1,262,264,266,-1,268,270,-1,-1,272,274,276,278,280,282,284,286,288,290,292,294,-1,-1,-1,-1,-1,-1,-1,-1,-1,-1,-1,-1,-1,-1,-1,-1,-1,-1,-1,-1,-1,-1,-1,-1,-1,-1,-1,-1,-1,-1,-1,-1,-1,-1,-1,-1,-1,-1,-1,-1,-1,-1,-1,-1,-1,-1,-1,-1,-1,-1,-1,-1,-1,-1,-1,-1,-1,-1,-1,-1,-1,-1,-1,-1,-1,-1,-1,-1,-1,-1,-1,-1,-1,-1,-1,-1,-1,-1,-1,-1],"split_conditions":[4.566E1,3.957E1,5.6739998E1,9.2105263E-1,3.977E1,1.3157895E-1,1.968492E-1,7.8947365E-2,3.393E1,5.790837E-1,4.3760002E1,1.333786E-1,9.5131505E-1,3.4210527E-1,2.00419E-1,3.2635002E1,2.839E1,3.378E1,3.897E1,9.15E-1,-2.684744E-1,4.366E1,9.55E-1,1.0689123E-1,8.959526E-1,2.4720415E-1,9.525145E-1,5.863E1,7.141E1,6.522E1,5.684E1,3.154E1,8.893554E-1,2.829E1,-3.3734637E-1,-2.3400636E-1,4.3083957E-1,-3.391731E-1,-3.642018E-2,9.75E-1,6.6688824E-1,9.25E-1,8.58809E-1,-3.3858687E-1,2.8947368E-1,4.96E1,8.95E-1,8.8962924E-1,9.85E-1,2.4304868E-1,2.9745185E-1,9.45E-1,6.052631E-1,5.853E1,7.3E1,9.15E-1,7.181E1,1.9954915E-1,-2.1140705E-1,4.7584486E-1,5.7239998E1,-2.270316E-1,5.1329994E-1,-3.3123595E-1,-7.4162655E-2,-3.140052E-1,4.7298515E-1,-2.8962204E-1,3.85134E-1,1.6472435E-1,4.157E1,-3.0731887E-1,3.4210527E-1,2.3684211E-1,-3.1579798E-1,4.686E1,-2.7704692E-1,3.6397014E-2,5.2845E1,1.5634426E-1,7.700767E-1,9.937425E-1,8.76165E4,5.2739998E1,5.1E1,9.6567E4,4.6059998E1,-2.087323E-1,9.6561044E-1,8.85E-1,4.805E1,5.7239998E1,9.85E-1,3.2261997E-2,7.385E1,1.6400895E-1,9.75E-1,6.496245E-2,-3.5898802E-1,1.9885845E-1,1.0128776E0,-3.3447015E-1,8.4151405E-1,9.56E2,6.224456E-1,-1.9932142E-1,2.665913E-1,1.3855949E-1,4.017E1,9.476521E-1,6.950884E-1,-2.3460828E-3,5.2174443E-1,4.546E1,9.85E-1,-2.3958008E-1,7.8947365E-2,3.8886368E-1,7.359633E-2,5.58465E4,1.5653524E-1,9.75E-1,-7.9616815E-2,8.85E-1,4.404445E-1,9.15E-1,9.85E-1,8.405238E-1,-2.3401609E-1,3.4210527E-1,9.1090225E-2,7.631579E-1,2.9792446E-1,-3.4780562E-1,9.35E-1,9.2E-1,-3.6509943E-1,5.704E1,1.3957115E-1,-2.1493392E-1,6.758424E-1,3.0032177E-2,1.6577667E-1,6.103259E-1,7.62E1,9.45E-1,6.697E1,-2.2319226E-1,4.9533486E-1,6.66276E-1,-2.1561399E-1,1.22115E4,-3.2904425E-1,2.982552E-1,7.8947365E-2,5.892561E-1,5.853E1,9.75E-1,4.0723506E-1,9.6500003E-1,9.6769273E-1,3.997E1,2.631579E-1,5.268823E-1,9.359646E-1,-2.9498854E-1,4.5559998E1,5.36395E4,5.0992656E-1,-6.904231E-2,2.8479537E-1,9.1415E3,5.4148804E-2,3.8837862E-1,1.658463E-1,-3.461141E-1,9.058479E-1,2.7125525E-1,5.609E1,9.945E2,9.75E-1,2.275677E-1,5.304E1,2.6588142E-1,-3.501911E-1,3.4210527E-1,9.15E-1,3.6090758E-1,5.135E1,4.543E4,5.0300003E1,-2.3928578E-1,3.3562225E-1,-2.9670972E-1,4.6584275E-1,9.1505E3,4.71295E4,2.4959661E-2,3.6961707E-1,9.05E-1,1.6602197E-1,-2.9248458E-1,1.5967496E-2,6.1453287E-2,6.881E1,3.1581E4,1.7747366E-1,2.823E3,8.205861E-1,8.3171713E-1,9.736842E-1,9.75E-1,5.89606E-1,9.0207225E-1,5.983E1,-3.1140265E-1,-1.0824905E-1,3.9724487E-1,-3.2278505E-1,-3.358739E-1,-1.23123154E-1,-7.550186E-2,-3.3326584E-1,4.8051652E-1,-2.2809507E-1,-2.418255E-1,6.846674E-2,-3.5197818E-1,-1.5750733E-1,1.6476224E-1,-2.6462415E-1,-2.4960282E-1,-6.2582456E-2,-1.264278E-1,-3.6172476E-1,-3.5216504E-1,-1.0577884E-1,-2.4601603E-1,8.312257E-2,-2.8242755E-1,5.419592E-3,-8.778497E-3,-3.3497673E-1,-3.3787817E-1,-1.7653951E-1,-2.5692541E-2,6.920823E-1,1.7860788E-1,-2.1557993E-1,-1.4047667E-1,-3.0903208E-1,1.5871654E-1,-2.277077E-1,-1.8640928E-1,4.4940692E-1,-2.639669E-1,-2.1204281E-1,-5.0492443E-2,2.2416359E-1,1.1126451E-2,-2.8104603E-1,-1.15698524E-1,-3.2234052E-1,-1.8336669E-1,2.9908526E-1,-2.9132062E-1,1.9043218E-3,-4.973347E-2,-3.3548585E-1,6.2352455E-1,-2.1498331E-1,-2.331251E-1,-3.7194204E-1,-2.8331235E-1,1.8642764E-1,-2.3700272E-1,-2.9133877E-1,3.5938573E-1,-2.4974832E-1,3.4786615E-1,-1.4940946E-2,5.026241E-1,1.1571779E0,3.4598416E-1,-2.1512012E-1,-3.0322453E-1,1.18622094E-1,-1.20849155E-1,-2.4037011E-1,7.569835E-1,-3.7179086E-2,3.371112E-2,-2.4395837E-1,-2.8761086E-1,-1.6750239E-1],"split_indices":[5,5,5,7,5,7,8,7,5,8,5,10,10,7,10,5,5,5,5,0,0,5,4,10,8,10,10,5,5,5,5,5,8,5,0,0,0,0,0,6,0,0,8,0,7,5,0,8,6,10,10,4,7,5,5,4,5,10,0,8,5,0,0,0,0,0,8,0,0,8,5,0,7,7,0,5,0,0,5,10,0,8,2,5,5,2,5,0,0,0,5,5,6,8,5,0,6,8,0,10,0,0,8,2,10,0,0,8,5,8,8,0,0,5,6,0,7,0,0,2,10,4,0,0,0,0,6,0,0,7,0,7,8,0,0,0,0,5,10,0,0,8,8,0,5,0,5,0,0,0,0,2,0,0,7,8,5,6,0,6,8,5,7,8,8,0,5,2,0,0,0,2,0,0,10,0,8,0,5,2,6,8,5,10,0,7,0,0,5,2,5,0,0,0,0,2,2,9,0,0,10,0,0,8,5,2,8,2,8,8,7,4,10,8,5,0,0,0,0,0,0,0,0,0,0,0,0,0,0,0,0,0,0,0,0,0,0,0,0,0,0,0,0,0,0,0,0,0,0,0,0,0,0,0,0,0,0,0,0,0,0,0,0,0,0,0,0,0,0,0,0,0,0,0,0,0,0,0,0,0,0,0,0,0,0,0,0,0,0,0,0,0,0,0,0],"split_type":[0,0,0,0,0,0,0,0,0,0,0,0,0,0,0,0,0,0,0,0,0,0,0,0,0,0,0,0,0,0,0,0,0,0,0,0,0,0,0,0,0,0,0,0,0,0,0,0,0,0,0,0,0,0,0,0,0,0,0,0,0,0,0,0,0,0,0,0,0,0,0,0,0,0,0,0,0,0,0,0,0,0,0,0,0,0,0,0,0,0,0,0,0,0,0,0,0,0,0,0,0,0,0,0,0,0,0,0,0,0,0,0,0,0,0,0,0,0,0,0,0,0,0,0,0,0,0,0,0,0,0,0,0,0,0,0,0,0,0,0,0,0,0,0,0,0,0,0,0,0,0,0,0,0,0,0,0,0,0,0,0,0,0,0,0,0,0,0,0,0,0,0,0,0,0,0,0,0,0,0,0,0,0,0,0,0,0,0,0,0,0,0,0,0,0,0,0,0,0,0,0,0,0,0,0,0,0,0,0,0,0,0,0,0,0,0,0,0,0,0,0,0,0,0,0,0,0,0,0,0,0,0,0,0,0,0,0,0,0,0,0,0,0,0,0,0,0,0,0,0,0,0,0,0,0,0,0,0,0,0,0,0,0,0,0,0,0,0,0,0,0,0,0,0,0,0,0,0,0,0,0,0,0,0,0,0,0,0,0,0,0,0,0,0,0],"sum_hessian":[7.407869E3,1.0811809E3,6.326688E3,4.7888425E2,6.022967E2,2.830539E3,3.496149E3,4.4781448E2,3.1069769E1,9.864146E0,5.9243256E2,4.022475E2,2.4282915E3,5.505676E2,2.9455813E3,2.0831465E1,4.2698303E2,5.3647513E0,2.5705017E1,6.8115816E0,3.052565E0,3.6636127E2,2.2607124E2,3.146491E1,3.707826E2,2.2580151E3,1.702764E2,1.781251E2,3.7244254E2,8.27798E0,2.9373032E3,2.9246237E0,1.7906841E1,1.0630628E1,4.163524E2,1.9934429E0,3.3713086E0,2.4651083E1,1.0539335E0,5.422057E0,1.3895242E0,3.5621558E2,1.0145705E1,9.911165E1,1.269596E2,1.2898952E1,1.8565958E1,3.072999E2,6.348269E1,5.0459705E2,1.7534181E3,4.6810274E0,1.6559537E2,4.3635174E1,1.3448993E2,3.4944666E2,2.2995882E1,7.06686E0,1.21112E0,2.6527567E1,2.9107756E3,1.8424221E0,1.0822016E0,1.6057034E1,1.849808E0,8.155241E0,2.475386E0,4.3545494E0,1.0675076E0,1.7240686E2,1.8380872E2,6.0446625E0,4.1010427E0,3.8803497E1,8.8156105E1,4.985156E0,7.9137955E0,1.1129564E0,1.7453003E1,3.05893E2,1.4068843E0,5.247846E1,1.10042305E1,4.9976337E2,4.83368E0,1.7806761E2,1.5753505E3,1.3832314E0,3.2977958E0,1.2828297E2,3.731241E1,3.6542755E1,7.092419E0,1.2733264E2,7.157287E0,1.3465742E0,3.481001E2,7.1668844E0,1.5828998E1,4.3551373E0,2.7117229E0,6.586418E0,1.9941149E1,1.08466484E2,2.8023093E3,1.0544578E0,1.4209282E0,1.8818878E1,1.5358798E2,7.058366E1,1.1322505E2,1.4238837E0,2.6771593E0,3.387793E1,4.9255676E0,2.014669E0,2.9704869E0,1.5690932E1,1.7620698E0,2.7269882E1,2.7862314E2,5.1342667E1,1.1357932E0,9.708543E0,1.2956878E0,2.737242E2,2.2603915E2,3.195531E0,1.6381491E0,1.7701375E2,1.0538638E0,3.4816547E1,1.5405339E3,1.9026451E1,1.09256516E2,3.539409E0,3.3773E1,1.1774554E1,2.4768202E1,1.2305669E0,5.8618526E0,1.0252301E1,1.1708034E2,3.5111737E0,3.6461136E0,6.367268E1,2.844274E2,1.36468E0,5.802204E0,3.124929E0,1.2302084E0,1.3880583E1,6.060566E0,1.9484627E0,1.0651802E2,1.2111117E3,1.5911976E3,1.6521189E1,2.297689E0,1.2043414E1,1.4154457E2,6.7559395E1,3.0242639E0,7.46779E1,3.854715E1,2.9937748E1,3.9401827E0,3.4647186E0,1.4608492E0,1.0041848E0,1.966302E0,2.5374893E1,1.8949897E0,5.1098137E0,2.735133E2,4.8219265E1,3.123399E0,2.1612902E0,7.547253E0,8.7187164E1,1.8653705E2,7.431928E1,1.5171986E2,3.8481686E1,1.3853206E2,2.7652266E1,7.1642814E0,2.6341937E0,1.5378998E3,7.238868E1,3.6867836E1,1.3985528E0,2.140856E0,2.9828935E0,8.79166E0,1.4336017E1,1.0432185E1,7.8098674E0,2.4424336E0,7.972781E1,3.7352524E1,2.3158004E0,1.3303132E0,6.0361603E1,3.3110785E0,2.801465E2,4.2808905E0,3.7593012E0,1.0121282E1,3.3144982E0,1.0320352E2,1.0157512E3,1.9536043E2,1.7844746E2,1.4127501E3,1.1197541E1,5.3236475E0,1.4624382E0,1.0580976E1,1.3980328E2,1.7412913E0,4.5935984E0,6.2965797E1,1.2160221E0,1.8082418E0,4.7426712E1,2.7251186E1,3.345096E1,5.096193E0,1.1695786E0,2.7706044E0,2.239287E0,1.2254317E0,1.5991778E0,2.3775715E1,1.8195593E1,2.5531772E2,2.0576677E0,1.0657313E0,6.0191903E0,1.5280627E0,1.9849702E0,8.5202194E1,3.103999E1,1.5549706E2,6.995375E1,4.3655367E0,1.778575E1,1.3393411E2,9.874858E0,2.8606829E1,7.067705E0,2.058456E1,1.0363185E0,6.1279626E0,5.7668427E2,9.6121545E2,4.9004673E1,2.3384007E1,9.727412E0,2.7140423E1,3.4390259E0,1.0896991E1,8.38293E0,2.0492556E0,3.602984E0,4.2068834E0,9.517034E0,7.021078E1,1.1448172E0,3.6207706E1,1.2992039E1,4.736956E1,2.1974387E0,1.1136401E0,1.25912155E2,1.5423436E2,2.5274699E0,1.7534204E0,2.1757312E0,1.58357E0,5.2217326E0,4.8995495E0,1.9992034E0,1.3152947E0,1.0161822E2,1.5853062E0,8.8965985E2,1.2609138E2,5.5429597E0,1.8981747E2,1.3335686E2,4.5090603E1,2.0111165E2,1.2116385E3],"tree_param":{"num_deleted":"0","num_feature":"12","num_nodes":"295","size_leaf_vector":"0"}},{"base_weights":[-5.3971946E-1,-8.5151285E-1,-4.698366E-1,-9.973379E-1,-7.441635E-1,-4.9665102E-1,-3.0741778E-1,-1.0011623E0,7.531616E-2,-2.792706E-1,-8.0074996E-1,-4.1712987E-1,-5.723188E-1,-6.370664E-1,-2.4099067E-1,-1.0494763E0,-8.9698386E-1,-6.399477E-1,1.2064341E0,-8.0901766E-1,2.2038719E-1,-4.065594E-1,-1.056268E0,-6.3159573E-1,-4.774229E-1,-4.1317187E-2,-7.5141174E-1,-3.517577E-1,-7.848058E-2,-1.0625172E0,-1.0219619E-1,-9.915477E-1,-5.502668E-1,7.6896876E-1,-7.5563705E-1,3.378791E-1,1.263105E0,-1.0046275E0,-7.704103E-1,8.9415216E-1,-8.804122E-1,-6.6185546E-1,-3.8124898E-1,3.8680094E-1,-1.1829634E0,-6.474099E-1,-1.271411E-1,3.3284283E-1,-5.232121E-1,-5.686102E-1,1.0710212E0,1.3716322E0,-7.8869903E-1,-5.9023124E-1,-1.9564345E-1,2.2759679E-1,-3.0161056E-1,-6.3193893E-1,-1.0740484E0,1.6973683E0,-9.136705E-1,-1.9036905E-1,-1.0448201E0,1.3274155E0,-8.553269E-1,1.5115961E0,-2.4487069E-1,-8.391969E-1,8.8225543E-1,5.4434896E-1,-1.0411904E0,-7.1616316E-1,-1.0083022E0,-1.0078386E0,-4.125872E-1,-7.914315E-2,-4.0816313E-1,8.7784314E-1,-3.7688246E-1,-5.791914E-1,-7.655621E-1,-5.304146E-1,1.5738251E0,-8.5341847E-1,9.352208E-1,-9.925933E-1,-4.7182053E-1,-8.8160735E-1,1.3953032E0,1.642505E0,-7.359979E-1,-6.911629E-1,-1.1259023E0,3.4677246E-1,-6.6506195E-1,-5.8468467E-1,-5.2503217E-3,-2.0141378E-1,1.0874053E0,-5.010442E-1,1.6196135E-1,-1.0389999E0,6.0246795E-1,2.180619E0,-9.841819E-1,-1.0952628E0,-6.2205327E-1,2.4821374E0,-7.3760116E-1,2.3121884E-1,-1.0296936E0,3.03597E-1,-6.648685E-1,-1.0117186E0,-2.7073458E-1,2.1486378E0,-7.4547076E-1,-7.3272645E-1,1.3344221E0,4.1355604E-1,-1.0285419E0,5.076809E-1,-1.0614358E0,1.9859985E-1,-6.2395895E-1,2.8351054E-1,-3.3005625E-1,-6.1363125E-1,-3.6720216E-1,-3.874934E-1,-7.149764E-1,-1.02436E0,-7.024496E-1,-1.1240826E0,-1.8931165E-1,2.3752122E0,-8.31984E-1,6.617651E-1,-9.9736804E-1,-6.283726E-1,1.4493624E0,-1.0634459E0,-3.1416675E-1,1.6089809E0,-4.897711E-1,-1.1993585E0,-2.2690915E-1,2.477034E0,2.8181913E-1,-5.952294E-1,-1.1314974E0,-1.5534285E-1,1.4640888E0,-9.083846E-1,-2.5640947E-1,-6.653882E-1,7.286521E-1,1.7043798E0,-9.294876E-2,-3.8598874E-1,1.3716131E0,1.5019349E0,-4.2494813E-1,-7.3627114E-1,-1.0595618E-1,5.067623E-1,-1.1267586E0,-6.579766E-1,1.7782967E0,-1.6423759E-1,-1.1040722E0,-1.033526E0,2.0583843E-1,9.3995994E-1,3.021526E0,1.0851603E0,-7.5957555E-1,-2.7565846E-1,-1.0600312E0,-1.0741587E0,4.838876E-2,1.2986473E0,-9.7406507E-1,-7.7775335E-1,-5.177775E-1,-1.1004176E0,-6.1183673E-1,-3.5559046E-1,1.3133241E0,-1.0764881E0,-5.010103E-1,-1.2122649E-1,1.6177199E0,1.4858653E-1,-7.1997136E-1,4.1278687E-1,-1.045608E0,-4.4169617E-1,7.7506036E-1,-6.994118E-1,-9.691247E-2,-2.6315624E-2,-4.2356163E-1,-2.9213947E-1,-8.450779E-1,-8.0418783E-1,1.4185576E-1,1.0143224E0,-1.1116287E0,-8.294489E-1,-5.0833243E-1,8.1278753E-1,-9.351772E-1,1.1054964E0,3.2030344E0,-7.059671E-2,-1.1448447E0,-1.0730982E0,4.7688067E-1,-7.213011E-1,1.6078541E0,-4.010834E-1,-1.0978453E0,-7.8550017E-1,1.4528981E0,-5.798187E-1,-1.8229002E-1,-7.9067683E-1,1.039511E0,-6.850636E-1,1.2242169E0,-7.0485103E-1,1.5494257E0,-1.750362E-1,-1.2022839E0,7.93127E-1,-5.878891E-1,-2.1514235E-1,2.3645244E0,-9.605082E-1,8.8110596E-1,1.0662478E0,-4.5606014E-1,-7.3644125E-1,5.288408E-1,1.1310712E0,-2.5611684E-1,2.6783636E0,6.7873263E-1,-6.640065E-1,7.505546E-2,3.4225792E-1,-6.066253E-1,-6.7209166E-1,2.7200077E0,-1.9417186E-1,2.3658879E0,3.758893E-1,-1.0085545E0,-8.516539E-1,1.2793912E-2,6.0118353E-1,-5.6039095E-1,1.0592521E0,-2.3027685E-2,1.4455937E0,-8.3723044E-1,7.9717183E-1,-6.8123245E-1,1.6489966E0,3.967682E-1,-1.567288E-1,-1.0493159E0,-5.0346684E-1,-8.330638E-1,4.5390856E-1,-6.598004E-1,-9.368299E-1,6.1200655E-1,-3.8803157E-1,-1.0866879E0,2.5791925E-1,-8.5099566E-1,4.2162427E-1,-8.100472E-1,1.2406751E0,-9.930317E-1,-6.1380273E-1,-1.1488451E0,-7.833722E-2,9.5263314E-1,-5.388833E-1,3.2197168E-1,1.6516601E0,-9.198641E-1,8.820419E-1,-7.302099E-1,2.3832562E0,-3.0797425E-1,-1.0983996E-1,2.5261328E0,-5.2718717E-1,-2.7014822E-1,-3.6698186E-1,2.8920028E-1,6.0408616E-1,-9.642294E-1,1.9923878E-1,-8.2804704E-1,-1.0021325E0,1.0770725E0,-7.562114E-1,2.501323E0,-1.1322662E0,2.4547826E-1,-5.456067E-1,-9.8274136E-1,1.6524215E-1,-7.179945E-1,1.5156775E0,-5.364436E-1,-1.1530708E0,8.5107255E-1,6.609295E-1,-7.2147423E-1,-6.7191625E-1,1.7604865E0,7.748187E-1,-8.7996334E-1,3.2815167E-1,-9.925418E-1,-4.1388378E-1,-7.5204396E-1,-4.9353883E-1,3.0599838E-1,-9.2553747E-1,-1.8272108E-1,-5.23139E-1,-1.0171688E0,2.8685653E-1,1.9486839E0,-9.6018386E-1,2.1520597E-1,9.795967E-1,-1.0031755E0,1.7666738E0,-7.7933156E-1,-9.066607E-1,-1.3270304E-1,-3.3125436E-1,-9.909304E-1,2.1365895E0,-6.2338054E-1,1.3731655E0,3.5782558E-1,-7.2164845E-1,1.3307717E0,-9.4105375E-1,-3.9404622E-1,5.489205E-1,-2.2143286E-1,7.2049236E-1,-9.2077494E-1,1.0623801E0,-6.838468E-1,-8.2303804E-1,-1.4000717E-1,1.1445469E0,-1.0579627E0,2.5237386E0,6.683118E-1,1.1850215E0,-4.8959342E-1,-6.979972E-1,-1.0480361E0,-1.0494562E0,9.321941E-1,-1.8076253E-1,2.515146E0,-9.928161E-1,-3.400472E-1,-2.3400241E-1,1.4182558E0,6.252835E-1,-1.0277027E0],"categories":[],"categories_nodes":[],"categories_segments":[],"categories_sizes":[],"default_left":[true,true,true,true,true,true,true,true,false,true,true,true,true,true,true,true,true,true,true,true,true,true,true,true,true,true,true,true,true,true,true,true,true,true,true,false,false,true,true,false,false,true,true,true,false,true,true,true,true,true,true,false,true,true,true,true,true,true,false,false,false,true,true,true,true,false,true,true,true,false,false,true,true,true,true,true,true,false,false,true,true,true,true,true,true,true,true,true,false,true,false,true,false,true,true,true,true,true,true,true,true,false,true,false,false,true,true,true,false,true,true,false,false,true,true,false,false,true,false,false,true,true,true,true,true,true,true,true,true,true,true,true,true,false,true,true,false,false,true,true,true,true,true,false,true,false,true,false,true,true,true,true,true,true,true,true,true,true,true,true,true,true,true,true,true,true,false,false,false,false,false,false,true,false,false,false,false,false,false,false,true,true,true,true,true,false,true,false,false,true,true,true,false,true,true,true,false,true,true,true,true,true,true,true,true,true,true,true,true,true,true,true,true,false,false,true,false,false,false,false,true,true,false,true,false,true,true,true,false,false,false,true,true,false,false,false,true,false,false,true,false,true,true,true,true,true,false,false,true,true,true,true,true,true,false,true,true,true,false,true,true,true,true,true,true,false,false,false,false,false,false,false,false,false,false,false,false,false,false,false,false,false,false,false,false,false,false,false,false,false,false,false,false,false,false,false,false,false,false,false,false,false,false,false,false,false,false,false,false,false,false,false,false,false,false,false,false,false,false,false,false,false,false,false,false,false,false,false,false,false,false,false,false,false,false,false,false,false,false,false,false,false,false,false,false,false,false,false,false,false,false,false,false,false,false,false,false,false,false,false,false,false,false,false,false,false,false,false,false,false,false,false,